Sno,Weight
0,0.021958292
1,-0.016875958
2,0.015155604
3,0.01997392
4,-0.058474492
5,-0.08659103
6,-0.00217874
7,-0.0472398
8,-0.03296163
9,-0.05238779
10,0.0013166984
11,-0.11327461
12,0.025122507
13,-0.12483723
14,-0.04858834
15,0.024766589
16,-0.005635238
17,0.032033075
18,0.018447097
19,0.0129349865
20,-0.08540761
21,0.012560489
22,-0.036903497
23,0.005113376
24,-0.039059103
25,-0.08240651
26,-0.008378334
27,0.03206236
28,0.01978108
29,0.0101312
30,-0.010268204
31,-0.00018024001
32,-0.06496581
33,0.033342667
34,-0.026749628
35,0.017523736
36,-0.0013429845
37,-0.005261893
38,-0.014668498
39,-0.04582564
40,0.011408567
41,-0.03170614
42,-0.037045103
43,0.011908147
44,-0.03508306
45,-0.032891944
46,-0.014820621
47,-0.09543161
48,0.0063526207
49,-0.015768638
50,-0.051300105
51,-0.09295868
52,-0.008895994
53,0.033912454
54,0.050145548
55,-0.0039288327
56,0.01976952
57,-0.002003427
58,-0.004850205
59,-0.010845737
60,0.025636557
61,-0.080149844
62,0.0012686438
63,0.03238959
64,0.020087197
65,0.00789839
66,-0.009654483
67,-0.0073062945
68,-0.0023545297
69,-0.1002633
70,-0.09491615
71,-0.050521523
72,-0.026618775
73,0.013083781
74,-0.04242229
75,-0.03468839
76,0.0039277333
77,0.020199975
78,-0.10047874
79,0.0063689873
80,0.07808669
81,0.009922601
82,-0.02938772
83,-0.02206734
84,-0.07082673
85,0.0061387517
86,-0.006802988
87,-0.102250844
88,-0.02398084
89,0.008986198
90,-0.016316196
91,-0.013980661
92,0.008202035
93,0.018499255
94,-0.0047050198
95,0.031463604
96,-0.047395602
97,-0.015664145
98,-0.0014946625
99,-0.14219283
100,0.034227274
101,-0.023811808
102,-0.054695148
103,-0.017169451
104,0.0035699368
105,-0.04871677
106,0.00026770562
107,0.028179104
108,0.016723089
109,0.018606395
110,0.0037487366
111,-0.0036728398
112,-0.014693422
113,0.023529211
114,0.041531324
115,-0.028469779
116,-0.06884981
117,0.034295138
118,-0.14807738
119,0.011224656
120,-0.0029311003
121,-0.012170026
122,0.038162544
123,-0.027059946
124,-0.0011306168
125,0.03316141
126,-0.020193018
127,-0.00016524534
128,0.055647302
129,0.075459175
130,-0.051491458
131,-0.12431985
132,0.055875313
133,-0.1155377
134,0.07472204
135,-0.07593207
136,0.04182207
137,-0.08977776
138,0.047851875
139,-0.0699108
140,0.047735997
141,-0.12513019
142,-0.032935422
143,-0.009422777
144,0.030773874
145,-0.05424024
146,-0.11989848
147,0.008618313
148,-0.10323065
149,0.032557588
150,-0.089220665
151,-0.012262737
152,-0.078900054
153,-0.0044465954
154,-0.076493815
155,-0.062836595
156,0.05144248
157,0.03300275
158,-0.03237263
159,-0.012157568
160,-0.1326094
161,-0.031723853
162,-0.1805816
163,0.025519857
164,-0.09168997
165,0.011903676
166,-0.004670829
167,0.062914096
168,-0.17625664
169,0.02786374
170,-0.010085123
171,0.05272837
172,-0.05828278
173,0.06872459
174,-0.07688593
175,-0.008304762
176,0.006915499
177,-0.13100968
178,-0.04208054
179,-0.06753365
180,-0.006675365
181,-0.02237988
182,-0.26063454
183,0.035069704
184,0.054027405
185,0.0058168285
186,-0.06456417
187,0.047081385
188,-0.031782847
189,0.005759427
190,0.06085882
191,-0.12262121
192,0.053359088
193,0.04891425
194,0.04766691
195,-0.02156196
196,-0.014294656
197,-0.043539338
198,-0.056630354
199,-0.033602495
200,-0.0141404
201,-0.0857725
202,-0.020473475
203,-0.092751354
204,0.08549903
205,0.031186655
206,-0.12002204
207,0.04260789
208,-0.25076723
209,-0.08377443
210,-0.006652795
211,-0.064447105
212,-0.1482902
213,-0.012276613
214,0.04884399
215,-0.034113076
216,0.057207715
217,-0.007126764
218,-0.013339623
219,-0.038951255
220,0.03853036
221,0.0074526803
222,0.066205256
223,-0.039605938
224,0.13151829
225,0.045134626
226,-0.058729105
227,-0.08576753
228,-0.019246416
229,-0.11101441
230,-0.044080637
231,0.037554294
232,-0.020254465
233,0.012075605
234,0.03240659
235,0.11471279
236,-0.08420508
237,-0.006483267
238,0.056686834
239,0.054675225
240,0.06022213
241,-0.025108943
242,-0.104462124
243,-0.08287636
244,0.119017795
245,0.03585084
246,-0.039626375
247,-0.02233088
248,0.04266418
249,0.04254369
250,-0.00267352
251,0.076274715
252,-0.011076472
253,-0.017786011
254,0.10445685
255,-0.0013209481
256,-0.0072609144
257,0.11097319
258,0.08664355
259,0.025298698
260,-0.16074704
261,-0.017978625
262,-0.039535902
263,0.023371132
264,-0.118740566
265,0.004071847
266,-0.03406163
267,0.040096767
268,0.013046154
269,0.003914904
270,0.076534346
271,0.1702698
272,-0.006991748
273,0.12032257
274,0.03423717
275,0.0055900756
276,-0.005630617
277,-0.04842061
278,-0.003894044
279,0.09061089
280,0.051775895
281,-0.09979176
282,-0.058731273
283,0.08513252
284,-0.0048313313
285,0.12300637
286,0.0015252265
287,-0.0004637658
288,0.0033527506
289,0.021957403
290,0.017310945
291,-0.060724746
292,0.05517279
293,0.11977454
294,0.18062669
295,-0.04306249
296,-0.03700655
297,-0.03578237
298,0.19983634
299,-0.020310678
300,0.101810224
301,-0.099586606
302,-0.08318318
303,-0.022133362
304,0.015888615
305,0.093940124
306,0.042367328
307,-0.01125449
308,0.005472029
309,0.14439768
310,0.064420715
311,0.09423385
312,0.12100161
313,-0.007416321
314,-0.09204855
315,-0.033478614
316,-0.02815316
317,-0.07139101
318,-0.020310715
319,0.039576735
320,0.005406288
321,-0.020715881
322,-0.022088008
323,0.0037145356
324,-0.20076835
325,0.037805308
326,0.015898872
327,0.010700374
328,0.0711546
329,0.036607377
330,-0.08482318
331,-0.07845085
332,0.06680476
333,0.022775441
334,-0.010306948
335,0.0849204
336,0.06562605
337,-0.0841766
338,-0.011301751
339,0.039061915
340,0.013858236
341,0.017560108
342,0.08918482
343,0.0979815
344,-0.04127704
345,-0.0008667442
346,-0.0144735165
347,0.046001114
348,-0.06624506
349,-0.0065043485
350,-0.042662676
351,0.15287462
352,0.10522319
353,-0.03157834
354,0.064295076
355,-0.039250508
356,0.0012679758
357,0.022089282
358,0.0040283646
359,-0.026503937
360,-0.00405555
361,-0.041237738
362,-0.0347967
363,-0.13662109
364,0.03278472
365,-0.0003733739
366,-0.049370404
367,-0.058277722
368,-0.060423303
369,0.1425641
370,0.041077018
371,-0.001140659
372,-0.07912474
373,0.019750161
374,0.013185661
375,0.017837556
376,-0.013256094
377,-0.02661053
378,0.0071624205
379,-0.08946966
380,0.008669373
381,0.010685847
382,-0.13793734
383,-0.004809601
384,-0.002436616
385,0.07411726
386,-0.038990628
387,-0.099347964
388,0.039564088
389,-0.09334539
390,0.053398434
391,0.01052493
392,0.05521288
393,0.025478087
394,0.009160564
395,-0.03208822
396,0.034273237
397,0.0136873275
398,-0.09536034
399,0.025007134
400,0.02088749
401,0.058811314
402,0.03619193
403,0.023671247
404,-0.13478419
405,0.054463815
406,-0.101295605
407,0.04493761
408,-0.120083086
409,0.09067023
410,0.006128118
411,-0.078975886
412,0.023733437
413,0.043504316
414,-0.020346427
415,-0.0043584057
416,0.0024875936
417,0.020751206
418,0.04883542
419,0.021639641
420,0.032623556
421,-0.02534984
422,0.015922572
423,0.07789815
424,-0.1320452
425,0.012168292
426,-0.00022189147
427,0.04526809
428,0.00082405604
429,0.018036285
430,-0.050500628
431,0.027512385
432,0.036003765
433,0.00882429
434,0.008915336
435,-0.0017614274
436,0.00035078404
437,-0.027375622
438,-0.042043228
439,-0.004598001
440,0.0523392
441,-0.005634759
442,-0.01006997
443,0.033522382
444,-0.026491195
445,-0.04727174
446,0.036037803
447,-0.012950847
448,0.037855804
449,-0.1412315
450,0.01393642
451,-0.003765425
452,-0.06409556
453,-0.0088260695
454,0.005163872
455,0.02520799
456,0.044927794
457,-0.007061131
458,-0.004710126
459,-0.009417987
460,0.10959857
461,0.012382407
462,0.0021194739
463,0.067494355
464,-0.01829841
465,-0.039734494
466,0.04922709
467,-0.004949779
468,0.041644555
469,-0.029082347
470,0.044933673
471,-0.012631662
472,0.01993746
473,0.0026247595
474,0.037927143
475,0.055891894
476,0.03212454
477,0.09047058
478,0.043380823
479,0.03551486
480,0.1209373
481,0.012634869
482,0.025953893
483,0.004395267
484,0.013137051
485,-0.08904099
486,0.054587495
487,0.013649741
488,-0.015929757
489,-0.08836934
490,0.036357023
491,0.04427134
492,-0.052290224
493,-0.036806688
494,0.06687019
495,0.027246052
496,0.039673828
497,0.05904587
498,-0.037857722
499,-0.06474007
500,0.1488422
501,0.037496805
502,0.01607829
503,-0.007175196
504,0.04608631
505,-0.0050884653
506,0.04140181
507,0.055857975
508,0.00051646953
509,0.040205985
510,0.09856938
511,0.0061117066
512,-0.20276694
513,0.19574963
514,0.025438234
515,-0.032930847
516,-0.18738508
517,0.030639274
518,0.027350726
519,-0.043617398
520,0.033528965
521,-0.062232226
522,0.03778659
523,-0.115567386
524,0.0012611147
525,-0.12083965
526,-0.050264742
527,-0.0064281737
528,0.060596365
529,0.14116734
530,-0.15363081
531,0.032410532
532,-0.16041945
533,0.047233824
534,-0.10867728
535,0.10660302
536,-0.020918919
537,-0.020908976
538,-0.038452026
539,-0.04288536
540,0.11934657
541,-0.22356692
542,-0.008759434
543,-0.015087335
544,-0.14442101
545,-0.07034095
546,0.037112445
547,-0.016486375
548,-0.058207225
549,-0.033582512
550,-0.22531287
551,0.10313385
552,-0.044657115
553,0.010243448
554,0.041864295
555,0.041929647
556,-0.03910866
557,0.11082636
558,-0.07448875
559,-0.07158307
560,0.013761546
561,0.11122012
562,-0.13859357
563,-0.049897768
564,-0.00687096
565,-0.05912588
566,0.012703727
567,0.12866034
568,0.21259795
569,0.005822528
570,-0.032619417
571,0.018410277
572,-0.020136137
573,-0.1649833
574,0.15644127
575,-0.17281888
576,0.03458728
577,-0.090370186
578,-0.17149813
579,-0.003732902
580,0.036418498
581,-0.082575746
582,-0.0784269
583,-0.0552211
584,0.018548565
585,-0.1620959
586,-0.009220257
587,-0.109113745
588,0.23515037
589,0.047326636
590,-0.06490521
591,0.17048876
592,0.052342992
593,-0.046134185
594,-0.030459225
595,-0.14813066
596,-0.0736877
597,-0.018491479
598,0.19595806
599,-0.15508185
600,-0.077180676
601,-0.008971373
602,0.019542472
603,0.08912123
604,-0.04013197
605,-0.026644133
606,0.020058488
607,-0.07019837
608,0.14900686
609,0.05715688
610,-0.02168415
611,-0.07061256
612,-0.08720942
613,-0.12747173
614,0.10131636
615,0.019978886
616,0.0051657055
617,0.015268445
618,0.03134007
619,-0.119298935
620,-0.10304482
621,0.014516513
622,-0.075885914
623,0.10940741
624,0.17528084
625,-0.05191423
626,-0.13955435
627,-0.21345821
628,0.11673563
629,0.03231836
630,-0.122623935
631,-0.0025054035
632,-0.022555677
633,0.059049908
634,-0.028054696
635,-0.010298252
636,-0.0010638828
637,-0.025746018
638,0.22882518
639,-0.003975555
640,0.08756097
641,-0.084840626
642,-0.0160214
643,0.058259107
644,-0.14384224
645,-0.036366392
646,-0.009353226
647,-0.021137936
648,-0.027657954
649,-0.022393199
650,-0.008258367
651,-0.099875085
652,0.008811578
653,-0.052940227
654,-0.007930081
655,0.0054113683
656,-0.009450708
657,-0.15139604
658,0.02921666
659,0.02526597
660,-0.059976198
661,-0.036942575
662,-0.05870317
663,-0.17254607
664,-0.05411543
665,0.027733019
666,-0.023860082
667,-0.057877816
668,0.0029380969
669,-0.058024414
670,-0.0047295038
671,0.0039114957
672,-0.14912152
673,0.008174862
674,-0.01102451
675,-0.02629623
676,-0.042064518
677,-0.027268205
678,-0.0058088386
679,-0.02502707
680,0.04133726
681,-0.01206667
682,-0.099768616
683,-0.012671952
684,-0.07556206
685,-0.011548147
686,-0.022918783
687,0.0057631093
688,0.027059987
689,-0.14606676
690,-0.038742267
691,-0.044246603
692,-0.008028404
693,-0.028894054
694,-0.0034928354
695,-0.13655457
696,-0.08249627
697,-0.003940879
698,-0.017996205
699,0.0035598273
700,0.030301118
701,-0.0015223175
702,-0.04630928
703,0.047641065
704,0.017151244
705,-0.027887577
706,0.09143101
707,-0.010693705
708,0.008180964
709,-0.1532266
710,-0.030094577
711,-0.027206242
712,-0.13723855
713,0.038752828
714,-0.02110843
715,-0.033292536
716,-0.17074993
717,0.002040168
718,-0.058114037
719,-0.14084429
720,-0.03026995
721,0.028453792
722,-0.11935567
723,-0.036913466
724,-0.03835557
725,-0.0020919512
726,-0.10534049
727,-0.007326464
728,0.0054663727
729,0.0011788268
730,-0.10826782
731,-0.14282015
732,-0.01764489
733,0.0020430558
734,-0.0009187978
735,0.021100504
736,-0.135455
737,-0.0062160087
738,0.027804527
739,-0.05874483
740,0.026642973
741,-0.07246783
742,-0.074482955
743,0.00027303054
744,-0.008121718
745,-0.07884886
746,0.00026021854
747,-0.11428134
748,0.027825538
749,-0.012555843
750,-0.011747948
751,-0.032053705
752,-0.028441174
753,-0.056399874
754,0.07490338
755,0.037068788
756,-0.037775576
757,0.008579825
758,0.020161116
759,-0.035635844
760,0.00767867
761,-0.0042900555
762,-0.02030259
763,-0.033261675
764,-0.011927421
765,-0.010812315
766,0.0053686663
767,0.0017173442
768,0.053239692
769,-0.009056367
770,-0.03861157
771,0.031860624
772,-0.04553745
773,-0.018391293
774,0.039209254
775,-0.023069017
776,0.0072142184
777,-0.04077649
778,0.008309675
779,-0.056176707
780,0.0022014687
781,-0.026934596
782,-0.03507518
783,-0.07360607
784,0.014039508
785,0.044216484
786,0.02359817
787,0.0014446388
788,-0.0006362068
789,0.018246183
790,-0.04236981
791,0.061753687
792,-0.030365484
793,-0.035954144
794,-0.10103902
795,-0.04428965
796,0.027180243
797,0.00028839198
798,-0.011050771
799,-0.0029818122
800,-0.07218147
801,-0.006569932
802,-0.082233556
803,0.030863555
804,-0.075345695
805,-0.009018238
806,-0.0015676923
807,-0.018741516
808,0.030188339
809,0.025795521
810,0.01665317
811,0.021870973
812,0.0018620634
813,-0.026070883
814,-0.1207418
815,-0.11066199
816,0.015509088
817,0.01796275
818,-0.038752317
819,-0.054862026
820,0.0042701326
821,-0.008372204
822,0.010615099
823,0.055932824
824,-0.008264047
825,-0.0063849664
826,-0.08675921
827,0.009964423
828,-0.025812507
829,-0.05107933
830,0.0136556495
831,0.01618779
832,0.021771103
833,0.09035044
834,0.08043797
835,-0.0035312804
836,-0.0149377
837,-0.055456523
838,-0.0366669
839,-0.038689468
840,0.009305509
841,0.0019797573
842,-0.06366094
843,-0.11558298
844,0.035247453
845,0.036033854
846,-0.03684009
847,0.03086486
848,0.001157266
849,-0.056418005
850,-0.060216777
851,-0.051777475
852,-0.060015354
853,-0.032167383
854,0.01471856
855,0.017301554
856,0.055096734
857,-0.008518353
858,-0.046624035
859,-0.092975944
860,0.01261397
861,-0.071433544
862,0.025728475
863,-0.068594776
864,0.018075567
865,-0.0101931235
866,0.01247534
867,-0.04895606
868,-0.016560934
869,-0.05433046
870,0.012909402
871,0.0041509164
872,-0.004178645
873,0.04691744
874,-0.004998423
875,0.031752516
876,-0.0067534107
877,-0.027389742
878,0.013753911
879,0.01149088
880,0.023836756
881,-0.057814233
882,0.019928452
883,0.04360316
884,-0.008854827
885,0.044098433
886,-0.061973013
887,-0.02288378
888,0.012933865
889,0.0078171715
890,0.031607047
891,0.05141596
892,0.0017422412
893,-0.02297505
894,-0.006140925
895,-0.013683053
896,-0.0535693
897,0.052115534
898,-0.014840211
899,-0.11178045
900,-0.074941084
901,-0.069237866
902,0.041685928
903,-0.09776078
904,0.072179355
905,-0.10617197
906,0.059279673
907,-0.13498975
908,0.03130863
909,-0.09069378
910,-0.039252985
911,-0.0171913
912,0.06331809
913,-0.18847536
914,-0.09783683
915,0.059859462
916,-0.05430778
917,-0.022558922
918,-0.041480966
919,-0.12611958
920,-0.04307265
921,0.020699222
922,-0.0054371487
923,0.013165762
924,0.15481059
925,-0.06515668
926,-0.008716462
927,0.00081326946
928,-0.06342664
929,-0.071599625
930,-0.04009971
931,-0.058014754
932,-0.10709987
933,-0.071981885
934,-0.023291832
935,0.09181649
936,-0.047907114
937,0.082890816
938,-0.02581499
939,0.063277535
940,-0.042334888
941,0.10336418
942,-0.007676318
943,-0.0035015433
944,0.046416905
945,0.069361664
946,-0.077589184
947,-0.061253704
948,-0.011098362
949,-0.12909988
950,-0.12072767
951,0.060139194
952,-0.060085215
953,0.00015266938
954,-0.055814013
955,0.057478342
956,-0.0061110407
957,-0.0070646494
958,0.05848267
959,-0.10367346
960,0.03349288
961,-0.053582534
962,-0.062287893
963,-0.0025535328
964,-0.031352155
965,-0.06522558
966,-0.08658421
967,-0.110108964
968,-0.25374764
969,-0.12079141
970,0.020629834
971,-0.025083346
972,-0.18481608
973,-0.012972276
974,-0.07262109
975,-0.1896746
976,-0.16045065
977,-0.08026708
978,-0.04318274
979,-0.05073406
980,-0.06937984
981,-0.06892054
982,-0.06084894
983,-0.08030162
984,-0.028875243
985,0.0019662085
986,-0.04041002
987,0.05945399
988,-0.022761714
989,0.031768695
990,0.057441764
991,-0.11157585
992,0.030752018
993,0.07922749
994,-0.04841101
995,-0.070166014
996,-0.07847798
997,-0.10412421
998,0.07888203
999,0.03988042
1000,-0.015768457
1001,-0.103893004
1002,0.06023012
1003,-0.117843434
1004,-0.081401005
1005,-0.12139337
1006,-0.17831407
1007,0.061947655
1008,0.03883598
1009,-0.035200704
1010,-0.16272503
1011,-0.0052111605
1012,0.12422498
1013,-0.025813485
1014,-0.022119222
1015,-0.0043547987
1016,0.067316115
1017,0.05648803
1018,-0.034690566
1019,0.0075620557
1020,0.003667966
1021,-0.039512683
1022,0.047024243
1023,0.00758341
1024,0.02382128
1025,0.026996864
1026,0.0036087125
1027,-0.0007469361
1028,-0.081761666
1029,-0.10169572
1030,0.030452473
1031,-0.018120766
1032,-0.017154224
1033,-0.020272132
1034,-0.026426792
1035,-0.059082527
1036,0.0011027154
1037,-0.07681684
1038,0.0072536655
1039,0.049852446
1040,-0.019102994
1041,0.10581673
1042,0.037976205
1043,0.015856873
1044,-0.09210106
1045,0.03330735
1046,-0.08316869
1047,0.09312882
1048,0.0035707126
1049,-0.0046574543
1050,-0.052385252
1051,0.060484838
1052,0.009315496
1053,0.052202012
1054,-0.006106863
1055,0.0033005225
1056,-0.05111148
1057,0.015379622
1058,-0.026330888
1059,-0.0061227917
1060,0.03162676
1061,0.0063869343
1062,0.019250372
1063,0.016224448
1064,-0.073607795
1065,-0.0005693961
1066,0.0064757345
1067,0.0018082092
1068,0.06618617
1069,0.0024262276
1070,-0.026869046
1071,-0.05874585
1072,0.006632804
1073,0.08827722
1074,-0.025690435
1075,-0.07948555
1076,0.012947401
1077,0.025153032
1078,0.062359113
1079,0.050748695
1080,0.04009694
1081,-0.011132329
1082,-0.009728849
1083,-0.002746871
1084,0.010828383
1085,-0.08334312
1086,-0.020883253
1087,0.02581745
1088,0.018897701
1089,-0.066487394
1090,-0.005108625
1091,0.0012366074
1092,0.039496236
1093,0.0067095417
1094,-0.03056575
1095,-0.020335983
1096,0.020141155
1097,0.018852018
1098,0.009389718
1099,0.005230758
1100,0.04928633
1101,0.02465491
1102,-0.10476584
1103,0.074121095
1104,0.0685954
1105,-0.0045022974
1106,-0.05481839
1107,-0.01844492
1108,-0.06651476
1109,0.025506604
1110,0.05766047
1111,0.016795283
1112,0.023111276
1113,-0.014541862
1114,-0.036369346
1115,0.005639536
1116,0.01665315
1117,0.057054363
1118,0.016064903
1119,0.030525723
1120,0.007422859
1121,-0.0025232958
1122,0.022100406
1123,-0.11345811
1124,0.04105358
1125,-0.07375239
1126,-0.001318337
1127,-0.010170154
1128,-0.0027641796
1129,-0.055541385
1130,0.0012663851
1131,0.026288936
1132,0.024601627
1133,0.02040656
1134,0.055882994
1135,0.0041677565
1136,-0.01169929
1137,0.05208773
1138,0.024713917
1139,-0.03163034
1140,0.04002988
1141,0.040945318
1142,-0.049840443
1143,0.0061549027
1144,0.015238911
1145,-0.018541517
1146,-0.004985306
1147,0.0047336933
1148,-0.01642642
1149,0.03661235
1150,0.014319974
1151,-0.006052959
1152,-0.024450753
1153,0.1575113
1154,-0.09245565
1155,0.019211078
1156,-0.028604358
1157,-0.0951087
1158,0.040484734
1159,-0.0589313
1160,-0.039033405
1161,-0.08948342
1162,0.004717611
1163,-0.08174525
1164,-0.04898779
1165,-0.060204
1166,-0.061019838
1167,-0.003923501
1168,-0.020059466
1169,0.12934902
1170,0.061492126
1171,-0.005956511
1172,-0.0921462
1173,0.07462806
1174,-0.08144519
1175,0.14032884
1176,-0.032552056
1177,-0.19866154
1178,0.0035962195
1179,-0.0969568
1180,0.042333115
1181,0.03314865
1182,0.0013821707
1183,-0.0061233225
1184,-0.06702692
1185,-0.008455449
1186,-0.12360356
1187,-0.0037023367
1188,-0.057781838
1189,-0.002166744
1190,0.0097802775
1191,0.017443582
1192,-0.08850086
1193,-0.0060811667
1194,0.0066000046
1195,0.00903307
1196,0.0019841455
1197,-0.034775246
1198,0.011434726
1199,0.01241571
1200,0.004735483
1201,0.06970581
1202,-0.090730116
1203,-0.08495684
1204,0.0069951834
1205,0.008258673
1206,0.16898178
1207,0.11165114
1208,0.113396265
1209,-0.0043452503
1210,-0.020717442
1211,-0.021245023
1212,-0.064950585
1213,-0.0017770006
1214,0.0038728344
1215,0.06843985
1216,0.010401803
1217,-0.07207674
1218,-0.01466339
1219,-0.0024710777
1220,-0.24689433
1221,-0.04516282
1222,-0.10775741
1223,-0.050773233
1224,0.050771855
1225,0.03168462
1226,-0.12056565
1227,-0.0029562085
1228,0.1527923
1229,0.057501994
1230,-0.11522663
1231,0.16204855
1232,0.17983705
1233,-0.020002946
1234,-0.017253209
1235,-0.10304781
1236,-0.09779209
1237,0.020667596
1238,0.18175465
1239,0.0018784638
1240,-0.023894398
1241,-0.0036361879
1242,-0.0021903557
1243,-0.037570994
1244,0.010956358
1245,-0.052065134
1246,0.010438718
1247,0.010850958
1248,0.061747026
1249,4.1669926e-05
1250,-0.09724025
1251,-0.1135371
1252,0.006819497
1253,-0.10160013
1254,-0.057779085
1255,-0.012547787
1256,0.0057009314
1257,-0.15017442
1258,-0.034334324
1259,0.048323818
1260,0.041659597
1261,-0.069495246
1262,0.01938915
1263,0.03750676
1264,0.13385597
1265,-0.057317194
1266,0.040360607
1267,-0.055383854
1268,0.17896566
1269,0.056390844
1270,-0.025125533
1271,0.009356042
1272,0.042197473
1273,-0.007801192
1274,0.06584176
1275,0.057235494
1276,0.005515451
1277,0.019145563
1278,0.068690784
1279,-0.0110653695
1280,-0.056371387
1281,-0.02827558
1282,-0.08837322
1283,0.07359543
1284,-0.11153361
1285,-0.069100544
1286,0.027263628
1287,0.010630132
1288,0.004478451
1289,0.017230924
1290,-0.020917393
1291,-0.07434857
1292,0.013069325
1293,-0.051215474
1294,-0.033125214
1295,0.03201278
1296,-0.030880624
1297,0.051466558
1298,0.03972087
1299,0.0019709524
1300,-0.11733024
1301,0.020057516
1302,-0.13234214
1303,0.035936996
1304,-0.024148958
1305,-0.12601072
1306,0.010944759
1307,0.03504358
1308,-0.009596301
1309,0.007742614
1310,-0.014886471
1311,-0.01570598
1312,-0.09527933
1313,0.042806126
1314,0.0073406952
1315,0.059259035
1316,0.01232309
1317,-0.006573455
1318,-0.04188162
1319,-0.08078792
1320,-0.11156607
1321,-0.011070273
1322,-0.011078069
1323,-0.023107514
1324,0.01829019
1325,-0.034923416
1326,0.032204106
1327,0.022867447
1328,-0.0025312847
1329,0.05401815
1330,0.021973634
1331,-0.014017865
1332,0.007134373
1333,-0.009622041
1334,0.10633168
1335,0.018460473
1336,0.02430209
1337,-0.0049296576
1338,0.050770722
1339,-0.009576413
1340,0.09454749
1341,0.03122206
1342,0.0007416532
1343,0.04850588
1344,0.0050968505
1345,-0.06299631
1346,-0.027989058
1347,-0.0027909991
1348,0.06851088
1349,-0.04319664
1350,0.022354072
1351,0.011276425
1352,0.0030584051
1353,0.030622335
1354,0.045045048
1355,0.07385452
1356,0.049277727
1357,-0.004538625
1358,-0.030069277
1359,0.049186118
1360,0.11740653
1361,0.053758044
1362,-0.032861102
1363,0.022799784
1364,-0.024880916
1365,-0.009176112
1366,0.032901004
1367,-0.045229558
1368,0.017100042
1369,0.011742583
1370,-0.04737179
1371,0.045188453
1372,0.050757695
1373,0.10091094
1374,-0.017142508
1375,0.078263946
1376,0.004411829
1377,-0.014642317
1378,0.02359678
1379,-0.032517176
1380,0.040308252
1381,-0.12093046
1382,0.00691573
1383,0.0075934795
1384,0.00084984873
1385,-0.0565678
1386,-0.0028720538
1387,0.012798102
1388,0.013770426
1389,-0.08749109
1390,0.0035031242
1391,-0.02022766
1392,-0.073912874
1393,0.02813611
1394,0.024194239
1395,-0.020079745
1396,-0.17959964
1397,0.008791309
1398,-0.0051415605
1399,0.0032991047
1400,-0.006934982
1401,-0.015495753
1402,0.010345154
1403,-0.020135475
1404,-0.0046855896
1405,0.051361185
1406,-0.07773663
1407,-0.00936405
1408,0.023112856
1409,-0.098097704
1410,-0.067859046
1411,0.14505094
1412,-0.051825847
1413,-0.063988894
1414,0.05492169
1415,-0.037807066
1416,0.010121432
1417,-0.029723587
1418,0.008928847
1419,-0.058557928
1420,0.0032564912
1421,-0.06803653
1422,0.010868191
1423,0.021407103
1424,-0.00013703221
1425,-0.079783306
1426,0.08120428
1427,0.04276198
1428,-0.025514144
1429,0.0060933195
1430,-0.081879005
1431,-0.10036855
1432,-0.014801437
1433,-0.045132197
1434,-0.00067529886
1435,0.018420849
1436,-0.0569176
1437,-0.04176922
1438,-0.0024387785
1439,-4.9579867e-06
1440,-0.05843559
1441,-0.016615914
1442,-0.065931365
1443,-0.045064107
1444,-0.040242627
1445,-0.0008814938
1446,-0.009806626
1447,-0.03509985
1448,0.013881336
1449,0.09369422
1450,-0.12310949
1451,0.03943278
1452,-0.025996491
1453,-0.05329444
1454,-0.022199843
1455,0.0055427644
1456,0.05737534
1457,-0.081162445
1458,-0.07561358
1459,-0.033016406
1460,-0.011596198
1461,0.00064495555
1462,0.063423336
1463,-0.0035725024
1464,-0.1289924
1465,-0.011032307
1466,0.005978064
1467,0.07382576
1468,-0.04362502
1469,0.034017157
1470,-0.056547537
1471,0.042582642
1472,0.014296849
1473,0.042961173
1474,0.042679735
1475,-0.002639225
1476,0.015627822
1477,-0.081838645
1478,-0.056816377
1479,-0.033604883
1480,-0.025749823
1481,0.035840668
1482,-0.041796967
1483,0.023009231
1484,-0.15138814
1485,0.020201975
1486,-0.06923965
1487,-0.16086525
1488,-0.009783785
1489,0.008744966
1490,-0.037489217
1491,-0.060796298
1492,-0.04156716
1493,0.02913878
1494,-0.13615118
1495,0.031431362
1496,-0.015861373
1497,-0.006855688
1498,-0.03346366
1499,-0.11649788
1500,-0.03433407
1501,-0.054873765
1502,0.045399487
1503,-0.0077634836
1504,-0.03405891
1505,-0.010262335
1506,-0.030151825
1507,-0.030816957
1508,-0.04253712
1509,-0.0992719
1510,0.01863562
1511,0.087112
1512,-0.0039387043
1513,-0.0006341394
1514,0.073207706
1515,-0.034753382
1516,0.05403385
1517,-0.0037108895
1518,0.02817875
1519,0.04241855
1520,-0.029315405
1521,-0.039027236
1522,0.074644156
1523,0.08011306
1524,-0.084638745
1525,0.029016627
1526,0.0112361135
1527,-0.0062166834
1528,0.027044931
1529,0.006395512
1530,0.1097919
1531,-0.010374035
1532,-0.001602326
1533,-0.009122173
1534,0.058376323
1535,0.0020796328
1536,-0.069890305
1537,-0.09754329
1538,-0.014663507
1539,-0.00424252
1540,-0.12891994
1541,-0.04478053
1542,-0.016109133
1543,-0.056366514
1544,-0.072376974
1545,-0.0412019
1546,-0.012307123
1547,0.032328892
1548,0.048777238
1549,-0.020757383
1550,-0.012460239
1551,0.042292416
1552,-0.029153636
1553,-0.021076381
1554,0.03787122
1555,-0.024044456
1556,-0.18810056
1557,0.0003146163
1558,0.039789148
1559,-0.035840414
1560,-0.0146112135
1561,0.024422681
1562,-0.3009231
1563,0.007600104
1564,-0.025313133
1565,-0.1232352
1566,-0.0023389366
1567,-0.0051183556
1568,-0.00029539052
1569,0.032737173
1570,0.020001302
1571,-0.062047716
1572,0.047932148
1573,-0.124211505
1574,-0.19549659
1575,2.4832101e-05
1576,-0.028186899
1577,-0.050970297
1578,-0.07845448
1579,-0.012418399
1580,-0.13646507
1581,-0.03279886
1582,-0.20278613
1583,-0.3406122
1584,-0.0050950595
1585,-0.0684589
1586,0.049939174
1587,-0.080772914
1588,-0.0038837334
1589,-0.14116482
1590,0.06692874
1591,-0.092998005
1592,0.0004948413
1593,-0.011923573
1594,-0.21022874
1595,-0.04603056
1596,-0.003462129
1597,-0.083528444
1598,-0.0066590956
1599,0.0204344
1600,0.011325194
1601,-0.029723786
1602,-0.034483183
1603,-0.009184621
1604,-0.11044823
1605,-0.05590195
1606,0.013561696
1607,-0.044020426
1608,-0.0908684
1609,0.026307562
1610,-0.33283427
1611,-0.1675681
1612,-0.06617574
1613,0.0311822
1614,-0.084466495
1615,-0.033086974
1616,0.061280336
1617,-0.2363535
1618,-0.055221498
1619,0.0494639
1620,-0.0065001757
1621,-0.023878885
1622,-0.057170812
1623,0.03850065
1624,-0.07303577
1625,-0.0056416295
1626,-0.06636227
1627,0.007921952
1628,-0.061441068
1629,0.07302576
1630,-0.054001637
1631,0.12977354
1632,-0.06885858
1633,-0.028368276
1634,0.06832311
1635,-0.08638011
1636,0.026207294
1637,-0.033834957
1638,-0.050568793
1639,-0.061240584
1640,0.012720539
1641,-0.069869615
1642,-0.04442064
1643,-0.067994915
1644,-0.015938396
1645,-0.06360541
1646,0.06171092
1647,0.024372563
1648,-0.009164179
1649,0.09571953
1650,0.053965367
1651,-0.042689078
1652,-0.06538707
1653,0.035185255
1654,-0.27229276
1655,-0.01794475
1656,-0.046503954
1657,-0.010122212
1658,-0.004937862
1659,-0.09340142
1660,-0.0064717215
1661,0.037942626
1662,-0.024244472
1663,0.011161424
1664,-0.020196028
1665,-0.050304916
1666,-0.0065983576
1667,0.023438336
1668,-0.029546453
1669,0.0068868077
1670,0.018259717
1671,-0.012853492
1672,0.0052062627
1673,0.00418801
1674,-0.014807986
1675,0.0046144538
1676,0.019133277
1677,0.027048787
1678,0.039259005
1679,0.03523463
1680,-0.00074349606
1681,0.03384388
1682,0.09498329
1683,-0.001679504
1684,0.01144819
1685,-0.0064654653
1686,0.018433493
1687,0.03619667
1688,-0.06235755
1689,0.056758504
1690,-0.077487655
1691,0.014003053
1692,-0.0050148875
1693,0.0054541533
1694,-0.006921307
1695,0.0059672054
1696,-0.00017611345
1697,0.04841138
1698,0.02475116
1699,0.020612936
1700,0.045392144
1701,-0.03826783
1702,0.003943046
1703,-0.009198508
1704,-0.06415566
1705,-0.02632139
1706,0.050343074
1707,0.024504308
1708,0.05526247
1709,0.0028532594
1710,-0.08723651
1711,-0.018695015
1712,0.0027436367
1713,0.07603171
1714,0.025984261
1715,0.018074764
1716,0.006894285
1717,-0.033192843
1718,0.09586103
1719,0.027117306
1720,-0.063135415
1721,-9.856821e-05
1722,-0.1601492
1723,0.019398518
1724,-0.016884454
1725,-0.0027695447
1726,-0.012239466
1727,0.07738852
1728,0.00020947843
1729,-0.10030138
1730,-0.032380622
1731,-0.0033431735
1732,-0.12965362
1733,-0.009789085
1734,0.017363472
1735,0.01102954
1736,0.07009245
1737,0.046765815
1738,0.01329949
1739,-0.010122241
1740,0.009771471
1741,0.01012626
1742,0.047564447
1743,0.0036857175
1744,0.10042854
1745,-0.091974735
1746,0.011313478
1747,0.021162702
1748,0.028287996
1749,0.014945986
1750,-0.032240964
1751,-0.038214456
1752,-0.0008302063
1753,-0.014997398
1754,-0.026886683
1755,0.11434209
1756,-0.002694156
1757,0.06539873
1758,0.01306974
1759,0.102461256
1760,0.021072866
1761,0.0034838498
1762,0.022197815
1763,0.038705647
1764,0.042780455
1765,0.010080195
1766,-0.0073223966
1767,-0.010529844
1768,0.0016563631
1769,0.0663896
1770,0.0067119948
1771,0.025106601
1772,0.045864772
1773,-0.08055165
1774,0.047979414
1775,0.056558043
1776,0.03585517
1777,0.020524984
1778,0.05648959
1779,-0.019931888
1780,0.023415226
1781,0.0006171926
1782,-0.10879194
1783,0.0056897597
1784,-0.0013284149
1785,0.017049355
1786,0.115265146
1787,0.026293632
1788,0.008202038
1789,0.06572383
1790,0.033267047
1791,-0.016174305
1792,-0.006643906
1793,-0.030028204
1794,0.014779901
1795,0.009546671
1796,-0.0549386
1797,0.027107533
1798,0.012175379
1799,-0.046933364
1800,-0.00013300352
1801,-0.037330598
1802,-0.011327699
1803,-0.046087492
1804,-0.026966194
1805,-0.045015566
1806,-0.051573172
1807,0.016253734
1808,-0.004301169
1809,0.005060853
1810,0.0038036592
1811,0.015555041
1812,-0.09030226
1813,0.010154933
1814,-0.017335441
1815,-0.021109456
1816,0.0052011856
1817,-0.046564538
1818,0.055907488
1819,0.014836265
1820,0.013541996
1821,-0.0023746185
1822,-0.04045269
1823,-0.018220535
1824,-0.061107848
1825,0.039030157
1826,-0.026512954
1827,0.03486945
1828,0.02998259
1829,-0.0305355
1830,-0.010709287
1831,-0.017682428
1832,-0.028520225
1833,-0.00028180238
1834,-0.0039885705
1835,-0.0030331046
1836,-0.046822812
1837,-0.007638716
1838,0.01921671
1839,0.03584067
1840,0.010166044
1841,0.04780316
1842,0.0135563705
1843,-0.022595676
1844,0.0011723889
1845,-0.03237355
1846,0.06495899
1847,-0.008069287
1848,-0.018018613
1849,-0.012201863
1850,0.049781047
1851,-0.00557835
1852,0.07072401
1853,-0.015299335
1854,0.009206592
1855,0.008664774
1856,0.004998719
1857,-0.0770755
1858,-0.011626625
1859,-0.0073206187
1860,0.05202938
1861,0.004036379
1862,0.0077128704
1863,-0.020622894
1864,0.029850645
1865,0.0485975
1866,0.086108975
1867,0.027880272
1868,-0.036160275
1869,0.003904984
1870,-0.054621372
1871,-0.009416901
1872,0.07952108
1873,0.06325913
1874,-0.026060062
1875,0.0050757676
1876,-0.038578335
1877,0.012272913
1878,-0.022544885
1879,0.008376196
1880,-0.010427895
1881,-0.011171097
1882,-0.036295936
1883,0.016329277
1884,0.050734106
1885,0.013929576
1886,0.0021156324
1887,0.03162776
1888,0.024228055
1889,-0.007200586
1890,-0.043512795
1891,-0.06745486
1892,0.061761584
1893,0.019718029
1894,-0.008592668
1895,-0.0009023814
1896,-0.0063445494
1897,-0.020272272
1898,-0.0019910864
1899,-0.02574042
1900,0.022845589
1901,0.037770696
1902,-0.028125275
1903,0.006720314
1904,-0.016171971
1905,-0.015293223
1906,0.02442528
1907,-0.021582913
1908,-0.063840225
1909,0.010976895
1910,0.025702454
1911,-0.019654445
1912,0.011779918
1913,0.0042210254
1914,0.01302047
1915,0.01656852
1916,-0.0017530236
1917,0.011716718
1918,-0.003338527
1919,-0.0026750849
1920,-0.025146415
1921,0.114042185
1922,0.0022205915
1923,-0.0051325248
1924,-0.05532747
1925,-0.017832795
1926,0.0283437
1927,-0.09822732
1928,0.04876558
1929,-0.14285713
1930,0.02155132
1931,-0.17917848
1932,-0.050608903
1933,-0.23676321
1934,-0.052076496
1935,0.03048594
1936,0.010666352
1937,0.106922425
1938,0.045535024
1939,0.036508214
1940,-0.12579179
1941,0.05386265
1942,-0.10374522
1943,0.11662311
1944,-0.02556701
1945,-0.061720084
1946,-0.017312188
1947,0.043211773
1948,0.04302168
1949,0.028617276
1950,-0.0027978942
1951,0.0024845097
1952,-0.11926719
1953,0.02955527
1954,-0.05421082
1955,0.004899734
1956,0.010190615
1957,-0.008676719
1958,-0.03977976
1959,0.011271018
1960,-0.027472727
1961,0.0049275933
1962,0.0354407
1963,0.0051603066
1964,-0.006923184
1965,0.014521223
1966,-0.07148737
1967,-0.090453066
1968,0.008829303
1969,0.05979337
1970,-0.17768037
1971,-0.124187835
1972,0.0011275023
1973,0.0005502838
1974,0.07725288
1975,0.0563736
1976,0.1143406
1977,-0.0018705736
1978,-0.039916135
1979,0.020923458
1980,-0.046394397
1981,-0.06731921
1982,-0.004319191
1983,0.022502678
1984,0.044182196
1985,-0.057992317
1986,-0.084526226
1987,0.010753292
1988,-0.081532635
1989,-0.060585722
1990,-0.21325545
1991,-0.054162677
1992,0.002467631
1993,0.008947864
1994,-0.13954587
1995,-0.06558864
1996,0.10148573
1997,0.043797135
1998,-0.16982949
1999,0.114078626
2000,0.10010159
2001,-0.04240255
2002,-0.0027825185
2003,-0.067953065
2004,-0.20818467
2005,0.03319973
2006,0.11761048
2007,-0.10398851
2008,-0.022343872
2009,-0.0047202576
2010,-0.016106907
2011,0.04671946
2012,-0.006122836
2013,0.0067985016
2014,0.029144187
2015,0.042459067
2016,0.06095809
2017,0.02186928
2018,-0.039696556
2019,-0.1982096
2020,0.03521427
2021,-0.010327564
2022,-0.0016313529
2023,0.02861815
2024,0.0059740418
2025,-0.091704294
2026,0.02167941
2027,-0.028428664
2028,0.012495692
2029,-0.04864723
2030,0.028840486
2031,0.015254642
2032,0.025665669
2033,-0.0067468355
2034,0.03858011
2035,-0.031281814
2036,0.100677654
2037,0.03227102
2038,-0.15779401
2039,-0.009488098
2040,0.02088963
2041,0.011023987
2042,0.058073375
2043,0.018751368
2044,-0.01629851
2045,0.032109566
2046,0.0099725565
2047,-0.007071381
2048,-0.03435865
2049,-0.049181215
2050,0.0055970936
2051,0.06005277
2052,-0.06944242
2053,-0.003953099
2054,-0.009749824
2055,-0.040297933
2056,0.02103857
2057,-0.02463537
2058,0.008308899
2059,-0.054045316
2060,0.033825483
2061,-0.05161944
2062,-0.029378204
2063,0.03022412
2064,-0.00834454
2065,-0.0035757953
2066,0.06315118
2067,0.013448725
2068,-0.045447394
2069,0.0018834525
2070,-0.09807531
2071,-0.010849902
2072,0.045460407
2073,0.058919135
2074,-0.011138849
2075,-0.009859094
2076,0.012849423
2077,-0.044746257
2078,-0.01581921
2079,-0.00024994364
2080,-0.13115785
2081,0.027428156
2082,0.02263809
2083,0.0088853575
2084,-0.07623875
2085,-0.028873697
2086,-0.017500592
2087,-0.022333162
2088,0.07753104
2089,-0.00892477
2090,0.05943235
2091,0.0017793002
2092,-0.07957631
2093,0.002735843
2094,-0.06530092
2095,-0.038898133
2096,0.0037286077
2097,0.009412617
2098,-0.03440548
2099,-0.033686
2100,0.0067539825
2101,-0.059995703
2102,0.063446365
2103,0.018471409
2104,-0.1021709
2105,-0.012760917
2106,-0.023431385
2107,0.024444725
2108,0.023264706
2109,-0.027844992
2110,0.004335536
2111,0.0653807
2112,-0.0071480526
2113,-0.078752205
2114,0.032612428
2115,-0.0056062317
2116,0.025363311
2117,-0.026406188
2118,-0.019966489
2119,-0.03764666
2120,-0.03833528
2121,0.032680996
2122,-0.056118798
2123,-0.00585533
2124,-0.048858818
2125,0.002396813
2126,-0.043424513
2127,-0.03036335
2128,0.027795253
2129,0.033430006
2130,-0.056432016
2131,-0.052009556
2132,-0.033504706
2133,-0.007693788
2134,-0.042193986
2135,0.040619638
2136,0.010760241
2137,0.0023595027
2138,-0.035057902
2139,0.06972714
2140,-0.032312073
2141,-0.0056117726
2142,0.0055391006
2143,0.046865035
2144,-0.06174824
2145,0.009565943
2146,-0.02802959
2147,-0.036580678
2148,0.033680182
2149,-0.13311598
2150,0.03990318
2151,0.008305343
2152,-0.010963074
2153,-0.0017579172
2154,0.0092785545
2155,-0.071270175
2156,0.032945562
2157,-0.059617616
2158,0.04776291
2159,0.065876596
2160,0.014019974
2161,0.022201065
2162,0.06532373
2163,0.04895312
2164,-0.031395853
2165,-0.011771477
2166,0.002070423
2167,-0.0018367284
2168,0.004196043
2169,0.0039014833
2170,0.0069673075
2171,-0.04364441
2172,-0.0028249144
2173,0.04825296
2174,0.02697058
2175,-0.016456999
2176,0.0838807
2177,-0.043818574
2178,-0.023933398
2179,0.03407206
2180,-0.08024031
2181,-0.055968244
2182,0.023330515
2183,-0.03530405
2184,0.029575944
2185,-0.03592006
2186,0.0137601495
2187,-0.05854534
2188,-0.041066978
2189,-0.04606876
2190,-0.036886077
2191,0.04106199
2192,0.022548659
2193,-0.017628307
2194,0.0256077
2195,0.033117674
2196,-0.06363291
2197,0.0035204382
2198,-0.088989764
2199,-0.00880137
2200,0.001902453
2201,-0.008247521
2202,0.02626878
2203,-0.003752119
2204,0.023934338
2205,-0.04902899
2206,-0.02447768
2207,-0.0045109987
2208,-0.097447686
2209,0.055269647
2210,-0.11404917
2211,-0.023894822
2212,-0.063157596
2213,-0.02524276
2214,-0.0013701349
2215,0.014066457
2216,0.025987074
2217,0.019670205
2218,-0.08122161
2219,0.02728265
2220,-0.05756568
2221,0.029761601
2222,0.04118172
2223,0.020581985
2224,0.017334165
2225,-0.083604544
2226,-0.01669665
2227,-0.027875723
2228,-0.019020652
2229,-0.02389322
2230,0.030112118
2231,0.011421273
2232,-0.02703974
2233,0.0056745335
2234,0.025849361
2235,0.044903304
2236,-0.014568824
2237,-0.06476176
2238,-0.055065442
2239,0.060425658
2240,0.016643876
2241,0.014598483
2242,0.0800257
2243,-0.011868224
2244,0.047122594
2245,-0.059938192
2246,-0.03710636
2247,-0.04582402
2248,-0.1901353
2249,0.036376256
2250,-0.041727524
2251,0.020390604
2252,-0.040484887
2253,0.013867894
2254,-0.053335395
2255,-0.018720489
2256,0.015539685
2257,0.07215238
2258,-0.1464038
2259,-0.026707694
2260,-0.057669178
2261,0.013662065
2262,-0.019303098
2263,-0.01768896
2264,0.026741542
2265,-0.011708086
2266,-0.11189014
2267,-0.06652441
2268,0.0033748578
2269,0.009958424
2270,0.030281065
2271,0.025036132
2272,-0.051362965
2273,0.01559686
2274,0.0009346413
2275,-0.07486468
2276,0.04446419
2277,-0.13106456
2278,0.043190543
2279,0.043045983
2280,-0.005638327
2281,-0.21763454
2282,0.027855456
2283,0.038577575
2284,0.050395988
2285,-0.022289954
2286,-0.03295469
2287,-0.00015568698
2288,0.01752059
2289,-0.03877497
2290,0.076551355
2291,0.021527845
2292,-0.019581763
2293,0.031124717
2294,0.04695262
2295,-0.014927483
2296,0.033796556
2297,0.028131545
2298,0.0126644615
2299,0.019617602
2300,0.014105768
2301,0.028013956
2302,0.016777836
2303,0.0035109143
2304,-0.0040319352
2305,0.074604064
2306,-0.039653715
2307,-0.046032976
2308,0.01768128
2309,-0.115205966
2310,0.018870238
2311,-0.048606645
2312,0.04225746
2313,-0.06042229
2314,-0.00540869
2315,-0.09258041
2316,0.06921404
2317,-0.054557376
2318,-0.07479886
2319,0.015977237
2320,0.0012206483
2321,0.037634034
2322,-0.026538296
2323,-0.0154221915
2324,-0.097830646
2325,0.04588612
2326,-0.11661098
2327,0.07778688
2328,-0.115431316
2329,0.052472726
2330,-0.033464685
2331,-0.0677598
2332,0.078058384
2333,0.09073644
2334,-0.010696414
2335,-0.00057157245
2336,-0.10062976
2337,0.053226788
2338,0.039009124
2339,0.017591756
2340,0.03293996
2341,0.07010142
2342,0.011165246
2343,0.0753667
2344,-0.13254738
2345,-0.013741027
2346,0.05683901
2347,0.0287035
2348,-0.0616984
2349,0.013765594
2350,-0.08901559
2351,-0.054463312
2352,-0.005875017
2353,0.018563207
2354,-0.122209534
2355,-0.042718798
2356,-0.010706019
2357,0.038039513
2358,-0.026603827
2359,-0.0017104481
2360,0.11338678
2361,0.0031315333
2362,-0.062929325
2363,-0.0054858495
2364,0.007800509
2365,-0.12658414
2366,0.03276834
2367,-0.05305888
2368,0.03462877
2369,-0.056238346
2370,-0.002558209
2371,-0.0072778766
2372,-0.05744992
2373,-0.015614456
2374,-0.0897866
2375,-0.024934933
2376,0.009630301
2377,-0.07008169
2378,-0.0909147
2379,-0.012718428
2380,0.09918961
2381,0.023893725
2382,-0.063619815
2383,0.07760251
2384,0.056195684
2385,-0.05775224
2386,0.004578083
2387,-0.14648625
2388,-0.07014165
2389,-0.008025963
2390,0.083585985
2391,-0.0077702603
2392,0.09158263
2393,-0.0044369586
2394,0.027613774
2395,-0.0042742644
2396,0.019867752
2397,0.07602631
2398,0.022615466
2399,0.089167096
2400,0.04291767
2401,0.0019834826
2402,-0.108184434
2403,-0.034914553
2404,0.07754056
2405,-0.10529794
2406,0.010128705
2407,-0.012853285
2408,-0.021490201
2409,-0.04097511
2410,0.002494103
2411,0.102860235
2412,-0.0721402
2413,0.049077753
2414,0.07338982
2415,0.046540465
2416,0.011378448
2417,0.048299313
2418,-0.08795947
2419,-0.051697236
2420,0.10324275
2421,0.013020248
2422,-0.032877274
2423,-0.029738743
2424,0.037394144
2425,-0.020731112
2426,0.020187186
2427,0.05607664
2428,-0.00029163325
2429,0.06528837
2430,0.023118895
2431,0.0014290762
2432,-0.007933978
2433,-0.07631891
2434,-0.043452527
2435,0.051905088
2436,-0.15323101
2437,0.0077278633
2438,0.027965525
2439,-0.022991976
2440,0.113339454
2441,-0.017422259
2442,-0.017016917
2443,-0.10194258
2444,0.02828371
2445,-0.061288573
2446,-0.049788088
2447,0.018370451
2448,0.0018493716
2449,-0.10653961
2450,0.12197913
2451,0.028891923
2452,-0.10232791
2453,0.014972818
2454,-0.09336864
2455,-0.10035698
2456,0.028485585
2457,0.031880658
2458,0.0048221517
2459,0.018118354
2460,9.097977e-05
2461,-0.09073144
2462,-0.006526417
2463,-0.0057377345
2464,-0.10692451
2465,0.07299434
2466,0.022326723
2467,-0.111356035
2468,-0.02456455
2469,-0.1304912
2470,-0.043230202
2471,0.01752418
2472,0.03516849
2473,0.03376974
2474,-0.01866996
2475,0.0016511796
2476,-0.015699454
2477,-0.01766429
2478,-0.06591556
2479,0.012478017
2480,0.012963821
2481,-0.025639186
2482,0.0077189836
2483,-0.04675104
2484,0.003707085
2485,-0.098558865
2486,0.10878813
2487,-0.003879806
2488,-0.10974992
2489,0.0006302383
2490,0.0045919493
2491,0.04014698
2492,-0.07404772
2493,-0.04167747
2494,0.038877062
2495,0.08646819
2496,0.005910073
2497,0.031842235
2498,0.017177342
2499,-0.0032793323
2500,-0.18667033
2501,-0.05489216
2502,-0.0069472613
2503,-0.00036190916
2504,-0.14035219
2505,0.102031805
2506,-0.1580235
2507,0.015501268
2508,-0.08602248
2509,-0.007244605
2510,-0.047278993
2511,-0.057335272
2512,0.08126161
2513,-0.043079037
2514,-0.058401097
2515,-0.024924286
2516,-0.041318387
2517,0.010648825
2518,-0.0924064
2519,-0.049573485
2520,-0.015617651
2521,-0.0021229503
2522,-0.063511975
2523,0.029571278
2524,-0.068066835
2525,0.078075685
2526,0.02445731
2527,0.07312243
2528,-0.025239706
2529,-0.004644826
2530,0.026455775
2531,-0.039718393
2532,0.07387644
2533,-0.09544861
2534,0.081117004
2535,0.017165868
2536,-0.025075559
2537,-0.19339196
2538,0.025849896
2539,-0.06419758
2540,0.08153561
2541,0.015783818
2542,-0.045482647
2543,0.08442427
2544,0.076071456
2545,-0.019398127
2546,0.11196755
2547,0.006556216
2548,0.050264932
2549,0.006953253
2550,0.047870487
2551,-0.0015656258
2552,0.005068988
2553,0.010606537
2554,0.0896062
2555,-0.00016611963
2556,0.0024623978
2557,0.07517873
2558,0.07446773
2559,0.007067988
2560,0.02592987
2561,-0.031848457
2562,-0.11412533
2563,0.09929337
2564,-0.06544886
2565,-0.07981509
2566,0.034159873
2567,-0.07654246
2568,0.02869007
2569,-0.080064386
2570,0.05778537
2571,-0.15953112
2572,-0.0041319835
2573,-0.13246827
2574,-0.03933251
2575,-0.029353289
2576,0.050019205
2577,-0.07201618
2578,0.030006446
2579,0.048125
2580,-0.045499507
2581,0.019191068
2582,-0.0549762
2583,-0.04971133
2584,-0.018840777
2585,-0.004833701
2586,0.049016055
2587,-0.069141656
2588,0.06049898
2589,-0.0066298647
2590,-0.0127679035
2591,-0.0077598654
2592,-0.14889687
2593,0.027618371
2594,-0.08949641
2595,0.018201716
2596,-0.10193436
2597,0.009253362
2598,0.054782514
2599,-0.03958258
2600,0.021083059
2601,0.07526691
2602,-0.008589358
2603,0.048774287
2604,-0.08414685
2605,0.033403896
2606,0.023231668
2607,0.046346802
2608,0.07656057
2609,-0.019045573
2610,-0.055284295
2611,-0.10589211
2612,0.009705645
2613,0.043251455
2614,0.023135452
2615,-0.036314428
2616,-0.11092823
2617,-0.014165451
2618,0.030185232
2619,0.06024642
2620,-0.034743335
2621,-0.058735307
2622,-0.018793456
2623,0.044797048
2624,0.015103929
2625,0.070336424
2626,0.087464884
2627,-0.015409239
2628,0.07154051
2629,-0.038808484
2630,-0.079898864
2631,-0.07230788
2632,-0.026775556
2633,0.04117312
2634,-0.025139283
2635,-0.0036913925
2636,-0.09962845
2637,-0.009151541
2638,-0.072894245
2639,-0.060229685
2640,-0.017147891
2641,0.034326404
2642,-0.13537078
2643,-0.06851056
2644,-0.12514399
2645,0.0030280214
2646,-0.064089015
2647,-0.029619958
2648,0.023183485
2649,-0.014111298
2650,-0.113072164
2651,0.0011766412
2652,-0.014238188
2653,-0.080166824
2654,0.051949278
2655,-0.010189995
2656,-0.034546804
2657,0.048942957
2658,-0.05285483
2659,-0.06104065
2660,0.028714947
2661,-0.12999164
2662,-0.0011045007
2663,0.04125997
2664,-0.0022657465
2665,-0.12328097
2666,0.05404013
2667,0.028616382
2668,0.04602962
2669,-0.007705902
2670,0.0027918722
2671,0.020124221
2672,0.03320658
2673,-0.044062957
2674,0.051533874
2675,0.04533961
2676,-0.021599334
2677,0.015044075
2678,0.049233317
2679,-0.01769467
2680,0.051666994
2681,0.05161876
2682,0.08286814
2683,0.017767316
2684,0.00014172334
2685,0.022900982
2686,0.019155823
2687,0.005633155
2688,0.030608159
2689,-0.045056675
2690,0.0058054402
2691,-0.025027988
2692,-0.006278364
2693,-0.070126526
2694,0.03115552
2695,-0.005097707
2696,0.011801611
2697,-0.005426717
2698,0.016115783
2699,0.044349167
2700,-0.053020656
2701,0.06161585
2702,-0.016224032
2703,-0.08553564
2704,0.027184483
2705,-0.0013359949
2706,-0.0031051652
2707,0.0029949828
2708,0.02584553
2709,-0.0115915155
2710,0.02184962
2711,-0.013353335
2712,-0.10560645
2713,-0.009069339
2714,0.09664429
2715,-0.11439693
2716,0.02482085
2717,0.00045647076
2718,0.00057890883
2719,-0.00199578
2720,0.02848631
2721,-0.079433545
2722,-0.108945556
2723,0.017041232
2724,-0.19594388
2725,0.016096644
2726,-0.0064818365
2727,0.026827805
2728,-0.07442024
2729,0.026390454
2730,0.011238585
2731,0.011254768
2732,-0.065270945
2733,0.0041616326
2734,0.044705603
2735,0.08777223
2736,0.019569669
2737,-0.027621387
2738,-0.005401005
2739,0.045861505
2740,0.011418602
2741,0.02193292
2742,-0.045618013
2743,0.0072533977
2744,-0.032769732
2745,-0.00039390434
2746,0.051916793
2747,-0.002687912
2748,-0.020445362
2749,-0.0627766
2750,0.04735768
2751,-0.022743817
2752,0.029351588
2753,0.034601536
2754,0.016744114
2755,-0.004265519
2756,0.09466948
2757,-0.08612653
2758,-0.005152543
2759,0.0045178565
2760,-0.009448645
2761,-0.03929746
2762,0.100616194
2763,0.034652293
2764,-0.020314017
2765,0.019468334
2766,-0.0070430795
2767,0.012335819
2768,-0.059784554
2769,0.10283614
2770,0.009333884
2771,0.00066328474
2772,0.06810652
2773,0.022698296
2774,-0.042207703
2775,-0.13628411
2776,0.009998593
2777,0.0027965587
2778,0.011906801
2779,-0.027900504
2780,0.03157649
2781,-0.07573522
2782,0.03063204
2783,-0.1343328
2784,0.03852781
2785,0.02639339
2786,-0.015504392
2787,0.021386936
2788,-0.054519333
2789,-0.037489247
2790,-0.0212007
2791,-0.0013362429
2792,-0.00034184798
2793,0.00899302
2794,0.012835224
2795,0.101539366
2796,-0.0033315583
2797,-0.027354727
2798,-0.021952286
2799,-0.045317147
2800,-0.017482433
2801,-0.121842764
2802,0.0007545622
2803,-0.044323385
2804,-0.02204068
2805,0.010803646
2806,0.09335352
2807,-0.019574711
2808,0.02209596
2809,0.009734493
2810,-0.05225334
2811,0.06748402
2812,-0.020507146
2813,-0.06387527
2814,0.029115068
2815,0.007071131
2816,0.11813979
2817,-0.022058943
2818,-0.040533926
2819,0.04223017
2820,-0.10848397
2821,-0.07208032
2822,0.0090973275
2823,-0.11611687
2824,0.06810004
2825,-0.07595775
2826,0.029523592
2827,-0.09066476
2828,0.057250146
2829,-0.063836664
2830,-0.042086475
2831,-0.025286827
2832,0.022540623
2833,0.05532902
2834,0.054918423
2835,0.03524267
2836,-0.0705226
2837,0.036050897
2838,-0.06055226
2839,0.011704651
2840,-0.088600464
2841,0.024138851
2842,0.0011648857
2843,-0.06175376
2844,0.006238696
2845,-0.024895797
2846,-0.006941808
2847,-0.011090031
2848,-0.12328659
2849,0.018258695
2850,-0.029088905
2851,-0.011583723
2852,-0.11686868
2853,0.0050777085
2854,0.02517134
2855,-0.0013363404
2856,-0.064972796
2857,0.07050747
2858,-0.014529088
2859,0.033562306
2860,-0.10848501
2861,0.02312632
2862,0.0030122653
2863,0.033315398
2864,0.053874005
2865,-0.07115596
2866,-0.060721833
2867,-0.06552696
2868,-0.009211228
2869,0.0062361276
2870,0.06193749
2871,-0.101641424
2872,-0.019055262
2873,-0.017346838
2874,-0.0039643412
2875,0.038889874
2876,-0.0090469625
2877,-0.00492562
2878,-0.059756633
2879,0.06447635
2880,0.045844518
2881,0.07245599
2882,0.08814236
2883,-0.025589706
2884,-0.08352519
2885,-0.061615348
2886,-0.040721133
2887,-0.08315311
2888,-0.08641013
2889,0.024912853
2890,-0.06268012
2891,0.023226311
2892,-0.047545448
2893,0.045076672
2894,-0.06718104
2895,0.013677567
2896,0.07471697
2897,-0.068007395
2898,-0.09069369
2899,-0.037154205
2900,-0.06840857
2901,-0.025084633
2902,-0.022856021
2903,-0.029991042
2904,-0.022276098
2905,0.0006819866
2906,-0.07584904
2907,0.032417696
2908,-0.113337204
2909,-0.011110128
2910,0.029241584
2911,-0.027025346
2912,-0.06538064
2913,0.03828032
2914,-0.07737138
2915,-0.08099723
2916,-0.017874897
2917,-0.09005549
2918,0.02709674
2919,0.054352105
2920,-0.011719838
2921,-0.032461308
2922,0.035624743
2923,0.05315916
2924,0.027193671
2925,-0.028392669
2926,-0.020159362
2927,-0.031233774
2928,-0.05378691
2929,-0.034751724
2930,0.042360637
2931,0.05810574
2932,-0.061221797
2933,0.05981508
2934,0.049467873
2935,-0.04021667
2936,0.028561715
2937,0.036120787
2938,0.026892617
2939,0.029638283
2940,0.005172054
2941,-0.023216203
2942,-0.1115909
2943,-0.000288034
2944,-0.013716607
2945,-0.000881833
2946,-0.079972155
2947,-0.021824399
2948,0.007452902
2949,0.04342417
2950,0.067863636
2951,-0.049327765
2952,0.006631923
2953,-0.055974096
2954,0.049192697
2955,-0.08049556
2956,-0.024878256
2957,-0.08672196
2958,-0.05937817
2959,0.0019247268
2960,0.04587136
2961,-0.045398887
2962,-0.002925214
2963,0.060052656
2964,-0.12867069
2965,0.025605315
2966,-0.0016185247
2967,-0.023713946
2968,-0.060378958
2969,0.003968639
2970,0.071002945
2971,-0.015752178
2972,0.024678908
2973,-0.033022735
2974,0.007786324
2975,-0.009820427
2976,-0.1426239
2977,-0.013065671
2978,-0.015774606
2979,0.056912698
2980,0.029328767
2981,-0.015893126
2982,-0.051343545
2983,0.019418236
2984,0.030344218
2985,0.055904318
2986,-0.055385623
2987,0.058054894
2988,-0.07937221
2989,0.014035509
2990,0.0345588
2991,0.058125544
2992,0.051471274
2993,0.005623004
2994,-0.0006742387
2995,-0.084026664
2996,-0.010017787
2997,-0.052431315
2998,-0.010203363
2999,0.006140793
3000,-0.015645998
3001,0.008131689
3002,0.050704226
3003,0.06544163
3004,0.06612919
3005,0.009096277
3006,0.014436198
3007,-0.051533017
3008,0.02676702
3009,-0.004151561
3010,-0.00930899
3011,-0.0076384135
3012,0.115012325
3013,-0.04513417
3014,-0.0069335373
3015,-0.055715166
3016,-0.009868457
3017,0.04836502
3018,0.13664994
3019,0.060856257
3020,-0.055480294
3021,0.011708121
3022,-0.093273394
3023,-0.0412354
3024,0.006003058
3025,0.10368471
3026,-0.061663046
3027,0.0026059295
3028,-0.13315685
3029,-0.0024050884
3030,-0.02841087
3031,-0.021923393
3032,-0.0043768627
3033,0.0065862536
3034,-0.058016386
3035,-0.00692504
3036,0.07697404
3037,0.0032693492
3038,0.06037897
3039,-0.050611105
3040,0.04243047
3041,0.04771644
3042,-0.011028451
3043,-0.08222434
3044,0.002210245
3045,0.044250198
3046,-0.015666412
3047,0.036804818
3048,-0.0061958237
3049,-0.020954253
3050,0.035451163
3051,0.05857679
3052,0.047001164
3053,0.07068566
3054,0.05202075
3055,-0.010949764
3056,-0.053456392
3057,-0.05311084
3058,0.01702568
3059,-0.012213122
3060,-0.08182662
3061,0.017170489
3062,0.029071847
3063,-0.029390099
3064,0.05610935
3065,0.04647298
3066,-0.032653853
3067,0.043625634
3068,0.0043261256
3069,-0.021533659
3070,-0.009866938
3071,-0.0070578945
3072,0.028885512
3073,0.052452486
3074,0.011766179
3075,-0.05516763
3076,0.022254977
3077,-0.10674995
3078,-0.013114354
3079,-0.0038027354
3080,-0.018510634
3081,-0.0024703122
3082,-0.010493964
3083,0.018954055
3084,-0.00016107902
3085,-0.017514128
3086,-0.016604437
3087,-0.09367544
3088,-0.0025194448
3089,-0.045199618
3090,-0.008371434
3091,-0.0053666746
3092,0.027255116
3093,-0.021771653
3094,0.10556013
3095,-0.027562948
3096,-0.04601209
3097,0.07152542
3098,-0.007679329
3099,-0.12085267
3100,-0.0009719174
3101,0.009846321
3102,0.043399796
3103,0.0023079866
3104,0.008355486
3105,-0.15914059
3106,-0.034660056
3107,-0.03571727
3108,-0.13025662
3109,0.035371017
3110,0.006384045
3111,0.031230753
3112,-0.11505818
3113,-0.008748165
3114,0.012058653
3115,0.009156689
3116,0.0060337735
3117,-0.02357383
3118,0.006666973
3119,-0.021009175
3120,0.009185946
3121,-0.0036173332
3122,0.004033697
3123,-0.0044739563
3124,0.0071142376
3125,-0.0037222798
3126,-0.08059588
3127,-0.013302328
3128,0.027815577
3129,0.0068584243
3130,-0.011555386
3131,0.0045926925
3132,-0.05561043
3133,0.032130368
3134,-0.011593247
3135,-0.014343365
3136,0.0024052789
3137,-0.04163461
3138,0.0003624618
3139,-0.015771193
3140,0.022029944
3141,-0.042486224
3142,-0.006221093
3143,-0.015502533
3144,-0.007513257
3145,0.009882902
3146,0.02316951
3147,-0.022200255
3148,-0.029452879
3149,-0.0012252115
3150,-0.0038344746
3151,-0.036905553
3152,-0.09870116
3153,0.0015991316
3154,0.02690502
3155,0.01767624
3156,-0.007087918
3157,0.056171846
3158,0.03316768
3159,-0.10766304
3160,-0.028372904
3161,-0.008550877
3162,-0.016861944
3163,0.013265722
3164,0.003567139
3165,-0.14029942
3166,0.0068491832
3167,-0.107958145
3168,0.008735565
3169,0.0070768828
3170,0.009675914
3171,-0.028567474
3172,-0.13719456
3173,-0.0488833
3174,-0.051250663
3175,0.0019645956
3176,-0.008464484
3177,-0.14096762
3178,0.010446873
3179,-0.10294242
3180,-0.01141517
3181,0.07368397
3182,-0.059881806
3183,-0.039044447
3184,-0.03529573
3185,-0.116916776
3186,0.022746678
3187,-0.019451847
3188,0.058992244
3189,-0.020962995
3190,-0.027158014
3191,0.004174134
3192,-0.011780295
3193,-0.0046749217
3194,-0.043707896
3195,-0.08942037
3196,0.0067182533
3197,-0.14916644
3198,0.029931944
3199,-0.007478433
3200,0.009786302
3201,-0.06472679
3202,-0.023703141
3203,0.07333822
3204,-0.07046121
3205,-0.012982256
3206,0.023143312
3207,-0.040947057
3208,0.037639625
3209,-0.057601888
3210,0.007140045
3211,-0.101330034
3212,0.025310747
3213,-0.049118888
3214,-0.059508923
3215,0.025038617
3216,-0.00020306466
3217,-0.030898355
3218,0.057065327
3219,0.023286527
3220,-0.055731717
3221,-0.010887209
3222,-0.03253284
3223,-0.02954185
3224,-0.10408679
3225,-0.028971747
3226,0.04002126
3227,-0.0062091546
3228,0.005123555
3229,-0.06369457
3230,-0.004395363
3231,0.0034957407
3232,-0.102625355
3233,0.0434144
3234,-0.00878938
3235,0.039773233
3236,-0.04443378
3237,-0.056477632
3238,-0.029069688
3239,-0.017760633
3240,-0.009439719
3241,0.009928862
3242,-0.024572734
3243,0.0072132885
3244,-0.0467593
3245,0.011787656
3246,0.03416868
3247,0.05957379
3248,0.0114238085
3249,-0.044331618
3250,-0.049360774
3251,-0.049769305
3252,0.00034098505
3253,-0.04593313
3254,0.07562323
3255,0.044279337
3256,-0.06795258
3257,-0.0048988936
3258,0.041438837
3259,0.009795136
3260,0.059718985
3261,-0.011957946
3262,0.004184567
3263,0.08548437
3264,0.017046131
3265,-0.024661504
3266,0.03959051
3267,-0.012145534
3268,0.05035604
3269,-0.04958164
3270,-0.028940719
3271,-0.034977216
3272,-0.10213821
3273,0.072143994
3274,-0.022032652
3275,0.06428837
3276,-0.06775779
3277,-0.0016829325
3278,-0.07133561
3279,-0.053010434
3280,0.04333479
3281,0.029929882
3282,-0.05534115
3283,-0.03317654
3284,-0.07198652
3285,-0.03048928
3286,-0.051580384
3287,-0.036184542
3288,0.028131576
3289,0.009155229
3290,-0.04235925
3291,0.045417994
3292,-0.005747292
3293,0.057883967
3294,0.022066245
3295,0.021526467
3296,-0.017042188
3297,0.0018634484
3298,-0.017972946
3299,-0.039885737
3300,0.04478273
3301,-0.056348477
3302,0.034505937
3303,0.013765577
3304,-0.019249007
3305,-0.10096314
3306,0.01993509
3307,-0.019427521
3308,0.048943833
3309,0.018283134
3310,-0.056576055
3311,0.03432137
3312,0.018015813
3313,-0.016773904
3314,0.062574774
3315,0.02319547
3316,-0.04284774
3317,0.015239134
3318,0.080369666
3319,-0.013948028
3320,0.03065888
3321,0.0007057621
3322,0.050070494
3323,-0.009601984
3324,0.0022536728
3325,0.049562395
3326,0.021413518
3327,-0.0056582456
3328,0.06429484
3329,0.22175938
3330,-0.00043708232
3331,-0.05786566
3332,0.04556259
3333,-0.064793505
3334,0.0878486
3335,0.05364844
3336,0.08542535
3337,-0.040305827
3338,0.100712225
3339,0.002700966
3340,0.00406873
3341,-0.0061725597
3342,-0.056296747
3343,-0.021957269
3344,0.11195321
3345,0.014052372
3346,-0.12760101
3347,0.12629974
3348,-0.026147256
3349,0.09909472
3350,0.040707074
3351,0.08638899
3352,0.13388051
3353,0.18546273
3354,-0.062164772
3355,-0.100117706
3356,0.0752103
3357,0.053996146
3358,0.007841624
3359,-0.026039286
3360,-0.031056559
3361,-0.19815224
3362,0.07946573
3363,-0.06614213
3364,0.1006532
3365,0.070968084
3366,0.07725498
3367,0.062998526
3368,-0.020649998
3369,0.14669584
3370,0.022539252
3371,0.09308615
3372,0.06647078
3373,0.035858862
3374,-0.114576586
3375,-0.022743804
3376,0.11139989
3377,-0.0764261
3378,-0.02829208
3379,-0.008995233
3380,-0.0032373231
3381,0.05514978
3382,-0.04564463
3383,-0.055408098
3384,0.2813418
3385,-0.0017292718
3386,-0.023725385
3387,0.14007276
3388,-0.08638338
3389,0.056746062
3390,-0.058215845
3391,-0.2225399
3392,0.09395144
3393,-0.015733529
3394,0.10507982
3395,0.0002907033
3396,0.06329931
3397,0.0028819048
3398,-0.08101743
3399,0.02875781
3400,0.07503351
3401,-0.124335565
3402,-0.02350042
3403,-0.16365494
3404,0.0138189215
3405,0.07946018
3406,-0.008418868
3407,0.030095909
3408,-0.052357495
3409,-0.0765035
3410,0.04074261
3411,-0.0049647046
3412,-0.013568079
3413,0.017012792
3414,0.2185619
3415,0.07105336
3416,-0.048375126
3417,-0.007489739
3418,0.03463985
3419,-0.01480822
3420,-0.001629371
3421,-0.09470585
3422,0.11647883
3423,-0.07722433
3424,0.0030068292
3425,0.11253517
3426,-0.06648305
3427,-0.0067480635
3428,-0.24699032
3429,0.020060971
3430,0.034250677
3431,0.14726911
3432,0.0066041895
3433,-0.09945373
3434,0.1363166
3435,0.020604135
3436,-0.14002375
3437,0.04249198
3438,0.077655196
3439,-0.08897144
3440,-0.111601315
3441,0.0742994
3442,-0.24992886
3443,0.0023327484
3444,0.20000014
3445,0.080065295
3446,-0.008120491
3447,-0.00799943
3448,0.10245556
3449,0.11391593
3450,-0.11829904
3451,-0.04505694
3452,-0.0057687587
3453,0.022523811
3454,-0.019263325
3455,-0.0014054356
3456,-0.02391885
3457,-0.0053947815
3458,0.0020732512
3459,-0.0035281167
3460,-0.03973588
3461,-0.16672821
3462,-0.005978977
3463,0.014008332
3464,-0.05357056
3465,-0.0013310588
3466,-0.01252557
3467,-0.027950738
3468,-0.02132563
3469,-0.001198113
3470,-0.03289665
3471,0.023420447
3472,-0.015359469
3473,0.019722348
3474,0.04061029
3475,-0.019137945
3476,0.013852383
3477,0.0033550046
3478,-0.068846434
3479,0.029996179
3480,0.036661927
3481,-0.02791726
3482,0.01836538
3483,0.04736883
3484,-0.0008861078
3485,0.009751527
3486,0.012463475
3487,0.01227042
3488,-0.06838601
3489,0.046165477
3490,-0.0514277
3491,0.010920033
3492,0.008315313
3493,0.00047705122
3494,-0.030250225
3495,0.016792674
3496,-0.107378304
3497,-0.03486035
3498,-0.058478385
3499,-0.008334297
3500,-0.027925894
3501,-0.020711489
3502,0.018892169
3503,0.007487333
3504,0.00396582
3505,0.0133541515
3506,0.0050451797
3507,0.0012300701
3508,-0.011658645
3509,0.008719663
3510,0.069665216
3511,0.0041789473
3512,-0.0126894135
3513,0.0014050931
3514,0.03206931
3515,-0.013032103
3516,-0.02692869
3517,-0.0048561385
3518,-0.0115824705
3519,0.05045774
3520,0.012580136
3521,-0.0045486796
3522,-0.052431434
3523,-0.00030479478
3524,0.02401276
3525,-0.101355255
3526,0.004710154
3527,0.012898025
3528,-0.067237705
3529,0.0135808205
3530,0.042778105
3531,0.018372837
3532,-0.0062935166
3533,0.021668497
3534,0.015389276
3535,0.016053203
3536,0.048216876
3537,0.040635634
3538,-0.04292052
3539,0.021616483
3540,-0.003611731
3541,0.0074543487
3542,-0.016234415
3543,-0.027230274
3544,0.021326698
3545,0.0012839264
3546,-0.03438472
3547,0.030513369
3548,0.0119043635
3549,0.039516557
3550,-0.001356715
3551,0.056120735
3552,-0.03431062
3553,-0.008877348
3554,0.004987822
3555,0.003188096
3556,0.033512484
3557,-0.073016845
3558,-0.05581182
3559,-0.04381819
3560,-0.0035919074
3561,-0.13420281
3562,-0.013618818
3563,0.030452253
3564,0.013769721
3565,-0.08616126
3566,0.04010317
3567,0.0031252082
3568,-0.018200526
3569,-0.00996147
3570,0.038009133
3571,-0.025131553
3572,-0.026521077
3573,0.014771089
3574,-0.02174778
3575,-0.016141614
3576,-0.013232666
3577,-0.016743412
3578,0.004120736
3579,-0.009551946
3580,0.0019693954
3581,0.05637302
3582,0.018976538
3583,-0.0033642915
3584,0.09082211
3585,0.2188781
3586,0.0077857166
3587,-0.056813367
3588,0.11692695
3589,-0.13666137
3590,-0.015413482
3591,-0.08513141
3592,-0.027130488
3593,-0.06960663
3594,-0.003529039
3595,-0.07698797
3596,-0.025670808
3597,-0.16443114
3598,-0.045780703
3599,-0.13248622
3600,0.020884521
3601,-0.024222389
3602,-0.1680943
3603,0.036757972
3604,0.11042914
3605,0.017066991
3606,0.060390934
3607,0.00012511158
3608,-0.10376187
3609,0.08871089
3610,-0.003376089
3611,-0.089043826
3612,0.06569812
3613,-0.015477362
3614,-0.026860181
3615,-0.0076303314
3616,-0.14224578
3617,-0.07717594
3618,0.009795628
3619,-0.053093232
3620,-0.05605903
3621,0.015952619
3622,-0.030443268
3623,0.06264269
3624,-0.13655595
3625,0.015207476
3626,0.022173434
3627,0.017119352
3628,-0.092320785
3629,-0.009664172
3630,0.023879083
3631,-0.023464713
3632,0.032981955
3633,0.029056422
3634,-0.03197795
3635,-0.1415255
3636,0.012519632
3637,-0.0135697
3638,-0.14020537
3639,-0.16687252
3640,0.23024495
3641,-0.008954765
3642,0.002284609
3643,0.011018857
3644,-0.045793932
3645,0.095204435
3646,-0.18900698
3647,-0.12476104
3648,0.04995198
3649,-0.119252674
3650,0.059813324
3651,0.0053813015
3652,0.08998281
3653,-0.014421999
3654,-0.05246546
3655,-0.05621925
3656,-0.0914255
3657,-0.13829702
3658,0.17076802
3659,-0.025721474
3660,0.04036995
3661,0.0636008
3662,-0.073674954
3663,0.017572695
3664,-0.064789444
3665,0.012446518
3666,-0.11489378
3667,-0.0023346986
3668,-0.19497754
3669,-0.036758337
3670,0.16069742
3671,-0.065240145
3672,0.030201802
3673,-0.000113800124
3674,-0.14650352
3675,-0.014713513
3676,-0.036263168
3677,-0.13479036
3678,-0.006078829
3679,-0.06768749
3680,-0.17695226
3681,0.002602606
3682,0.008434723
3683,0.0325919
3684,-0.08588892
3685,-0.0809785
3686,-0.059522506
3687,0.006973542
3688,-0.0023998076
3689,-0.05544911
3690,0.004134896
3691,-0.030376216
3692,-0.11849214
3693,-0.06162863
3694,-0.13771583
3695,-0.18570594
3696,-0.08123638
3697,-0.020897696
3698,-0.21509373
3699,0.018535063
3700,0.1842085
3701,0.03566396
3702,-0.042672794
3703,-0.021873279
3704,0.008151994
3705,0.023935163
3706,-0.13240685
3707,-0.082797505
3708,0.0005470112
3709,-0.11866056
3710,-0.124801785
3711,0.0066153123
3712,-0.0074790963
3713,0.11453357
3714,0.0011567564
3715,0.034026425
3716,-0.027239671
3717,-0.07763588
3718,0.040725548
3719,-0.06065473
3720,-0.047697432
3721,-0.07824633
3722,0.025200706
3723,8.713454e-05
3724,-0.0328638
3725,-0.037637513
3726,-0.0868156
3727,0.03160524
3728,-0.0021052829
3729,0.16960956
3730,0.03311911
3731,0.013783816
3732,0.043322865
3733,0.045600366
3734,0.08094863
3735,0.20051195
3736,-0.12124857
3737,-0.13002439
3738,-0.059131484
3739,-0.018969035
3740,0.0080660265
3741,0.024335612
3742,0.019201498
3743,-0.0074791494
3744,-0.071124434
3745,0.014857043
3746,-0.07895904
3747,-0.004683204
3748,-0.0022256672
3749,0.0052831345
3750,-0.03464526
3751,0.012274593
3752,-0.12582335
3753,0.02066204
3754,0.0020271759
3755,0.015094385
3756,-0.027072042
3757,-0.030739482
3758,-0.028318364
3759,-0.00013347517
3760,0.017566437
3761,0.042371273
3762,-0.08986271
3763,-0.039520532
3764,-0.008725519
3765,-0.0068438556
3766,0.10720237
3767,0.078894526
3768,0.10247415
3769,-0.009381986
3770,-0.07190685
3771,-0.0024337003
3772,-0.060727708
3773,-0.03836282
3774,0.0028997974
3775,0.044032715
3776,0.030575002
3777,-0.08100381
3778,-0.0094516175
3779,-0.012125382
3780,-0.30362767
3781,-0.04650425
3782,-0.09128758
3783,-0.042763624
3784,0.0073708054
3785,0.05624753
3786,-0.22398068
3787,-0.03069171
3788,0.17484593
3789,0.05307442
3790,-0.06313871
3791,0.18158592
3792,0.12122814
3793,-0.03894922
3794,-0.021177545
3795,0.018417703
3796,-0.020991337
3797,0.015307726
3798,0.15417296
3799,-0.024176005
3800,-0.008647957
3801,-0.018185066
3802,-0.02225345
3803,-0.07351052
3804,-0.0073844194
3805,-0.045859788
3806,0.010889691
3807,0.023938976
3808,0.015374026
3809,-0.0014158345
3810,-0.014427195
3811,-0.058263075
3812,0.013699839
3813,0.040966436
3814,-0.07427738
3815,-0.013568505
3816,-0.0055157477
3817,0.0025825745
3818,-0.006101077
3819,0.02049425
3820,0.045495864
3821,0.04014977
3822,0.045862623
3823,0.0017405855
3824,0.064243585
3825,0.0257031
3826,0.040332034
3827,0.004518304
3828,0.112364225
3829,0.053624913
3830,-0.04060136
3831,-0.0013078022
3832,0.041532572
3833,-0.006265547
3834,0.12684728
3835,0.034689073
3836,-0.0122228805
3837,0.037211873
3838,0.028712034
3839,0.0002406175
3840,0.028130066
3841,0.12040208
3842,0.03184245
3843,0.017394528
3844,0.2015122
3845,-0.050895266
3846,0.016545132
3847,0.081719674
3848,0.030930297
3849,0.101327844
3850,0.023512065
3851,0.084429525
3852,-0.0086627975
3853,0.087753646
3854,0.060420256
3855,0.02376802
3856,0.00024435658
3857,0.078804664
3858,-0.05392943
3859,0.04451838
3860,0.13559905
3861,0.065479025
3862,0.124471895
3863,0.06107078
3864,-0.003867439
3865,0.06232795
3866,0.0073197586
3867,0.022112243
3868,0.023262896
3869,0.001509855
3870,0.081481494
3871,-0.002984597
3872,0.110649735
3873,-0.1188214
3874,-0.12085026
3875,0.14110638
3876,0.009747446
3877,-0.007815225
3878,-0.007033265
3879,0.039939422
3880,-0.012293822
3881,0.016662603
3882,0.06926629
3883,0.030342568
3884,0.2515196
3885,0.0077653015
3886,0.018957896
3887,0.0052456744
3888,0.055126905
3889,0.11310746
3890,0.0683437
3891,0.09587661
3892,0.0023491925
3893,0.0062377173
3894,-0.016420621
3895,0.1454481
3896,0.06731893
3897,-0.0058852225
3898,0.034043852
3899,0.041082725
3900,0.16253513
3901,0.047875736
3902,0.050029974
3903,-0.08389153
3904,0.03830618
3905,-0.016844777
3906,0.014163284
3907,0.0063973973
3908,0.0761029
3909,0.10936797
3910,0.0804216
3911,0.079778984
3912,0.15233326
3913,-0.05095388
3914,0.2845946
3915,0.02123979
3916,0.10528103
3917,0.039728973
3918,0.08515014
3919,0.094493
3920,0.03198039
3921,0.043157086
3922,0.123117276
3923,0.08553523
3924,0.07832044
3925,-0.033180453
3926,0.09912008
3927,0.008195573
3928,0.108501926
3929,-0.0074951346
3930,0.11031155
3931,-0.09733182
3932,0.1712774
3933,0.20684972
3934,0.027545791
3935,-0.03609706
3936,0.115590364
3937,0.03740207
3938,0.03595847
3939,0.13134076
3940,-0.13078447
3941,0.08939014
3942,0.08801308
3943,0.015064373
3944,0.012278911
3945,0.11319669
3946,0.013242797
3947,0.012822526
3948,-0.073632985
3949,0.1014323
3950,-0.02942814
3951,0.093016505
3952,0.117092475
3953,0.0046276944
3954,-0.059556358
3955,-0.017093366
3956,0.08596828
3957,0.02241012
3958,-0.014751016
3959,-0.04298005
3960,0.018807998
3961,0.016291227
3962,-0.011408533
3963,-0.012252402
3964,0.007153915
3965,-0.09559829
3966,0.05611106
3967,0.010421889
3968,0.028558109
3969,-0.037318695
3970,-0.049405243
3971,0.0058493763
3972,-0.049216382
3973,-0.046547484
3974,0.030916339
3975,-0.016202737
3976,0.058219526
3977,-0.02271096
3978,-0.0099708205
3979,-0.06081512
3980,-0.017947985
3981,-0.03244056
3982,-0.046838753
3983,0.06823015
3984,-0.0067943796
3985,-0.007553727
3986,0.05078049
3987,-0.012775827
3988,-0.14803171
3989,0.007844351
3990,-0.051354002
3991,0.0096654715
3992,-0.021268077
3993,0.009428515
3994,0.025735622
3995,0.052065454
3996,-0.0024857104
3997,0.040737674
3998,-0.0023080546
3999,-0.0028745625
4000,-0.02552096
4001,0.054443333
4002,0.044486526
4003,0.022951277
4004,0.013623272
4005,0.023435125
4006,0.028100519
4007,-0.019207042
4008,-0.0046529677
4009,0.018423328
4010,-0.004345077
4011,0.00065609807
4012,-0.0685264
4013,0.036081117
4014,0.029226497
4015,0.020341601
4016,0.0051334836
4017,-0.07584861
4018,-0.0321923
4019,-0.009618758
4020,-0.01004581
4021,0.01822792
4022,0.016143402
4023,0.08445932
4024,-0.06600381
4025,-0.004063182
4026,0.051682524
4027,-0.0020925172
4028,0.023434265
4029,-0.08191301
4030,0.04453965
4031,0.032028336
4032,0.01987296
4033,0.03310318
4034,0.015233301
4035,-0.007445939
4036,0.053783607
4037,-0.027503684
4038,-0.036152706
4039,-0.026516309
4040,-0.014985486
4041,0.013303091
4042,0.028703
4043,0.04222766
4044,-0.03399026
4045,0.007103779
4046,-0.08335817
4047,-0.026953764
4048,0.00054180174
4049,0.048461452
4050,-0.0016384509
4051,-0.039244886
4052,-0.059425663
4053,0.024283826
4054,-0.03279042
4055,0.014428691
4056,0.0039334926
4057,-0.0009378857
4058,-0.020548094
4059,-0.0812002
4060,0.018168438
4061,0.061675996
4062,0.015316343
4063,0.025538063
4064,0.026367486
4065,-0.008889844
4066,-0.011279161
4067,-0.05923858
4068,0.036029942
4069,-0.13280109
4070,0.0716569
4071,0.019710386
4072,-0.0037851597
4073,-0.08203887
4074,0.010013036
4075,0.035289034
4076,0.026557157
4077,0.052095197
4078,0.062635995
4079,0.027951945
4080,0.00854053
4081,0.03330922
4082,0.035878867
4083,-0.01845409
4084,-0.040516164
4085,0.0072013573
4086,0.020944206
4087,-0.028910464
4088,0.00013734138
4089,0.005585729
4090,0.0034185136
4091,0.03955462
4092,-0.009456345
4093,0.049547
4094,0.009508388
4095,0.009045518
4096,0.040021934
4097,0.10571119
4098,0.014907987
4099,0.026260579
4100,-0.0606955
4101,-0.14393589
4102,0.03569822
4103,-0.0023371666
4104,0.05868729
4105,-0.0015498176
4106,0.03261879
4107,-0.078020334
4108,-0.0578219
4109,-0.036752515
4110,-0.02076248
4111,0.018514741
4112,0.033278108
4113,0.10252642
4114,0.018058034
4115,0.017985791
4116,-0.03499006
4117,0.032498166
4118,-0.12729412
4119,0.12092415
4120,0.012198618
4121,-0.11266809
4122,-0.14461343
4123,0.0052891974
4124,0.016202789
4125,0.014286008
4126,-0.00613414
4127,-0.01801042
4128,-0.13961418
4129,-0.03620293
4130,-0.077804044
4131,-0.027415158
4132,-0.12374266
4133,-0.050033398
4134,0.015074316
4135,-0.060107406
4136,-0.1153406
4137,0.014133471
4138,0.03576529
4139,0.023764169
4140,0.016318073
4141,0.011752609
4142,-0.11178459
4143,-0.07260209
4144,0.036884304
4145,-0.0009052444
4146,0.03747275
4147,-0.0075841863
4148,0.009251418
4149,-0.070580184
4150,0.09190349
4151,0.05999031
4152,0.16264503
4153,-0.0025840087
4154,-0.15666282
4155,0.03423342
4156,-0.0074509527
4157,0.013029397
4158,0.024869462
4159,0.034198783
4160,0.03412146
4161,-0.044354692
4162,0.038705796
4163,-0.0061199004
4164,-0.1885326
4165,-0.064225756
4166,0.04023365
4167,-0.0056295376
4168,-0.074776344
4169,0.035662003
4170,-0.10829345
4171,-0.14215644
4172,0.10799938
4173,0.05627698
4174,-0.035993513
4175,0.112647496
4176,0.12607369
4177,-0.21331091
4178,-0.05917953
4179,0.052286897
4180,-0.014722385
4181,-0.03216762
4182,0.1404038
4183,-0.06311943
4184,-0.010431491
4185,-0.002059704
4186,-0.05186911
4187,0.053748332
4188,-0.017128997
4189,-0.0377202
4190,0.018996479
4191,0.034887552
4192,0.09960658
4193,0.01854431
4194,0.064245865
4195,-0.026194975
4196,-0.024216939
4197,-0.068629995
4198,0.05447149
4199,0.03915478
4200,-0.009729455
4201,-0.14054184
4202,0.023167301
4203,0.0051077274
4204,0.017194157
4205,-0.048005383
4206,-0.013032899
4207,-0.018634606
4208,-0.029807594
4209,-0.051360145
4210,0.036765438
4211,0.02056255
4212,-0.04289415
4213,0.07603227
4214,-0.09696604
4215,0.0076514906
4216,0.032609895
4217,0.023017956
4218,0.0012485007
4219,0.03483141
4220,0.0021516795
4221,-0.00023870851
4222,-0.03343382
4223,0.0010351668
4224,0.099516004
4225,0.02018137
4226,-0.03564633
4227,-0.02040431
4228,-0.08075256
4229,-0.011623713
4230,0.0542486
4231,-0.040767707
4232,0.07591952
4233,-0.06422686
4234,0.061032612
4235,-0.03337674
4236,0.032209832
4237,-0.04596317
4238,0.008470871
4239,-0.061942697
4240,0.027731216
4241,0.03468768
4242,-0.021587461
4243,0.022542575
4244,-0.04499813
4245,0.05653288
4246,-0.03578915
4247,0.009301877
4248,-0.051194686
4249,-0.04290958
4250,0.05048266
4251,-0.058874566
4252,0.025864795
4253,0.0020358323
4254,-0.006813482
4255,-0.0010637229
4256,-0.004572053
4257,-0.19915174
4258,-0.12611555
4259,-0.014638492
4260,-0.05803613
4261,0.048838157
4262,0.0034376306
4263,0.035682026
4264,-0.017177036
4265,0.088555634
4266,-0.0018875144
4267,0.023610048
4268,-0.008256599
4269,0.06790752
4270,0.04574515
4271,0.075476006
4272,0.04179382
4273,-0.06994838
4274,-0.031404216
4275,-0.072450414
4276,-0.016954906
4277,0.036051545
4278,-0.026201822
4279,-0.0070063197
4280,0.041300207
4281,-0.016372154
4282,0.039106008
4283,0.045168027
4284,-0.0003509646
4285,-0.023975834
4286,0.009082928
4287,-0.05974184
4288,0.035950348
4289,0.0453553
4290,0.082270764
4291,-0.00924066
4292,0.01470762
4293,-0.085619055
4294,-0.0858243
4295,-0.032184094
4296,-0.040991686
4297,-0.050822224
4298,0.011413812
4299,0.03373149
4300,0.03836401
4301,0.058774076
4302,-0.03629162
4303,0.023383368
4304,-0.047802806
4305,0.08391066
4306,-0.016955214
4307,-0.059370857
4308,-0.046656433
4309,0.01727574
4310,0.0021321855
4311,-0.0438503
4312,-0.004899646
4313,-0.010338866
4314,-0.039434265
4315,-0.059816983
4316,0.03525778
4317,-0.05304551
4318,0.036047112
4319,-0.2212433
4320,0.05273571
4321,0.039019067
4322,-0.05098313
4323,-0.030369094
4324,-0.0952725
4325,-0.03777504
4326,0.036465257
4327,0.04480614
4328,-0.011425483
4329,-0.15723489
4330,0.04714646
4331,0.081129745
4332,0.008373805
4333,0.00198063
4334,0.010273993
4335,-0.04435576
4336,-0.0026719505
4337,-0.025256643
4338,-0.00840546
4339,-0.0015083918
4340,0.025375562
4341,0.057246182
4342,0.0627558
4343,-0.02258156
4344,0.039402075
4345,0.057245187
4346,-0.022392679
4347,0.099555016
4348,0.0035914292
4349,-0.12555437
4350,0.021275172
4351,-0.0030808954
4352,0.014305102
4353,0.16730241
4354,0.042894933
4355,0.04536888
4356,-0.030378204
4357,-0.105944514
4358,0.0068115094
4359,-0.119662814
4360,-0.1433704
4361,-0.093541294
4362,0.008756308
4363,0.018029422
4364,-0.050843883
4365,-0.01657501
4366,-0.041783396
4367,0.0016036271
4368,-0.009590728
4369,0.19880839
4370,0.06272646
4371,0.017907321
4372,0.052742764
4373,0.04884995
4374,0.08176623
4375,0.21834135
4376,-0.0786315
4377,-0.0794742
4378,-0.09557808
4379,0.016415728
4380,0.01029872
4381,0.02068589
4382,-0.008647453
4383,0.0072689657
4384,-0.04597825
4385,-0.0001250018
4386,-0.05720114
4387,-0.011818579
4388,0.014298179
4389,-0.0009914885
4390,-0.012192451
4391,0.006513755
4392,-0.018348537
4393,-0.019181984
4394,-0.047865447
4395,0.010976671
4396,-0.038855605
4397,-0.043759067
4398,-0.118802816
4399,-0.063718766
4400,0.009670072
4401,0.053894497
4402,-0.13500871
4403,-0.06704281
4404,-0.0039078705
4405,-0.018280279
4406,0.11546979
4407,0.061197285
4408,0.12439256
4409,-0.009370254
4410,-0.15888835
4411,-0.01019889
4412,-0.0784881
4413,-0.0056611127
4414,-0.034192786
4415,0.034611855
4416,0.037406895
4417,-0.021391597
4418,-0.0382957
4419,0.013304261
4420,-0.36061504
4421,-0.05378844
4422,-0.09784673
4423,-0.07970124
4424,-0.030526927
4425,0.034183428
4426,-0.19011141
4427,-0.090524554
4428,0.16372074
4429,0.06384478
4430,-0.051890284
4431,0.19283497
4432,0.13032322
4433,-0.14925179
4434,-0.07210145
4435,-0.02076219
4436,0.00070013985
4437,0.009246415
4438,0.2080815
4439,-0.0730591
4440,-0.022485211
4441,-0.01162467
4442,-0.07218046
4443,-0.051544998
4444,-0.040230148
4445,-0.059825134
4446,-0.003613317
4447,0.021270335
4448,-0.07733492
4449,-0.023122357
4450,0.045630347
4451,-0.0211274
4452,-0.017862663
4453,0.0414064
4454,-0.12606421
4455,-0.013846142
4456,-0.014221355
4457,-0.024032416
4458,-0.021725116
4459,-0.061216846
4460,0.053430468
4461,-0.033987723
4462,0.009837299
4463,0.036547035
4464,0.09338764
4465,0.0012616024
4466,0.039353646
4467,0.022978868
4468,0.13362366
4469,0.06263264
4470,-0.04266437
4471,-0.01576157
4472,0.018160146
4473,-0.0056835553
4474,0.08549194
4475,-0.029241938
4476,-0.0014539246
4477,0.008214416
4478,0.020347886
4479,-0.018359423
4480,0.03812377
4481,-0.07019515
4482,0.01813505
4483,0.04366439
4484,-0.069784835
4485,-0.0009340593
4486,0.036213644
4487,-0.05753966
4488,0.063920274
4489,-0.08454635
4490,0.032620877
4491,-0.080147356
4492,0.03235407
4493,-0.07421174
4494,-0.05875666
4495,0.06474414
4496,0.019935131
4497,0.021526234
4498,0.0579249
4499,0.014202765
4500,-0.06689688
4501,0.035649102
4502,-0.048874687
4503,0.020782722
4504,0.011155823
4505,0.0067328154
4506,0.032804962
4507,-0.0063426443
4508,0.008882649
4509,0.013772749
4510,-0.028810773
4511,0.0051865233
4512,-0.10892378
4513,0.030635139
4514,-0.002568562
4515,-0.016262995
4516,-0.009412074
4517,0.057116576
4518,0.015689475
4519,-0.021165187
4520,0.04916727
4521,0.05324922
4522,0.007545313
4523,0.025014592
4524,-0.095744826
4525,0.05066896
4526,0.027687144
4527,0.048580587
4528,0.042939216
4529,-0.006530887
4530,-0.098755285
4531,-0.058967568
4532,-0.00035222044
4533,0.032405782
4534,0.031907246
4535,0.012782771
4536,-0.04487709
4537,-0.004553184
4538,0.017371794
4539,0.034175023
4540,-0.001261707
4541,-0.027068662
4542,-0.017842678
4543,0.06660661
4544,0.016666902
4545,0.033642195
4546,0.062283363
4547,-0.022293603
4548,0.04215098
4549,0.0019537827
4550,-0.06824706
4551,-0.03479138
4552,-0.033046145
4553,0.051169597
4554,-0.06081428
4555,0.03236974
4556,-0.07329403
4557,0.037706845
4558,-0.05532524
4559,-0.023925051
4560,0.042569
4561,0.019984895
4562,-0.06766045
4563,-0.055666078
4564,-0.071500115
4565,-0.03923063
4566,-0.051954016
4567,0.005314121
4568,0.001677917
4569,-0.014497198
4570,-0.056227643
4571,0.014052986
4572,-0.029717416
4573,6.132298e-05
4574,0.0438878
4575,0.047336947
4576,-0.03306898
4577,0.029786054
4578,-0.034728706
4579,-0.049916
4580,0.03423985
4581,-0.011320618
4582,0.043517057
4583,0.053112086
4584,-0.015280795
4585,-0.0066484874
4586,0.03919941
4587,0.019270442
4588,0.055753052
4589,-0.07773699
4590,0.06114561
4591,0.019644935
4592,-0.0042615766
4593,0.00881005
4594,0.05170102
4595,0.03947569
4596,-0.13727015
4597,0.025516255
4598,0.037881795
4599,-0.011698994
4600,0.0094571905
4601,0.040166978
4602,0.017054457
4603,0.04909885
4604,-0.018770399
4605,0.05816819
4606,-0.026114829
4607,0.0021017503
4608,0.022794144
4609,0.10497258
4610,0.0709499
4611,-0.14780512
4612,-0.002185851
4613,-0.018866569
4614,0.07330217
4615,-0.013732898
4616,0.08475918
4617,-0.037541196
4618,0.06714618
4619,-0.033348516
4620,0.037294928
4621,-0.01635182
4622,-0.020320777
4623,0.095450915
4624,0.04857205
4625,0.06492088
4626,-0.10616479
4627,0.04843864
4628,-0.06686298
4629,0.072925925
4630,-0.054408252
4631,0.08170986
4632,0.023247054
4633,0.027395412
4634,0.045265302
4635,0.015759539
4636,0.06705064
4637,0.100911595
4638,-0.009033847
4639,-0.00045691527
4640,-0.0007248671
4641,0.03203603
4642,0.04179793
4643,0.03328679
4644,0.026573576
4645,0.06808803
4646,0.06256393
4647,0.049432248
4648,0.018531812
4649,0.08431502
4650,0.09204813
4651,0.06066546
4652,0.047749303
4653,0.08568523
4654,0.0007834189
4655,0.02442482
4656,0.047521424
4657,0.045393553
4658,0.011335678
4659,-0.014300669
4660,-0.005442914
4661,0.061794747
4662,-0.10975636
4663,0.05666352
4664,0.08978442
4665,-0.0050321645
4666,0.011664227
4667,0.05343217
4668,0.054092936
4669,-0.102149166
4670,0.053111665
4671,-0.12599815
4672,0.058034755
4673,0.053968128
4674,0.022939054
4675,-0.0073995776
4676,0.053876117
4677,0.033653166
4678,-0.0036313531
4679,0.011831407
4680,0.051719245
4681,-0.051913995
4682,0.028250245
4683,0.03914605
4684,0.10921755
4685,0.06025421
4686,-0.010940051
4687,0.09863274
4688,0.014691236
4689,0.066695884
4690,0.008959134
4691,0.012636109
4692,-0.028394865
4693,-0.02701986
4694,0.0870843
4695,0.024070827
4696,0.026210807
4697,0.011206223
4698,0.015362352
4699,0.025923539
4700,0.04540509
4701,0.10933089
4702,0.058317404
4703,0.047423102
4704,0.10989352
4705,0.049754124
4706,-0.057388704
4707,-0.025892941
4708,0.044140648
4709,-0.0012606428
4710,0.08754095
4711,0.062902555
4712,-0.0077118315
4713,-0.061476097
4714,0.03964469
4715,0.11908623
4716,-0.03190887
4717,-0.08010448
4718,0.10523163
4719,0.0053105955
4720,-0.010408031
4721,0.116691165
4722,-0.1437728
4723,0.016687483
4724,0.07320185
4725,0.047429558
4726,0.058738988
4727,0.05775588
4728,0.074098535
4729,0.05429249
4730,-0.08771734
4731,0.081601515
4732,-0.016523909
4733,0.10296135
4734,-0.01435862
4735,0.0056660334
4736,0.032501753
4737,-0.07225662
4738,0.020459017
4739,-0.0026088231
4740,-0.067479566
4741,0.023049532
4742,0.026673382
4743,-0.029928511
4744,-0.03565024
4745,-0.018238552
4746,-0.0035700263
4747,-0.05755744
4748,0.03155033
4749,-0.09866304
4750,-0.048860624
4751,0.012730154
4752,0.011412292
4753,-0.016682062
4754,0.065643996
4755,0.015305587
4756,-0.039601516
4757,-0.030570248
4758,-0.11344124
4759,-0.024130955
4760,0.07294095
4761,0.03069929
4762,-0.04012036
4763,0.040754065
4764,0.02445506
4765,0.014027081
4766,-0.03411183
4767,0.012283389
4768,-0.16537736
4769,0.039748926
4770,-0.05591407
4771,-0.009089164
4772,-0.026879141
4773,-0.0154636
4774,0.022080291
4775,0.03981865
4776,0.11728587
4777,-0.011102517
4778,-0.012633808
4779,0.009023238
4780,-0.10354036
4781,0.0031526105
4782,-0.13289557
4783,-0.03465491
4784,0.029480062
4785,0.009516674
4786,-0.024635574
4787,-0.10411801
4788,-0.007365199
4789,0.004223181
4790,0.066274874
4791,-0.012369639
4792,-0.08703787
4793,-0.005994818
4794,-0.051772255
4795,0.011421741
4796,-0.078016035
4797,-0.07833487
4798,0.003220266
4799,0.06834233
4800,0.031900823
4801,0.03217777
4802,0.09496891
4803,-0.012819416
4804,-0.28298652
4805,-0.074538745
4806,-0.025926622
4807,-0.023069367
4808,-0.03133768
4809,0.04089846
4810,-0.14821506
4811,-0.082702756
4812,-0.03278319
4813,0.012359303
4814,-0.0981221
4815,-0.036767256
4816,0.022535222
4817,-0.11227041
4818,-0.07056791
4819,-0.020025779
4820,-0.113383114
4821,-0.0072503784
4822,-0.07578671
4823,0.015199771
4824,0.032714937
4825,0.0014340717
4826,-0.04354451
4827,-0.06547234
4828,-0.052996147
4829,-0.03612828
4830,0.029796561
4831,0.022054141
4832,-0.036835503
4833,0.022359367
4834,0.047557846
4835,-0.09115396
4836,0.037251152
4837,-0.03874653
4838,-0.009696193
4839,-0.0017559393
4840,-0.011999736
4841,0.0045711324
4842,0.01144914
4843,0.056221273
4844,0.062504426
4845,-0.041568596
4846,0.038522877
4847,0.051923364
4848,0.06705066
4849,-0.014542187
4850,0.062488962
4851,0.05077809
4852,0.04966305
4853,0.026194742
4854,-0.0101781525
4855,-0.0023294624
4856,0.023348233
4857,0.0111320345
4858,0.06396035
4859,0.08302375
4860,-0.019200236
4861,0.032349166
4862,0.06782115
4863,-0.0060239807
4864,0.03847912
4865,0.013346303
4866,-0.009772544
4867,-0.05678002
4868,-0.05944748
4869,-0.053478964
4870,0.026239328
4871,-0.04912116
4872,-0.00091833697
4873,-0.042393595
4874,0.011480197
4875,-0.048942942
4876,0.026267996
4877,-0.048548307
4878,-0.0068167318
4879,-0.06878554
4880,0.022052793
4881,1.2061821e-05
4882,-0.031266462
4883,0.013781443
4884,-0.0704062
4885,-0.01792061
4886,-0.05113992
4887,0.005787114
4888,-0.07912596
4889,0.031758614
4890,0.07333009
4891,-0.10541847
4892,0.019463073
4893,0.017181743
4894,0.010356073
4895,0.012037118
4896,-0.013902681
4897,-0.21085139
4898,-0.064060695
4899,0.028972873
4900,-0.10774828
4901,0.02941421
4902,-0.024444172
4903,0.035232604
4904,-0.16075085
4905,-0.0010287245
4906,-0.022164742
4907,0.02347492
4908,-0.044530813
4909,-0.005089754
4910,0.015679363
4911,0.04106605
4912,0.019901043
4913,-0.057123486
4914,-0.038850375
4915,-0.067187466
4916,-0.0021096738
4917,0.010002307
4918,-0.046175707
4919,0.009213662
4920,-0.013995429
4921,0.010329151
4922,0.03981775
4923,-2.2762702e-05
4924,-0.026867166
4925,-0.06101468
4926,0.029243639
4927,-0.05081474
4928,0.02998047
4929,0.012237008
4930,0.03404824
4931,-0.011828026
4932,0.033636514
4933,-0.08996888
4934,-0.035889186
4935,-0.047809616
4936,-0.05018666
4937,-0.015175394
4938,0.046808705
4939,0.00034930732
4940,0.007810202
4941,0.014659049
4942,-0.06802561
4943,0.0057957983
4944,-0.08444448
4945,0.06912454
4946,-0.034992017
4947,-0.029392945
4948,-0.060599912
4949,0.017910054
4950,-0.009154024
4951,-0.05282833
4952,-0.0035902099
4953,-0.007720373
4954,-0.014964062
4955,0.020427264
4956,0.047066957
4957,-0.061709825
4958,0.015893364
4959,-0.13470756
4960,0.025357425
4961,0.010735178
4962,-0.027041184
4963,-0.036714595
4964,-0.14631587
4965,-0.08728211
4966,-0.013864676
4967,-0.0019172984
4968,0.0017891901
4969,-0.17105219
4970,0.011338933
4971,0.0922747
4972,-0.010095007
4973,0.04697512
4974,-0.034651373
4975,-0.03865711
4976,0.023194756
4977,-0.08108662
4978,-0.014698432
4979,-0.017154014
4980,0.027591968
4981,0.0028770757
4982,0.043358035
4983,-0.023458205
4984,0.028772252
4985,0.010441121
4986,-0.03267842
4987,0.055774577
4988,0.0128070135
4989,-0.14585066
4990,0.048285674
4991,-0.015996529
4992,0.10928495
4993,0.11333098
4994,0.028449658
4995,-0.056805246
4996,-0.15013015
4997,-0.108192004
4998,0.0030828358
4999,-0.07623087
5000,0.052326355
5001,-0.052221507
5002,0.015740229
5003,-0.078195624
5004,0.027641304
5005,-0.033606593
5006,-0.058408152
5007,0.061966408
5008,0.03350784
5009,0.024577672
5010,-0.07800915
5011,0.023675233
5012,-0.0065818275
5013,0.0100897895
5014,-0.07231776
5015,0.042555153
5016,-0.0364396
5017,0.0771564
5018,-0.015905054
5019,0.034467746
5020,0.04929782
5021,0.0064700176
5022,-0.010673018
5023,-0.006564577
5024,-0.08117676
5025,-0.035095565
5026,-0.022231013
5027,-0.04981673
5028,-0.10594332
5029,0.021811578
5030,0.019557491
5031,0.06701785
5032,-0.025348192
5033,0.023895914
5034,0.011655751
5035,0.030994972
5036,-0.07362639
5037,0.068553835
5038,-0.0064116474
5039,0.019815683
5040,0.03924956
5041,-0.03810113
5042,-0.040041957
5043,0.0029269685
5044,0.015730163
5045,0.0062395805
5046,-0.13921846
5047,0.010246496
5048,0.11482397
5049,0.015140201
5050,0.007917845
5051,0.042890944
5052,0.071679145
5053,-0.004059821
5054,0.009830228
5055,-0.06732975
5056,0.049950805
5057,-0.071002275
5058,0.09295811
5059,0.0022182986
5060,0.010812956
5061,-0.16205622
5062,-0.027753638
5063,-0.07045393
5064,-0.18617211
5065,-0.08215573
5066,0.018572357
5067,0.0100121265
5068,0.04105089
5069,0.044132926
5070,-0.040182028
5071,0.034625567
5072,-0.12090537
5073,0.020722548
5074,-0.07039327
5075,-0.04178724
5076,-0.049054768
5077,-0.04883105
5078,0.09574935
5079,0.0016979096
5080,-0.009088966
5081,-0.011207936
5082,-0.021950115
5083,0.01163896
5084,0.01641224
5085,0.042470697
5086,0.014441458
5087,0.010074672
5088,-0.058971025
5089,0.029826162
5090,-0.015555176
5091,-0.04253338
5092,-0.03168961
5093,-0.08843636
5094,0.06875899
5095,0.029010745
5096,-0.0031907556
5097,-0.019108007
5098,0.03715099
5099,0.03291166
5100,-0.027362155
5101,0.014824559
5102,0.004666493
5103,0.034395233
5104,0.0087100165
5105,0.0032165088
5106,-0.09051618
5107,-0.0008655806
5108,0.118169695
5109,0.047596745
5110,0.021278653
5111,-0.03390858
5112,0.012974358
5113,0.036364343
5114,-0.07672883
5115,-0.026089462
5116,-0.011745476
5117,-0.034788653
5118,-0.016602019
5119,-0.002246807
5120,0.02673466
5121,-0.0051183864
5122,0.025329322
5123,-0.0031498654
5124,-0.04098321
5125,-0.08930417
5126,0.04559329
5127,-0.04460974
5128,0.048445072
5129,-0.056936175
5130,0.025310822
5131,-0.044173356
5132,0.023500903
5133,-0.009063217
5134,-0.061348494
5135,-0.037533537
5136,0.03729932
5137,0.062758006
5138,0.053041235
5139,0.03532296
5140,0.022748299
5141,0.008711833
5142,-0.041219167
5143,0.04914809
5144,-0.17883421
5145,-0.033354156
5146,0.020259786
5147,-0.026478894
5148,0.032448128
5149,-0.06607216
5150,-0.013084022
5151,-0.004616586
5152,-0.03833446
5153,0.011898467
5154,-0.043955006
5155,-0.0055643413
5156,-0.11277726
5157,-0.08571157
5158,-0.09641527
5159,-0.009930129
5160,-0.10284327
5161,0.04667822
5162,-0.0030405242
5163,0.018012354
5164,-0.101599775
5165,0.018630885
5166,-0.020123132
5167,-0.020120304
5168,0.009437657
5169,-0.038125005
5170,-0.049095884
5171,-0.005814447
5172,0.0074753924
5173,-0.12837537
5174,0.08504883
5175,0.01317715
5176,0.005176543
5177,0.007432084
5178,-0.012001364
5179,0.041846853
5180,0.0005075389
5181,-0.025629612
5182,-0.009774489
5183,0.032343164
5184,0.03079839
5185,0.0027667086
5186,0.0006573539
5187,0.009688701
5188,-0.0775452
5189,-0.094323754
5190,-0.04665661
5191,-0.04504085
5192,-0.089010604
5193,0.037780933
5194,-0.09162047
5195,0.015095875
5196,0.012965164
5197,0.04864842
5198,0.009787986
5199,0.027281754
5200,0.1251512
5201,0.011378451
5202,-0.043568887
5203,-0.032175332
5204,0.027937945
5205,-0.00014339562
5206,0.0122579895
5207,-0.097575985
5208,0.0020583544
5209,-0.0016025711
5210,-0.047330644
5211,0.012268886
5212,-0.027173318
5213,0.006817115
5214,0.037324067
5215,0.018316595
5216,0.024358766
5217,0.0021217347
5218,-0.083777264
5219,0.011948167
5220,0.01130138
5221,-0.04408983
5222,0.032528006
5223,0.042667657
5224,0.004467788
5225,-0.041029602
5226,0.02857058
5227,0.003931677
5228,0.036867987
5229,-0.036766294
5230,0.020396315
5231,0.0005313213
5232,-0.006541263
5233,-0.05902794
5234,0.04252744
5235,0.01750097
5236,-0.024123557
5237,0.04127793
5238,-0.03777478
5239,-0.022547916
5240,0.037481222
5241,0.01036797
5242,0.0013971357
5243,0.053518254
5244,-0.002870707
5245,0.006001597
5246,-0.0121081285
5247,0.0017562185
5248,0.015860781
5249,-0.039732967
5250,-0.02127574
5251,0.07607731
5252,0.112171896
5253,-0.08890104
5254,-0.06636949
5255,0.0022070077
5256,-0.022582065
5257,0.009180307
5258,-0.048217192
5259,-0.013253471
5260,0.045272287
5261,-0.07778
5262,-0.043842655
5263,-0.0070459573
5264,-0.042500816
5265,-0.035082232
5266,-0.020067556
5267,-0.06575367
5268,0.11013437
5269,-0.037430637
5270,0.10081137
5271,-0.060547065
5272,-0.11010011
5273,0.045760162
5274,-0.0397517
5275,-0.041890427
5276,-0.06589076
5277,0.013139343
5278,-0.03257307
5279,-0.0053483397
5280,-0.058410753
5281,-0.22370592
5282,-0.091986105
5283,0.042778328
5284,0.049827397
5285,0.009700876
5286,-0.0034052534
5287,0.0167614
5288,-0.12004065
5289,-0.05150957
5290,-0.042327452
5291,0.00055553945
5292,-0.07758213
5293,-0.014553348
5294,-0.03310092
5295,-0.061168615
5296,-0.029161492
5297,-0.018375559
5298,-0.0069483663
5299,-0.078706674
5300,0.009659201
5301,-0.016638355
5302,-0.06742543
5303,-0.07169909
5304,-0.11850302
5305,-0.013249374
5306,-0.0111222435
5307,-0.002961391
5308,-8.221539e-05
5309,0.12837553
5310,0.023728669
5311,-0.06324433
5312,-0.015996933
5313,-0.084519394
5314,-0.02497999
5315,0.0044367258
5316,0.030507566
5317,0.06319073
5318,-0.020773059
5319,0.015154661
5320,-0.074865974
5321,-0.15605101
5322,0.14493299
5323,-0.055201337
5324,-0.021066269
5325,-0.045705643
5326,0.024283275
5327,-0.040807627
5328,-0.0649547
5329,-0.022988081
5330,-0.075636744
5331,-0.048876505
5332,-0.09279482
5333,0.018304555
5334,-0.115931615
5335,-0.0010173821
5336,0.07626022
5337,-0.00042134165
5338,-0.07831591
5339,-0.072416246
5340,0.017931715
5341,0.10710236
5342,-0.007131997
5343,-0.02395849
5344,-0.07553011
5345,-0.01583006
5346,-0.008088643
5347,0.09647996
5348,-0.25293326
5349,-0.10398039
5350,-0.052914374
5351,-0.052402202
5352,-0.0027555602
5353,-0.079126045
5354,-0.015472303
5355,-0.11163617
5356,-0.16078949
5357,-0.059154324
5358,-0.03281529
5359,0.05062739
5360,0.093182586
5361,-0.0028178717
5362,-0.19965214
5363,-0.065271735
5364,0.06109198
5365,-0.03643351
5366,-0.073670894
5367,-0.027306432
5368,-0.08741137
5369,-0.027297387
5370,0.10698967
5371,-0.09086104
5372,0.005393363
5373,-0.21936186
5374,0.07786941
5375,0.002885118
5376,-0.034778986
5377,0.10688612
5378,-0.11047218
5379,-0.05758581
5380,0.021665392
5381,-0.122214936
5382,-0.0032352821
5383,-0.007659604
5384,-0.023643404
5385,0.0005979533
5386,-0.02051343
5387,-0.07431422
5388,0.014990686
5389,-0.11453399
5390,-0.045136526
5391,-0.13086604
5392,0.0028501856
5393,-0.085196555
5394,-0.12192794
5395,0.01745236
5396,-0.0051481565
5397,0.018323177
5398,0.027604494
5399,-0.06887608
5400,-0.012214947
5401,0.093045466
5402,-0.017061077
5403,-0.0832039
5404,0.09270964
5405,-0.034789648
5406,-0.009241962
5407,-0.0025064063
5408,-0.18324226
5409,-0.088810764
5410,-0.007340054
5411,-0.01882695
5412,-0.09009717
5413,0.0786252
5414,0.031077215
5415,0.017572701
5416,0.016588807
5417,0.03673529
5418,-0.08370812
5419,0.028758738
5420,0.05149612
5421,-0.058998547
5422,-0.04515409
5423,-0.03346613
5424,0.036314264
5425,-0.03002891
5426,-0.017356262
5427,-0.0609556
5428,-0.006003562
5429,0.011830439
5430,-0.09419887
5431,-0.07146377
5432,0.030357858
5433,-0.0036729358
5434,-0.013633336
5435,0.06244508
5436,-0.05546044
5437,0.09485631
5438,0.010144102
5439,-0.20461449
5440,-0.01758444
5441,0.0063394727
5442,-0.016444407
5443,-0.009314215
5444,0.01578477
5445,0.028722184
5446,-0.032937624
5447,0.027206
5448,0.013108149
5449,-0.13065079
5450,0.1012883
5451,-0.03506439
5452,-0.088937424
5453,-0.024499996
5454,-0.058967475
5455,-0.0933789
5456,-0.16688319
5457,0.0042638704
5458,-0.024815677
5459,-0.016330466
5460,-0.13651696
5461,0.01182157
5462,0.025723172
5463,-0.032727525
5464,-0.003951673
5465,-0.0020172568
5466,-0.018801294
5467,-0.007070586
5468,0.055299673
5469,-0.07036828
5470,0.015919773
5471,-0.13243283
5472,-0.08003294
5473,0.019059947
5474,0.0033304133
5475,-0.01729125
5476,-0.102765255
5477,-0.18407148
5478,-0.08829738
5479,0.023008803
5480,-0.0021504974
5481,-0.1503805
5482,0.022032674
5483,-0.031012565
5484,-0.11643181
5485,-0.114002235
5486,-0.024808241
5487,-0.06298594
5488,-0.007572905
5489,-0.023165056
5490,-0.19706787
5491,-0.009972342
5492,0.07281617
5493,-0.01604649
5494,-0.02779843
5495,0.017057398
5496,0.0136756925
5497,0.005118408
5498,-0.03311666
5499,-0.13428131
5500,-0.0037913765
5501,-0.16967277
5502,-0.03712742
5503,-0.011282167
5504,0.00066913036
5505,0.037308678
5506,-0.03369827
5507,0.08368885
5508,-0.062433988
5509,-0.06510769
5510,-0.009583694
5511,-0.029266039
5512,0.034104113
5513,-0.01604983
5514,-0.027499862
5515,-0.044585187
5516,0.08526402
5517,-0.03945611
5518,-0.01100958
5519,0.030419553
5520,-0.012369929
5521,0.03876048
5522,0.08104867
5523,0.027583586
5524,-0.06273488
5525,0.01899812
5526,-0.051198177
5527,0.0358521
5528,-0.055312775
5529,-0.07046578
5530,0.00719264
5531,-0.034069266
5532,-0.01608775
5533,-0.026381405
5534,0.0062317667
5535,5.134168e-05
5536,-0.11991774
5537,0.04750815
5538,-0.01321814
5539,-0.034977652
5540,-0.0830106
5541,-0.0040898933
5542,-0.011599844
5543,-0.006334461
5544,-0.13118562
5545,0.013348615
5546,0.04235962
5547,0.018302899
5548,-0.070181444
5549,-0.023446366
5550,0.0008795904
5551,0.036277413
5552,0.032273024
5553,0.038648844
5554,-0.04448252
5555,-0.01985019
5556,-0.0028547929
5557,-0.024755787
5558,0.1282132
5559,-0.053413253
5560,0.0046497984
5561,-0.011359369
5562,0.017462905
5563,0.034650985
5564,-0.016152142
5565,0.04814317
5566,-0.063153446
5567,0.095724866
5568,-0.0035006145
5569,-0.09827796
5570,-0.011601588
5571,-0.009471653
5572,0.03544743
5573,-0.06544227
5574,-0.055018928
5575,-0.025845926
5576,0.01469666
5577,0.059139896
5578,0.0285858
5579,-0.008978317
5580,0.019593205
5581,0.0020995215
5582,-0.02082442
5583,0.020443292
5584,0.10933663
5585,0.018694142
5586,-0.04013043
5587,-0.07596196
5588,-0.03873508
5589,-0.012935036
5590,0.023458956
5591,-0.0004867342
5592,-0.044677343
5593,-0.005091035
5594,-0.038972862
5595,0.015223656
5596,0.0005734609
5597,0.07074186
5598,0.019517355
5599,0.03797251
5600,-0.05387643
5601,0.0013037873
5602,-0.1340372
5603,-0.026931336
5604,0.0060325614
5605,-0.0061407834
5606,0.0151409535
5607,-0.0012504698
5608,-0.020506348
5609,-0.1378254
5610,0.012675554
5611,-0.069115475
5612,0.026281927
5613,-0.04266578
5614,-0.119499736
5615,0.023451699
5616,0.0024050765
5617,-0.05805489
5618,0.04819505
5619,-0.044383164
5620,-0.0062875985
5621,0.010331118
5622,0.0059817047
5623,-0.017900141
5624,-0.015737645
5625,-0.014584619
5626,0.06285061
5627,-0.07502243
5628,-0.008557341
5629,-0.0018181084
5630,0.0052971058
5631,-0.012643635
5632,0.018372057
5633,0.23672278
5634,0.055656094
5635,-0.07874337
5636,0.018859852
5637,0.016384538
5638,0.12105318
5639,0.061760366
5640,0.16522841
5641,0.07571522
5642,0.16046578
5643,0.14802538
5644,0.03165645
5645,0.14440604
5646,-0.21364306
5647,0.11537861
5648,0.16652364
5649,0.15562372
5650,-0.118511684
5651,0.14189881
5652,0.06452947
5653,0.12598653
5654,0.11423135
5655,0.1407068
5656,-0.003971606
5657,-0.024812914
5658,-0.086661786
5659,0.016734699
5660,0.11144397
5661,0.16263194
5662,-0.015207078
5663,-0.030438973
5664,0.20279475
5665,-0.12980302
5666,0.046551265
5667,-0.30941445
5668,0.110374935
5669,0.040527076
5670,0.015772007
5671,0.1598911
5672,-0.024996208
5673,0.11503852
5674,0.07457625
5675,0.14868964
5676,-0.062239595
5677,0.20392142
5678,-0.08964948
5679,-0.06586516
5680,0.12657654
5681,0.027885078
5682,0.09310685
5683,0.07265279
5684,-0.0031397305
5685,0.036962125
5686,-0.21911483
5687,0.13898075
5688,0.21804136
5689,-0.0014651732
5690,-0.05639895
5691,0.09167311
5692,0.0070239473
5693,0.04273079
5694,0.09574379
5695,-0.1831886
5696,0.10004367
5697,-0.0974412
5698,-0.0101935025
5699,0.007941113
5700,0.004241338
5701,0.035887677
5702,0.08028438
5703,0.068003625
5704,-0.06957052
5705,-0.14710855
5706,0.06979227
5707,-0.09414122
5708,0.25501493
5709,0.112408996
5710,0.08962373
5711,0.1983909
5712,-0.04780058
5713,0.002741671
5714,0.08937468
5715,0.10169963
5716,0.14231777
5717,0.0042147255
5718,0.19725852
5719,0.0883511
5720,-0.21066701
5721,0.0004758127
5722,0.1063777
5723,0.0918898
5724,-0.16280381
5725,0.009316686
5726,0.08099467
5727,-0.16438471
5728,0.23129968
5729,0.19044869
5730,0.016951691
5731,0.055954292
5732,-0.11915537
5733,0.08855258
5734,0.16276571
5735,0.10912634
5736,0.0013118918
5737,-0.053728558
5738,0.13128081
5739,-0.045943134
5740,-0.15481271
5741,0.020273179
5742,-0.025520323
5743,0.08821826
5744,0.08321595
5745,0.10210758
5746,-0.1257574
5747,-0.15180777
5748,0.25900164
5749,0.103562556
5750,-0.037455313
5751,-0.036904838
5752,0.059197143
5753,0.17931046
5754,-0.09329161
5755,0.031886473
5756,-0.0058068903
5757,-0.10385025
5758,0.17557992
5759,-0.0057197995
5760,-0.029727573
5761,-0.013119782
5762,-0.006568806
5763,-0.022510502
5764,-0.031667475
5765,-0.02961911
5766,0.0022530067
5767,-0.006376778
5768,0.027857866
5769,-0.006191578
5770,-0.0053660227
5771,-0.114423364
5772,0.015015629
5773,-0.0997644
5774,-0.019253792
5775,0.043438733
5776,-0.009668565
5777,0.000709975
5778,0.038080905
5779,-0.009233614
5780,-0.049715053
5781,-0.020686256
5782,-0.061391555
5783,0.017646404
5784,-0.006113325
5785,0.008119294
5786,-0.005177388
5787,0.0605537
5788,0.009148466
5789,0.0313161
5790,-0.0041891583
5791,-0.010033165
5792,-0.08753759
5793,0.0041899467
5794,-0.024660446
5795,0.005726148
5796,0.045942497
5797,-0.016441718
5798,-0.008596611
5799,0.009254465
5800,0.022286577
5801,-0.0256754
5802,0.04107095
5803,-0.0016876438
5804,-0.049360994
5805,0.028851757
5806,-0.021928186
5807,-0.03099007
5808,-0.00555261
5809,0.013152792
5810,-0.009966312
5811,-0.056929596
5812,-0.0145116085
5813,-0.018338524
5814,0.003836796
5815,0.03916397
5816,-0.018177344
5817,-0.0048438436
5818,-0.0141228335
5819,-0.010466849
5820,0.021702105
5821,-0.08530704
5822,0.02066524
5823,0.03839152
5824,0.01726744
5825,-0.059470676
5826,-0.027462019
5827,-0.0096441675
5828,0.016455732
5829,-0.03000859
5830,-0.0058101164
5831,-0.030866094
5832,-0.03825217
5833,0.049067706
5834,-0.00894689
5835,0.005518828
5836,-0.023339944
5837,0.0038229993
5838,-0.09403235
5839,0.0031570324
5840,0.028301083
5841,-0.0025544488
5842,-0.005228201
5843,0.0020607552
5844,-0.08709864
5845,0.015714142
5846,-0.026196936
5847,-0.04237555
5848,-0.0071799043
5849,-0.001798013
5850,-0.04121252
5851,0.0557666
5852,-0.0010316791
5853,0.045294177
5854,-0.020028373
5855,0.046891253
5856,0.008313098
