Sno,Weight
0,-0.03089013
1,0.010310632
2,-0.034174852
3,-0.1056227
4,-0.01599703
5,0.042695172
6,-0.16123717
7,0.03089533
8,0.005906528
9,-0.102144845
10,0.018808918
11,-0.04406076
12,-0.004886668
13,0.028597554
14,0.030313058
15,0.04636281
16,-0.037504345
17,0.020062337
18,0.011770245
19,-0.03620735
20,0.020304795
21,-0.005820006
22,0.013426245
23,0.0022036664
24,-0.03296104
25,-0.076353766
26,0.021498391
27,0.016746037
28,-0.09272256
29,-0.012164755
30,0.004369059
31,0.00555591
32,-0.009515038
33,0.047719054
34,-0.054537818
35,-0.08883121
36,-0.019965308
37,0.0058714026
38,0.007751279
39,0.025879111
40,0.025954638
41,-0.07368322
42,0.027568635
43,-0.12712024
44,0.023070823
45,-0.035340134
46,-0.040516973
47,-0.011398135
48,0.058503695
49,-0.12629004
50,-0.0147139635
51,0.015499086
52,0.040736903
53,-0.17091355
54,-0.043239035
55,-0.055192243
56,0.046995644
57,0.087494075
58,0.0127356555
59,-0.013841976
60,0.016409509
61,0.012767194
62,0.02839905
63,-0.060394462
64,-0.08991654
65,-0.007660681
66,0.026228657
67,0.014294872
68,0.03181731
69,0.020764096
70,0.0020848557
71,0.014477401
72,0.037832398
73,0.02047902
74,-0.04902556
75,-0.07329176
76,0.021117695
77,0.015887776
78,-0.003947009
79,-0.016135767
80,-0.010608556
81,-0.01248378
82,-0.022588052
83,0.032894295
84,0.0021292958
85,-0.0046477183
86,0.07235405
87,0.020992925
88,-0.015891736
89,-0.034412
90,0.020576093
91,-0.19782513
92,0.027653202
93,0.007518677
94,0.0016563446
95,-0.13104568
96,0.080254465
97,0.01793103
98,0.03262991
99,-0.012795915
100,-0.0050507956
101,0.042275965
102,0.025943283
103,0.028749552
104,0.021686437
105,0.008878477
106,-0.065667406
107,-0.009369869
108,-0.15774809
109,-0.0212935
110,-0.010277161
111,0.027106868
112,0.03662899
113,-0.16483325
114,-0.0027936585
115,0.0065387464
116,0.037766766
117,-0.034928046
118,-0.0038898787
119,-0.030005738
120,-0.049379863
121,0.034064863
122,-0.062377274
123,0.014705276
124,-0.034210768
125,-0.25241977
126,0.010862729
127,-0.0032086784
128,0.010732166
129,0.11917567
130,-0.12966321
131,-0.087947704
132,-0.064293586
133,-0.13391034
134,-0.053607482
135,0.0032908274
136,0.034582686
137,-0.053257298
138,-0.021355338
139,-0.05435132
140,-0.0031402747
141,-0.015533903
142,-0.044752467
143,-0.14814818
144,-0.031018237
145,-0.100520566
146,0.04400041
147,0.02960993
148,0.019686848
149,0.0050056926
150,0.027541436
151,0.042240676
152,-0.07470657
153,-0.08408673
154,0.044518154
155,0.006890707
156,-0.066573754
157,0.019057244
158,0.03781693
159,0.0061368537
160,-0.055694424
161,-0.111668915
162,0.030590381
163,-0.20214029
164,-0.008856229
165,0.02466079
166,0.07203152
167,0.028288618
168,0.041447878
169,-0.07440856
170,0.019744555
171,-0.07136142
172,0.032335643
173,0.017252566
174,0.08864964
175,0.03154115
176,-0.05939424
177,-0.12838936
178,0.11000281
179,-0.04437535
180,-0.0049487627
181,0.04813321
182,-0.015049596
183,-0.061835747
184,-0.044597387
185,-0.11191672
186,-0.070966706
187,-0.120250754
188,-0.048530344
189,0.013525356
190,0.040913302
191,0.095999256
192,-0.110858776
193,-0.06228056
194,-0.009344945
195,0.005824988
196,0.022394992
197,0.03608576
198,0.0968666
199,0.02928397
200,0.017347964
201,0.090244934
202,-0.22163346
203,0.023508867
204,-0.25160345
205,0.026659533
206,-0.022950739
207,0.004980366
208,-0.025338601
209,-0.23000924
210,-0.03148165
211,0.021104166
212,0.15602244
213,-0.030659353
214,-0.023845768
215,-0.03964191
216,-0.10394121
217,0.046464883
218,-0.022110458
219,-0.018067323
220,-0.02534592
221,0.021896325
222,0.010194352
223,-0.07621917
224,-0.1484508
225,0.031346682
226,-0.00033915744
227,0.03908404
228,0.0065226825
229,-0.066503294
230,0.03542335
231,0.008388906
232,-0.03531399
233,-0.012352507
234,0.113501936
235,0.059790574
236,-0.07558812
237,0.039341196
238,-0.023662122
239,0.0020970085
240,0.014843556
241,-0.07992711
242,-0.20491095
243,-0.05145251
244,-0.017310224
245,-0.05345709
246,0.03339523
247,-0.00075193506
248,-0.06724616
249,0.028499836
250,-0.2207712
251,0.1030699
252,0.010508791
253,0.11602076
254,-0.036028977
255,0.017530639
256,-0.030667879
257,-0.006092175
258,0.15422525
259,0.015715018
260,-0.08004165
261,0.035712175
262,0.0015674661
263,-0.059726406
264,0.018096244
265,0.008742188
266,-0.04549266
267,0.016037915
268,0.014959987
269,-0.23620279
270,0.043607064
271,0.036716267
272,0.007257946
273,0.0059587243
274,0.01912704
275,-0.014117828
276,0.046482418
277,0.0027495755
278,0.0300358
279,0.031256206
280,-0.037412528
281,-0.0051315427
282,-0.0773248
283,0.009579955
284,-0.04133386
285,-0.18355416
286,0.015909677
287,0.010076637
288,0.09370108
289,0.051166907
290,0.006935464
291,-0.06161721
292,-0.045195807
293,0.050934486
294,-0.015083471
295,0.015971908
296,0.028363105
297,-0.0067413743
298,-0.010408213
299,0.014510015
300,0.020400915
301,-0.3004198
302,0.00822011
303,0.013445777
304,0.034143116
305,0.0012022242
306,0.022170147
307,0.0076262243
308,0.04659241
309,0.031020837
310,0.008080797
311,-0.02486644
312,0.13689327
313,-0.014166281
314,0.020281292
315,0.15529257
316,0.116537556
317,-0.039934177
318,-0.024349527
319,0.11837382
320,0.09936968
321,0.023544107
322,-0.08438629
323,0.030252468
324,0.051042136
325,0.02522636
326,0.009367952
327,0.01620164
328,0.038641587
329,0.02054377
330,-0.00480199
331,-0.070073545
332,0.16008496
333,0.038058463
334,0.06362337
335,-0.040301003
336,-0.12544541
337,0.04901206
338,0.04216624
339,0.013875284
340,-0.046977755
341,0.02578093
342,-0.25418475
343,0.075128995
344,-0.08862816
345,0.024656974
346,0.009155045
347,-0.025176825
348,0.09163419
349,0.028270097
350,-0.010866406
351,0.04885533
352,-0.18755983
353,-0.059412573
354,0.029297952
355,-0.1851281
356,-0.0035743066
357,0.020798858
358,0.038253747
359,0.054600835
360,0.018476756
361,-0.020588974
362,0.004941738
363,0.016144581
364,-0.008626692
365,0.07322385
366,-0.017940538
367,0.017184723
368,0.020629732
369,-0.05220381
370,0.085598
371,-0.24055889
372,-0.0057917205
373,-0.13933353
374,-0.32886606
375,0.14274383
376,0.054400697
377,0.02392573
378,-0.053382933
379,-0.052814897
380,-0.019371962
381,-0.25263995
382,0.09688605
383,0.027449526
384,-0.016005946
385,0.19086993
386,0.022133589
387,-0.08967542
388,-0.033811722
389,-0.08305906
390,-0.104853936
391,-0.0050053606
392,0.021771241
393,-0.07506858
394,0.014842444
395,-0.047099512
396,-0.037987538
397,0.020293636
398,-0.15611778
399,-0.080029644
400,0.022799196
401,0.0021988242
402,0.021350168
403,0.049605343
404,0.02855528
405,-0.0005090006
406,0.012243409
407,-0.025732188
408,-0.05517629
409,-0.037046757
410,0.036933668
411,0.0110123735
412,-0.1274298
413,-0.017837219
414,0.023753304
415,-0.0025567343
416,0.032697193
417,-0.08220174
418,0.007421194
419,-0.28653798
420,0.048388444
421,0.021025863
422,0.13594124
423,0.117606804
424,0.033311177
425,0.052097276
426,0.019437445
427,-0.020369336
428,0.03009311
429,0.035350826
430,0.15478578
431,0.12274028
432,0.004368819
433,-0.048811473
434,0.13261975
435,-0.021663334
436,-0.021222666
437,-0.07896525
438,-0.005691483
439,-0.044601753
440,-0.0006442509
441,-0.051505122
442,0.036466207
443,-0.016703213
444,0.0173208
445,-0.023026746
446,0.02988276
447,0.10825784
448,-0.2436631
449,0.017695192
450,0.05254641
451,0.032697838
452,0.031099753
453,0.019607918
454,0.1484232
455,0.040507644
456,0.005858501
457,0.1166085
458,-0.008538566
459,-0.0091420775
460,0.039939724
461,0.030426137
462,-0.0107468
463,0.0048398734
464,0.045789674
465,-0.021347243
466,0.0053449613
467,0.0011166465
468,0.22171755
469,0.017084958
470,-0.046314485
471,-0.022960238
472,-0.031198625
473,-0.036397412
474,0.035334393
475,0.017987646
476,0.0070986273
477,0.015866987
478,-0.0034572177
479,-0.0075021246
480,0.018538352
481,-0.008248042
482,-0.01369902
483,-0.015734347
484,0.010311132
485,-0.01617302
486,0.014554264
487,-0.024462553
488,0.01526408
489,0.0026963188
490,0.16388059
491,0.04457347
492,-0.14209722
493,0.080378994
494,-0.016611604
495,-0.03708326
496,0.0021845219
497,-0.13267949
498,-0.13995975
499,0.03560335
500,0.005297799
501,0.04069069
502,0.008264127
503,0.0022011867
504,-0.07976088
505,-0.0005071541
506,-0.27732024
507,0.041180477
508,-0.002693291
509,-0.09731064
510,0.009613178
511,0.035709582
512,0.11450147
513,0.16086206
514,0.0077875447
515,0.09186883
516,-0.0042212876
517,0.035424553
518,0.053454507
519,-0.012486269
520,-0.021390393
521,0.083834454
522,0.06065256
523,-0.06950079
524,-0.13893794
525,0.050983794
526,0.0022609604
527,0.025214825
528,-0.04309077
529,0.06739037
530,-0.052048527
531,0.118911676
532,0.03838668
533,-0.00554577
534,0.034781557
535,0.09021873
536,-0.06954632
537,-0.045330115
538,0.039299965
539,-0.0005857346
540,-0.10553658
541,0.025061795
542,-0.050378922
543,0.03931788
544,-0.026408693
545,-0.0312305
546,0.05319626
547,-0.079027645
548,0.027226957
549,0.005125126
550,0.117593095
551,0.047981527
552,-0.03766575
553,-0.05442659
554,-0.07961039
555,0.07533705
556,0.006454485
557,-0.018498573
558,0.15835793
559,0.08005119
560,-0.17297223
561,0.11040608
562,0.14758341
563,-0.008142665
564,-0.13351707
565,0.022660036
566,0.045668676
567,-0.06901968
568,0.011515729
569,0.016787976
570,0.14819308
571,-0.012514825
572,-0.00026500676
573,-0.02742428
574,-0.064840496
575,0.09060246
576,-0.074591696
577,0.08587232
578,0.111375935
579,-0.0599144
580,0.048657723
581,-0.023147952
582,0.052109696
583,-0.039809328
584,0.00052306586
585,0.033401698
586,0.036912795
587,-0.16941702
588,0.06004974
589,-0.024820328
590,-0.06566803
591,0.11243156
592,-0.023935165
593,-0.011539619
594,-0.04028674
595,-0.054242916
596,0.092476405
597,-0.044433195
598,0.023630371
599,0.09367527
600,0.07708473
601,0.018025124
602,-0.03779631
603,-0.21227701
604,-0.004958344
605,-0.038742084
606,-0.01870082
607,-0.18159854
608,0.038825914
609,-0.014819731
610,-0.18414938
611,0.046804342
612,-0.0048042606
613,0.07056632
614,-0.08399111
615,0.021707332
616,0.031697284
617,0.1280563
618,-0.018681264
619,0.07403118
620,0.047164913
621,-0.04107744
622,0.08810274
623,-0.16221745
624,-0.03721253
625,0.07696835
626,-0.023398452
627,0.023036176
628,0.048374392
629,-0.06099639
630,0.01716792
631,0.11872476
632,-0.19163382
633,-0.108711205
634,-0.110627994
635,0.16884433
636,-0.007226275
637,0.12499444
638,0.04230206
639,0.0073069036
640,-0.07275441
641,-0.061816014
642,-0.07999749
643,-0.108846724
644,-0.04974779
645,-0.0095263515
646,-0.08721963
647,0.03913851
648,-0.011131068
649,-0.08706046
650,-0.069631055
651,-0.06852299
652,-0.011864803
653,0.015049652
654,-0.0017445609
655,-0.005114143
656,-0.09967464
657,-0.009322347
658,0.019384738
659,-0.07952153
660,0.04995261
661,-0.005677636
662,0.014426392
663,0.04453663
664,0.0007884296
665,-0.08222887
666,-0.0399398
667,-0.019073801
668,0.0051103216
669,0.025181333
670,-0.0035851432
671,0.028160656
672,0.047400586
673,-0.1491061
674,0.09507373
675,0.017391011
676,0.07050536
677,0.025859844
678,-0.06033341
679,-0.012887417
680,0.015162057
681,0.048384942
682,0.010152014
683,-0.1080424
684,0.023381833
685,0.054007884
686,-0.05366851
687,-0.05269427
688,0.009729269
689,-0.10260466
690,-0.05665049
691,0.008949376
692,0.02303403
693,0.07967585
694,0.07682207
695,-0.098529235
696,-0.047836646
697,-0.05104232
698,0.018850688
699,0.005200341
700,-0.012673839
701,0.03968571
702,0.020947896
703,-0.016156144
704,0.006068587
705,-0.03845946
706,0.06233471
707,0.031074002
708,-0.020239882
709,0.0017380879
710,-0.039044272
711,0.026552452
712,0.0033272104
713,-0.02371942
714,-0.0054745805
715,0.0659463
716,-0.027299598
717,-0.0027908443
718,0.04999406
719,0.11553001
720,0.0124257775
721,-0.06524684
722,-0.072421044
723,0.022604203
724,-0.05415093
725,-0.0048598973
726,-0.06295044
727,0.035838474
728,-0.008186375
729,0.06918045
730,0.021812443
731,-0.046457537
732,0.040039722
733,0.006628246
734,-0.00657064
735,-0.06698534
736,0.033850435
737,0.03121001
738,0.017731491
739,0.040055882
740,-0.0015266803
741,-0.0008103916
742,-0.011635231
743,0.0072742677
744,0.005739862
745,-0.020271566
746,-0.04214546
747,-0.0682352
748,-0.09869566
749,0.0073420987
750,0.007384705
751,-0.001997023
752,-0.0075563337
753,-0.07260952
754,-0.0008828618
755,-0.052719716
756,0.007878333
757,0.044295724
758,0.038558822
759,-0.012848977
760,-0.072434165
761,0.00988897
762,0.010916951
763,-0.1460139
764,-0.04018098
765,0.013326611
766,0.025894457
767,0.035505448
768,-0.08515613
769,0.049486116
770,-0.07224734
771,-0.07869449
772,-0.016529722
773,-0.04086655
774,-0.08001893
775,-0.15932536
776,-0.0754169
777,-0.100177564
778,0.04171968
779,-0.042402733
780,0.038675364
781,-0.085339405
782,0.026640534
783,-0.02895656
784,-0.090220094
785,0.023806619
786,0.01210308
787,-0.059928834
788,0.034271978
789,4.4450826e-05
790,0.009344203
791,0.015350348
792,-0.004666017
793,-0.05289416
794,-0.12048029
795,-0.006394622
796,0.0046733273
797,-0.07104445
798,0.011391836
799,0.0069429222
800,0.04086349
801,-0.033082914
802,0.0481844
803,-0.0021932477
804,0.041412674
805,0.022651907
806,-0.014429373
807,-0.07140446
808,0.017635668
809,0.03474912
810,0.009494138
811,-0.1254197
812,0.025856141
813,0.02310444
814,0.023751581
815,-0.031705726
816,-0.040433493
817,-0.09035409
818,0.010183455
819,0.04488799
820,0.028757116
821,0.09305225
822,0.07406709
823,-0.059767455
824,-0.02212368
825,0.0076854285
826,-0.042783078
827,-0.06575612
828,-0.041512948
829,-0.0031114244
830,0.03748201
831,0.04107245
832,0.02032234
833,0.030715575
834,0.038711127
835,0.012193202
836,0.031744353
837,0.027804725
838,-0.024253871
839,0.028554866
840,0.0152809415
841,-0.020502735
842,0.06259633
843,-0.07276854
844,-0.10641112
845,0.046083014
846,0.12522659
847,0.05351268
848,-0.089593746
849,-0.07985373
850,-0.046401437
851,0.032669727
852,0.009831844
853,0.014070414
854,-0.11355041
855,-0.03341339
856,-0.08138952
857,-0.050785515
858,0.014901203
859,0.029319128
860,0.029399564
861,0.019486539
862,-0.0007417045
863,-0.033622522
864,0.02104713
865,-0.11002505
866,0.03047239
867,-0.037038706
868,-0.004615137
869,-0.0024694707
870,0.02380157
871,0.020384463
872,0.021942755
873,-0.008872761
874,0.0022489114
875,-0.008593564
876,-0.09994215
877,-0.0031681443
878,-0.020919811
879,0.04608839
880,0.034662813
881,-0.10276772
882,-0.09851379
883,-0.057058446
884,0.033328693
885,-0.050348073
886,-0.048485465
887,-0.024328727
888,-0.0069276607
889,0.029975208
890,-0.029486604
891,0.036251046
892,0.057906486
893,-0.039285745
894,-0.033494685
895,0.041574657
896,0.027413793
897,0.13149862
898,0.0074924864
899,-0.041083742
900,-0.032925136
901,0.073266044
902,-0.008536971
903,-0.16835983
904,0.035928063
905,-0.11005528
906,0.012033745
907,-0.060534254
908,-0.051646646
909,0.04653045
910,-0.094689496
911,0.08203852
912,-0.059666924
913,0.1525812
914,0.0074643516
915,0.05660476
916,0.020127846
917,-0.01610343
918,0.026147656
919,0.012886235
920,-0.07711964
921,-0.027111072
922,0.10728698
923,0.009319751
924,-0.03390871
925,0.009999278
926,0.0076423786
927,0.014923941
928,-0.07330667
929,-0.10831806
930,-0.13515176
931,-0.04553802
932,-0.03396218
933,0.030712033
934,-0.19434047
935,0.112010114
936,0.0073037865
937,-0.09435974
938,0.00685728
939,-0.09984757
940,0.0069724815
941,-0.060590874
942,0.06520581
943,0.022669455
944,-0.17926732
945,-0.07135569
946,0.0602646
947,-0.09772005
948,0.0035670563
949,0.008701491
950,-0.06501591
951,-0.032083463
952,0.044822555
953,-0.01258772
954,-0.17975095
955,0.0069139535
956,-0.039965004
957,-0.022921948
958,0.010223905
959,0.064562544
960,-0.062038567
961,0.16935608
962,0.0355666
963,0.01055999
964,-0.02660866
965,0.025123177
966,0.08190723
967,0.032116897
968,0.015181604
969,0.0735544
970,-0.066278264
971,-0.104842365
972,0.022752844
973,-0.004487817
974,-0.016667625
975,0.0023541315
976,0.043365374
977,-0.18004635
978,-0.042697866
979,0.0016689905
980,0.08275052
981,0.033010207
982,0.038040295
983,-0.17368238
984,-0.007073141
985,0.013245647
986,0.025027484
987,-0.016654866
988,-0.07790168
989,0.01903537
990,-0.0095079895
991,0.0153832715
992,-0.064348355
993,0.060164724
994,-0.13868044
995,0.011740848
996,-0.004938398
997,0.15726757
998,0.016100919
999,0.0031688178
1000,0.003713683
1001,-0.047505345
1002,0.0008916451
1003,0.011189598
1004,-0.083902165
1005,-0.073154025
1006,-0.07331207
1007,-0.1034837
1008,0.03014015
1009,-0.09822122
1010,0.015090128
1011,0.01502984
1012,0.016491752
1013,0.039351616
1014,-0.027051043
1015,-0.048553146
1016,0.033853047
1017,-0.00921768
1018,-0.05773566
1019,-0.0433321
1020,-0.202647
1021,0.042483192
1022,-0.07013809
1023,0.008664425
1024,-0.012301063
1025,0.010742964
1026,0.078691214
1027,-0.043349314
1028,-0.10152064
1029,0.006286142
1030,-0.066948794
1031,-0.08151201
1032,0.00014238463
1033,-0.08610129
1034,0.0050479714
1035,-0.078769475
1036,-0.006475481
1037,-0.026282694
1038,0.043783713
1039,0.004921487
1040,0.0013326663
1041,0.026991034
1042,0.00031790193
1043,0.043579858
1044,0.0075361095
1045,-0.01360547
1046,-0.0022034156
1047,0.01113247
1048,-0.10928744
1049,-0.056556057
1050,-0.013423046
1051,0.0059814933
1052,-0.098006174
1053,-0.026304655
1054,0.003419909
1055,-0.0036036416
1056,-0.013273567
1057,-0.014610455
1058,-0.01634592
1059,-0.06807156
1060,-0.06778592
1061,0.01326851
1062,-0.0226543
1063,-0.02034158
1064,0.013704721
1065,-0.036672592
1066,0.016963916
1067,-0.0711058
1068,0.019669443
1069,0.023745399
1070,0.039747614
1071,-0.022046775
1072,0.021916576
1073,-0.04646489
1074,0.042382345
1075,0.0036424263
1076,0.010359704
1077,0.029320206
1078,0.005183138
1079,-0.07554624
1080,0.03216248
1081,0.020398116
1082,0.043005135
1083,0.06558254
1084,0.015061915
1085,0.005345451
1086,0.0132639455
1087,0.08413535
1088,0.004949053
1089,0.04164028
1090,0.008620675
1091,0.010869095
1092,0.0015085095
1093,-0.0012416308
1094,0.0026518852
1095,0.02105179
1096,0.02042101
1097,-0.0105319405
1098,-0.040392753
1099,0.0746397
1100,0.09137311
1101,0.025426226
1102,0.15945892
1103,0.019621128
1104,-0.023782453
1105,-0.013193966
1106,-0.03164763
1107,0.0016091324
1108,0.002401034
1109,0.03888675
1110,-0.087983355
1111,-0.016058939
1112,0.012151609
1113,-0.008464004
1114,0.012275438
1115,0.055291355
1116,0.031109653
1117,0.0030342035
1118,0.0032080265
1119,-0.017013129
1120,-0.113143094
1121,-0.03476724
1122,-0.004947091
1123,-0.003682201
1124,0.011148962
1125,0.051539037
1126,0.020345729
1127,0.021023706
1128,0.0160931
1129,-0.024634989
1130,0.011873496
1131,-0.013458588
1132,-0.059381764
1133,0.006380207
1134,0.04451176
1135,-0.01551247
1136,-0.0005152397
1137,-0.13431735
1138,0.051247735
1139,-0.03141183
1140,0.017102696
1141,-0.027539887
1142,-0.001154358
1143,-0.025576893
1144,0.009818875
1145,0.012338394
1146,-0.07434124
1147,0.008978317
1148,0.072846584
1149,0.022885093
1150,0.049991567
1151,0.017060535
1152,-0.3954784
1153,0.10032446
1154,-0.012105679
1155,-0.08502432
1156,-0.00761182
1157,0.051616397
1158,-0.09111102
1159,-0.17633374
1160,-0.18816179
1161,-0.07902747
1162,0.067593515
1163,-0.06979731
1164,0.04279822
1165,-0.19648789
1166,0.1183113
1167,0.047061905
1168,-0.063333854
1169,0.0071372567
1170,0.0151843615
1171,0.04487668
1172,0.022217765
1173,-0.020704182
1174,0.020066416
1175,0.0052791527
1176,-0.11738608
1177,-0.06150066
1178,-0.03665884
1179,-0.010014335
1180,-0.052538846
1181,-0.15586686
1182,0.04026685
1183,-0.010518884
1184,-0.054900903
1185,-0.0024238792
1186,-0.023310367
1187,0.007568257
1188,0.02402895
1189,0.014543094
1190,0.022123352
1191,-0.05749913
1192,0.022844296
1193,-0.14278568
1194,0.04682884
1195,-0.06613031
1196,0.042706925
1197,-0.13032727
1198,0.091966674
1199,0.010951231
1200,0.0006863498
1201,-0.09038074
1202,0.09989675
1203,-0.17710087
1204,0.021667259
1205,-0.066721514
1206,-0.11525017
1207,-0.06167786
1208,-0.07761651
1209,0.14075135
1210,-0.0945373
1211,0.14312345
1212,-0.045885198
1213,-0.09508668
1214,-0.03804009
1215,-0.024450602
1216,-0.037550516
1217,-0.0043371525
1218,0.073051766
1219,0.013405353
1220,0.06651
1221,0.0370527
1222,0.04722248
1223,-0.0111291455
1224,0.05471646
1225,-0.006894297
1226,-0.022021823
1227,0.08621689
1228,-0.083874345
1229,0.02397572
1230,-0.07400422
1231,0.07538967
1232,-0.19686723
1233,-0.03270908
1234,-0.065576434
1235,0.035826992
1236,0.02329219
1237,-7.966526e-05
1238,-0.16976486
1239,-0.15829773
1240,0.019533766
1241,-0.028252242
1242,0.03698557
1243,0.08429058
1244,-0.0021057392
1245,0.031336125
1246,0.009083376
1247,-0.023637047
1248,0.0812058
1249,-0.1594719
1250,0.026563507
1251,-0.14994845
1252,0.0009797477
1253,0.06308385
1254,0.029137205
1255,0.008235472
1256,0.017408606
1257,0.12192771
1258,0.005465975
1259,-0.026331408
1260,-0.10764357
1261,-0.025641263
1262,-0.013078196
1263,0.029401628
1264,0.031169439
1265,-0.071971245
1266,0.04200183
1267,0.004052151
1268,0.075702816
1269,-0.16239773
1270,-0.19693667
1271,-0.021045303
1272,0.03908244
1273,0.041657243
1274,-0.043942347
1275,0.07656535
1276,0.115438975
1277,-0.22981273
1278,0.06552774
1279,0.028938644
1280,0.048294052
1281,-0.029220987
1282,-0.005758494
1283,-0.056762457
1284,-0.04333342
1285,0.015640115
1286,-0.033737075
1287,-0.01187554
1288,0.019192444
1289,-0.036105406
1290,-0.02080426
1291,-0.057950787
1292,0.007938122
1293,-0.011304385
1294,0.018898785
1295,0.018010018
1296,-0.029048776
1297,-0.00075378246
1298,0.013013061
1299,-0.061008822
1300,-0.010033946
1301,-0.0010550687
1302,0.008230019
1303,0.019627703
1304,0.0007136804
1305,-0.060679138
1306,-0.040223625
1307,0.00029240944
1308,0.00038126804
1309,0.045506712
1310,0.004455634
1311,-0.0154586155
1312,0.042257246
1313,0.034573745
1314,-0.06896382
1315,-0.086407706
1316,-0.055158406
1317,0.0018638929
1318,-0.013352888
1319,0.013142333
1320,0.007525203
1321,-0.15904899
1322,-0.008344762
1323,-0.0029931033
1324,0.011008901
1325,-0.02984113
1326,-0.049785983
1327,0.002255132
1328,0.02898059
1329,-0.013119432
1330,0.008594864
1331,-0.09871654
1332,0.038537048
1333,-0.03766067
1334,-0.06252495
1335,-0.06033022
1336,0.09083492
1337,0.042121243
1338,-0.01830462
1339,-0.14843175
1340,-0.05972472
1341,0.09049829
1342,-0.017183097
1343,0.07290741
1344,-0.12371145
1345,-0.02339609
1346,0.009812925
1347,0.038509283
1348,0.03898372
1349,0.009770292
1350,-0.028541923
1351,0.039427444
1352,0.03809927
1353,-0.035199545
1354,-0.05327534
1355,0.019826433
1356,0.055483237
1357,0.040376082
1358,0.046199977
1359,-0.0120570725
1360,-0.0010860818
1361,-0.006272936
1362,-0.03185166
1363,0.008996441
1364,-0.052306544
1365,0.00232319
1366,0.06861033
1367,-0.118578345
1368,-0.04057328
1369,0.069591746
1370,0.011696892
1371,-0.10011644
1372,0.049060285
1373,-0.0067212237
1374,-0.0063982215
1375,-0.08757724
1376,-0.005830958
1377,-0.015232832
1378,0.022455497
1379,0.03272467
1380,0.0008585789
1381,-0.009024345
1382,0.04218395
1383,0.03400226
1384,0.0063211937
1385,-0.046192214
1386,-0.033838615
1387,-0.017087415
1388,-0.05611085
1389,-0.009540562
1390,-0.038073536
1391,0.014750142
1392,0.06099316
1393,-0.011200255
1394,-0.12221749
1395,-0.029313171
1396,0.030820701
1397,-0.007954971
1398,0.011566754
1399,0.04113785
1400,-0.044283282
1401,0.016632361
1402,-0.05639399
1403,-0.004746914
1404,-0.054190755
1405,-0.23197272
1406,0.015911875
1407,0.0060145417
1408,-0.042938247
1409,-0.041065894
1410,-0.036526795
1411,-0.06609941
1412,-0.03281716
1413,0.017027283
1414,-0.047276586
1415,0.031823497
1416,-0.008634223
1417,-0.09420132
1418,-0.03152297
1419,-0.10738664
1420,-0.08664601
1421,-0.01588854
1422,0.04852219
1423,-0.013172196
1424,-0.10028679
1425,0.097740754
1426,0.0036496096
1427,-0.060004015
1428,0.01590662
1429,-0.019759247
1430,0.024392739
1431,0.000576188
1432,0.016697902
1433,-0.12920006
1434,-0.05686241
1435,-0.0060342406
1436,-0.0014103337
1437,0.038502
1438,-0.00218358
1439,0.030438663
1440,-0.076357625
1441,-0.07309155
1442,-0.010245744
1443,0.0036297413
1444,-0.040768985
1445,0.0079433005
1446,-0.16174366
1447,-0.036796477
1448,-0.0046323515
1449,-0.0355428
1450,0.03814104
1451,-0.065161526
1452,-0.0029418743
1453,-0.028304888
1454,-0.079325944
1455,-0.022027394
1456,-0.043770846
1457,-0.07916674
1458,-0.051382836
1459,-0.026925085
1460,0.04111726
1461,0.021001741
1462,-0.096783586
1463,-0.08043187
1464,-0.0070928284
1465,0.014110433
1466,-0.09145779
1467,-0.09357681
1468,-0.06210864
1469,0.04879645
1470,-0.001817209
1471,-0.02606014
1472,-0.08800183
1473,0.049907424
1474,0.02422718
1475,0.001047693
1476,0.0060725585
1477,0.0030105491
1478,-0.02169018
1479,0.0016487355
1480,0.016140018
1481,-0.0047478606
1482,0.025369937
1483,0.034426264
1484,0.029042928
1485,-0.0022476863
1486,-0.048155528
1487,0.010616882
1488,-0.08241508
1489,-0.031580918
1490,-0.10671394
1491,0.011887246
1492,0.0012274155
1493,0.02284429
1494,0.023252128
1495,-0.07135962
1496,-0.10674255
1497,0.07712397
1498,0.017625112
1499,-0.11147727
1500,-0.062388185
1501,0.010200878
1502,-0.0118117975
1503,-0.073527426
1504,-0.021676673
1505,0.04119576
1506,-0.09948638
1507,0.03450783
1508,0.013980759
1509,0.05031239
1510,0.016705733
1511,-0.018699033
1512,0.0032289969
1513,-0.13270317
1514,-0.08561293
1515,-0.11352809
1516,-0.055881597
1517,-0.012944963
1518,-0.20437
1519,-0.08497356
1520,0.01544424
1521,-0.08217304
1522,-0.07911902
1523,-0.022832647
1524,-0.00017799147
1525,-0.13690077
1526,-0.04359314
1527,-0.08343906
1528,-0.07447706
1529,-0.0019584112
1530,0.010978797
1531,-0.25317153
1532,-0.043873314
1533,-0.06898996
1534,-0.096470475
1535,0.03157378
1536,0.022172779
1537,-0.058018763
1538,-0.091146365
1539,-0.2130527
1540,0.0024877258
1541,-0.03180504
1542,-0.19999139
1543,-0.07967596
1544,0.012379682
1545,-0.16422752
1546,6.9937116e-05
1547,-0.13787003
1548,-0.0076111504
1549,-0.38323715
1550,0.081144325
1551,-0.02171762
1552,-0.14158969
1553,0.041947346
1554,0.0035900357
1555,-0.05458486
1556,0.002534275
1557,0.001617672
1558,0.006552664
1559,0.015077765
1560,-0.18480748
1561,-0.13022377
1562,-0.03161198
1563,-0.008570516
1564,-0.078297675
1565,-0.31438747
1566,-0.009090251
1567,-0.00730347
1568,0.03708656
1569,0.05151918
1570,-0.089547776
1571,-0.1435519
1572,-0.20671934
1573,-0.016988574
1574,0.011883244
1575,-0.04915314
1576,-0.00046470464
1577,-0.04433051
1578,0.06946472
1579,-0.1375622
1580,0.01754299
1581,-0.3988911
1582,-0.12833907
1583,-0.006395191
1584,-0.058839474
1585,-0.14494467
1586,-0.092731245
1587,-0.08231097
1588,0.015913695
1589,-0.09940906
1590,-0.058717426
1591,-0.15156013
1592,0.03614187
1593,0.026570747
1594,-0.0053823073
1595,-0.060331166
1596,-0.046833508
1597,-0.17252128
1598,-0.008709676
1599,-0.13223788
1600,-0.08591895
1601,0.019525843
1602,0.008094517
1603,0.06200364
1604,0.0486172
1605,-0.008402764
1606,0.010782844
1607,0.040907517
1608,0.07474777
1609,0.026187997
1610,-0.04108248
1611,-0.08531762
1612,-0.21096992
1613,0.0707538
1614,0.016954113
1615,0.002561009
1616,-0.12466736
1617,0.01866845
1618,-0.11353071
1619,0.008538026
1620,-0.023706168
1621,0.03076194
1622,-0.35204017
1623,0.04402955
1624,0.008304739
1625,0.08212568
1626,0.03535023
1627,-0.110975325
1628,0.068347864
1629,0.0057053007
1630,-0.0061461106
1631,-0.017711245
1632,-0.09225134
1633,-0.2283806
1634,-0.008667078
1635,-0.2935591
1636,-0.0025326754
1637,-0.02657798
1638,0.07677825
1639,0.01770224
1640,-0.046238575
1641,-0.03899539
1642,0.12730458
1643,-0.080603786
1644,-0.18882795
1645,0.040347416
1646,-0.10344128
1647,0.019066999
1648,0.063437745
1649,-0.17558616
1650,0.0011893499
1651,-0.033410322
1652,0.026036134
1653,-0.16986528
1654,-0.4669937
1655,0.04862179
1656,0.013861823
1657,0.028419916
1658,-0.067018844
1659,0.012324788
1660,0.01779386
1661,-0.2546333
1662,0.05471622
1663,-0.005999132
1664,-0.031295657
1665,-0.0059528924
1666,-0.04517055
1667,0.020984434
1668,-0.031755492
1669,-0.057615943
1670,0.03529039
1671,-0.040531226
1672,-0.013005629
1673,0.008340302
1674,0.029756939
1675,-0.0076319543
1676,0.047790356
1677,-0.012755175
1678,0.016005348
1679,-0.04397255
1680,-0.026988827
1681,0.025130259
1682,-0.019074433
1683,0.05420138
1684,-0.004661379
1685,9.265599e-05
1686,-0.00866881
1687,-0.008990849
1688,-0.0020723105
1689,-0.027758833
1690,0.009931919
1691,0.005916831
1692,0.013498261
1693,-0.038878653
1694,0.00040696276
1695,-0.013698509
1696,-0.014655063
1697,0.058922343
1698,-0.07691015
1699,-0.07188043
1700,-0.087980226
1701,0.013263179
1702,-0.024878735
1703,-0.015637372
1704,0.010193053
1705,0.009425568
1706,0.060446057
1707,-0.011829784
1708,-0.005450119
1709,0.0016495069
1710,0.025881631
1711,-0.009788372
1712,0.048142124
1713,0.0053256243
1714,-0.0033956424
1715,-0.06029674
1716,0.008177728
1717,-0.050936792
1718,0.0054252106
1719,-0.04303593
1720,-0.034893848
1721,0.017845903
1722,-0.044805307
1723,-0.028472465
1724,-0.03379234
1725,0.006412014
1726,-0.03749475
1727,0.031049607
1728,-0.057142314
1729,0.025408095
1730,-0.020139052
1731,-0.015886052
1732,0.08184602
1733,-0.0008354924
1734,0.044290125
1735,0.0582715
1736,0.040612377
1737,-0.015253678
1738,0.033341523
1739,-0.004866445
1740,0.08279069
1741,0.06330045
1742,-0.049246654
1743,-0.07984309
1744,0.0029588293
1745,0.030556738
1746,-0.018961567
1747,-0.019130623
1748,0.031979382
1749,0.20340219
1750,-0.055598427
1751,-0.02783214
1752,-0.005130384
1753,0.057544485
1754,0.05721767
1755,0.015757246
1756,-0.017062824
1757,-0.010544425
1758,0.004394753
1759,0.045552272
1760,0.024013398
1761,-0.015009641
1762,0.045726582
1763,-0.05341298
1764,-0.005737095
1765,-0.015741576
1766,0.01920169
1767,0.04690391
1768,0.04003236
1769,-0.014748224
1770,0.06958158
1771,0.023603464
1772,0.015984172
1773,-0.026119566
1774,-0.026553053
1775,0.029610133
1776,0.056470897
1777,0.030077154
1778,-0.009141054
1779,0.08772244
1780,0.05622814
1781,0.01986169
1782,0.02227201
1783,-0.010771089
1784,-0.08202721
1785,0.017991763
1786,-0.054374434
1787,0.014006816
1788,0.035735924
1789,-0.19777638
1790,0.0021651043
1791,0.0022425645
1792,-0.13617006
1793,-0.06950165
1794,0.017797168
1795,-0.09160184
1796,-0.044377353
1797,-0.010647774
1798,-0.10415386
1799,0.10963515
1800,0.010427159
1801,-0.047374636
1802,0.005766395
1803,-0.09070422
1804,0.08514181
1805,0.026479501
1806,0.074656285
1807,-0.03497788
1808,-0.033815484
1809,-0.035018772
1810,0.025150906
1811,-0.12195486
1812,-0.00011381424
1813,-0.005963884
1814,0.013230075
1815,-0.011224419
1816,0.10758584
1817,-0.07383022
1818,-0.19048727
1819,0.0044430513
1820,0.014141416
1821,0.048576206
1822,0.024807919
1823,0.0075870473
1824,-0.04636083
1825,-0.034473576
1826,-0.02925446
1827,-0.077587664
1828,0.044575255
1829,-0.014663105
1830,-4.618347e-05
1831,-0.031908505
1832,0.024987211
1833,0.006353189
1834,0.011978404
1835,-0.08962397
1836,0.01524928
1837,0.02144586
1838,-0.10571025
1839,-0.03348335
1840,0.033737864
1841,-0.054773092
1842,-0.06703925
1843,-0.078102015
1844,0.03918429
1845,-0.0482397
1846,-0.0011544947
1847,-0.09877644
1848,0.021118924
1849,0.07348016
1850,-0.15607153
1851,-0.003238702
1852,0.023263048
1853,0.092090674
1854,0.024273582
1855,0.007722436
1856,-0.013389244
1857,-0.036187798
1858,0.00090979994
1859,0.025030654
1860,0.0036466497
1861,0.0124913175
1862,-0.08330501
1863,0.008677634
1864,0.023047058
1865,-0.026874509
1866,-0.08393757
1867,0.08926945
1868,0.010035259
1869,0.051007412
1870,0.053526867
1871,0.043482337
1872,-0.091980375
1873,-0.0296681
1874,-0.05724405
1875,0.015417876
1876,-0.051830918
1877,-0.028032722
1878,-0.020337038
1879,-0.1250267
1880,-0.063446835
1881,0.017298996
1882,-0.028827142
1883,-0.03241522
1884,8.388896e-05
1885,0.012852291
1886,-0.0101913875
1887,-0.02816626
1888,-0.09612763
1889,0.013905668
1890,0.062404774
1891,0.032565605
1892,-0.0120485
1893,-0.06960473
1894,0.027037442
1895,-0.002238871
1896,0.073391385
1897,-0.0057111043
1898,-0.029252
1899,0.017864503
1900,-0.08917323
1901,0.006576115
1902,-0.009162871
1903,0.080378205
1904,0.001367086
1905,-0.10107758
1906,-0.10260117
1907,-0.16947877
1908,0.020909734
1909,-0.11001847
1910,0.025562081
1911,0.010237486
1912,-0.0491688
1913,0.012867794
1914,-0.06414282
1915,-0.0063366946
1916,0.024106683
1917,-0.1173579
1918,-0.017897127
1919,0.0054033524
1920,-0.11508957
1921,0.077042446
1922,-0.045636952
1923,-0.072475046
1924,0.003632009
1925,0.11758582
1926,-0.06983418
1927,-0.007845857
1928,-0.11912952
1929,-0.06823308
1930,0.051904265
1931,-0.004670486
1932,-0.0046484484
1933,0.0055822157
1934,0.10403809
1935,0.11057779
1936,0.0072008376
1937,-0.012143017
1938,0.0043541277
1939,0.12496317
1940,-0.005803735
1941,0.0015148559
1942,0.012152776
1943,-0.0010201012
1944,-0.056654453
1945,-0.035886932
1946,0.053880814
1947,0.00187059
1948,-0.09367155
1949,-0.013211142
1950,-0.00010661317
1951,-0.0037173207
1952,-0.03115082
1953,0.0059864824
1954,-0.037505135
1955,-0.068257466
1956,0.013667003
1957,0.0012563708
1958,0.025085233
1959,0.075700626
1960,0.016603949
1961,-0.049522717
1962,0.027043246
1963,-0.057631776
1964,0.002883888
1965,-0.112067595
1966,0.15972608
1967,0.05408647
1968,0.0050599724
1969,-0.084303156
1970,0.13157232
1971,-0.013633764
1972,0.033360694
1973,-0.12813859
1974,-0.056897853
1975,-0.0146116875
1976,-0.10722457
1977,0.09361798
1978,0.021022335
1979,0.034828518
1980,0.057420366
1981,-0.049548544
1982,0.011540108
1983,0.06928265
1984,-0.0735216
1985,-0.0045437436
1986,0.05220551
1987,0.01309195
1988,0.041340858
1989,0.024021998
1990,0.05851295
1991,0.005976092
1992,0.01839036
1993,0.041554652
1994,-0.040692717
1995,-0.123555504
1996,0.04511538
1997,0.007393525
1998,-0.18563889
1999,-0.024034757
2000,-0.03599711
2001,-0.065396264
2002,-0.013487084
2003,0.014349417
2004,0.04481956
2005,-0.021315379
2006,0.069517136
2007,0.0012591063
2008,0.028725104
2009,-0.040431693
2010,0.00707866
2011,-0.1888433
2012,0.027419612
2013,0.011868022
2014,0.004712674
2015,-0.15357436
2016,0.038474265
2017,-0.015487626
2018,-0.0058560055
2019,-0.010803729
2020,-0.0007094744
2021,0.062581345
2022,0.025376342
2023,0.016364936
2024,0.011965978
2025,0.057468675
2026,-0.014692556
2027,0.045458477
2028,-0.092769235
2029,-0.00037854532
2030,-0.02363842
2031,-0.010171758
2032,0.007721545
2033,-0.11575992
2034,-0.0053232233
2035,0.021949353
2036,0.059679084
2037,-0.049888153
2038,-0.07976096
2039,0.07629028
2040,-0.055495087
2041,0.026463637
2042,-0.05601915
2043,0.029177383
2044,-0.00089677656
2045,-0.24762954
2046,0.111742854
2047,0.008224289
2048,0.02321694
2049,-0.04578393
2050,-0.03024136
2051,0.0072879074
2052,-0.03421517
2053,-0.027653057
2054,-0.0177029
2055,-0.10107265
2056,-0.02550241
2057,-0.0119053265
2058,-0.016402295
2059,-0.05749211
2060,0.019950649
2061,-0.025991391
2062,0.029725427
2063,-0.027715242
2064,-0.069240205
2065,4.8713948e-05
2066,-0.012061287
2067,-0.017057301
2068,0.023964975
2069,-0.008443178
2070,0.006685882
2071,0.028347297
2072,0.045589592
2073,-0.056965902
2074,0.0060497536
2075,0.0159933
2076,0.0660007
2077,0.010605177
2078,-0.018806927
2079,0.005688143
2080,0.049916547
2081,-0.055350337
2082,0.06104782
2083,0.04133509
2084,0.06654081
2085,0.017924372
2086,-0.03423284
2087,-0.04662595
2088,-0.016404497
2089,0.013258636
2090,0.028200801
2091,0.014619548
2092,0.006793188
2093,-0.0052226726
2094,0.0015601816
2095,0.009479256
2096,0.020403724
2097,0.029350806
2098,-0.0010294261
2099,0.059733037
2100,-0.02859481
2101,0.124647856
2102,0.046716753
2103,-0.048269685
2104,0.049813084
2105,0.012408436
2106,0.015996272
2107,-0.14697605
2108,0.0027930813
2109,0.0017711193
2110,-0.025142519
2111,0.005050122
2112,0.05731667
2113,0.018646426
2114,0.07065257
2115,0.0009628138
2116,0.011533711
2117,-0.010693791
2118,-0.03504441
2119,0.021950925
2120,0.0078057745
2121,-0.015961403
2122,0.04015544
2123,-0.17124866
2124,0.03801734
2125,-0.012167697
2126,0.023859182
2127,0.09364308
2128,-0.049957097
2129,-0.010302086
2130,-0.07974941
2131,-0.017963085
2132,-0.03409733
2133,0.032793358
2134,0.016173843
2135,0.00848414
2136,0.014039681
2137,0.009322032
2138,0.025592323
2139,-0.06425923
2140,0.025429616
2141,-0.0062577347
2142,-0.009558921
2143,-0.10388811
2144,0.061323427
2145,-0.040477157
2146,0.04312877
2147,0.007939827
2148,-0.0040241093
2149,0.007836887
2150,-0.0059976815
2151,-0.04017887
2152,-0.022587799
2153,-0.0032639266
2154,0.027827045
2155,0.044517767
2156,-0.002663936
2157,-0.14278148
2158,-0.017038185
2159,0.016458547
2160,0.0012656533
2161,-0.013597501
2162,-0.20319828
2163,-0.024039155
2164,-0.019530972
2165,-0.0022994357
2166,-0.0114219645
2167,0.018858315
2168,-0.058769036
2169,0.005269881
2170,0.05355419
2171,-0.008831523
2172,-0.025982598
2173,-0.038993865
2174,0.032304995
2175,0.026047597
2176,-0.06712852
2177,-0.0857698
2178,-0.060240828
2179,-0.13687763
2180,-0.090205565
2181,0.008839038
2182,-0.14810756
2183,0.03020324
2184,-0.017720088
2185,-0.16181551
2186,-0.07211404
2187,-0.15960503
2188,-0.015005689
2189,-0.037242506
2190,0.08506474
2191,0.02698316
2192,-0.15774289
2193,-0.036754236
2194,0.034662306
2195,-0.10309367
2196,0.018573718
2197,-0.014899549
2198,0.035868086
2199,0.045019902
2200,0.009149964
2201,-0.18345045
2202,-0.058490008
2203,-0.016356276
2204,-0.0035163146
2205,0.02196013
2206,0.024860263
2207,0.017840298
2208,-0.07016702
2209,-0.06565887
2210,0.06372211
2211,0.029756667
2212,0.04325538
2213,0.03383449
2214,-0.06821848
2215,-0.078949444
2216,0.020909144
2217,-0.052217025
2218,0.016885798
2219,-0.12712799
2220,0.0025963583
2221,-0.04870792
2222,-0.08066819
2223,-0.08593367
2224,0.0013492423
2225,-0.09130523
2226,-0.06608394
2227,-0.10360638
2228,0.009709579
2229,0.07977032
2230,-0.04139192
2231,-0.18565333
2232,0.022403754
2233,0.030897023
2234,-0.15330084
2235,-0.03224664
2236,0.008478616
2237,0.04968701
2238,-0.0015348066
2239,-0.11104881
2240,0.057964377
2241,-0.021981861
2242,0.03613296
2243,0.026271079
2244,-0.00984002
2245,0.029292826
2246,-0.041274764
2247,0.022128917
2248,0.030961534
2249,-0.023304388
2250,-0.0042350446
2251,0.07033973
2252,-0.23742075
2253,0.010260634
2254,0.017412575
2255,0.036947824
2256,-0.09902704
2257,-0.014202419
2258,-0.18380626
2259,0.01803823
2260,-0.066564284
2261,0.012786171
2262,-0.015293326
2263,-0.15750752
2264,-0.039318483
2265,0.05949374
2266,0.03269817
2267,-0.27769762
2268,-0.01885198
2269,0.02432358
2270,-3.9539013e-06
2271,-0.07225857
2272,-0.02294819
2273,0.017478945
2274,0.023086194
2275,0.02812698
2276,0.0025293205
2277,0.038652614
2278,-0.0051859417
2279,0.018097572
2280,0.030707248
2281,-0.037859928
2282,-0.12709653
2283,-0.062007032
2284,-0.12011397
2285,-0.035843436
2286,-0.1302222
2287,0.025028449
2288,0.018980084
2289,-0.1551656
2290,-0.017477069
2291,-0.10813818
2292,-0.016453026
2293,-0.11733906
2294,-0.041365698
2295,-0.042416085
2296,-0.059360303
2297,0.026348013
2298,0.012401218
2299,-0.07634436
2300,0.042902205
2301,-0.056652393
2302,-0.019378275
2303,0.029448614
2304,0.066365145
2305,0.050217018
2306,0.0012562886
2307,0.0025626991
2308,-0.0056458483
2309,0.024658963
2310,0.03286794
2311,-0.056720573
2312,0.05423591
2313,0.042239033
2314,0.026611807
2315,-0.089109994
2316,-0.051740833
2317,-0.087353766
2318,-0.06219505
2319,0.02338868
2320,-0.056193955
2321,-0.03557737
2322,0.050312515
2323,0.04832507
2324,0.022089254
2325,-0.009467729
2326,0.014680994
2327,-0.0024721595
2328,-0.013642466
2329,-0.08126244
2330,0.036066353
2331,-0.0224204
2332,-0.01209789
2333,-0.027907632
2334,0.032197364
2335,-0.0067899665
2336,-0.009525206
2337,0.027763428
2338,0.024116954
2339,-0.13434154
2340,0.008124769
2341,0.021768712
2342,0.18140322
2343,0.018940039
2344,0.017969625
2345,-0.11089752
2346,0.030004997
2347,-0.008371646
2348,0.01697154
2349,-0.107076496
2350,0.060234
2351,0.047082182
2352,0.05054912
2353,0.020798782
2354,0.060493845
2355,-0.1520511
2356,-0.0060232324
2357,0.12448624
2358,-0.091886245
2359,-0.06746318
2360,0.07583884
2361,-0.025114194
2362,-0.048254717
2363,0.0013213891
2364,-0.026699442
2365,-0.028555162
2366,0.01999446
2367,-0.014117708
2368,-0.1698055
2369,-0.012639614
2370,0.047107946
2371,0.038778666
2372,0.036723763
2373,0.026472377
2374,0.011090761
2375,0.019575294
2376,0.030027762
2377,0.15539022
2378,-0.028390998
2379,-0.046612397
2380,-0.10062756
2381,0.017203337
2382,0.07406026
2383,0.0496718
2384,-0.17202553
2385,0.05807979
2386,-0.04324104
2387,0.01709939
2388,0.072607346
2389,-0.10398558
2390,-0.031806197
2391,-0.1493698
2392,0.03899313
2393,-0.053714037
2394,0.0068466323
2395,-0.17350122
2396,-0.004164697
2397,0.023391625
2398,-0.0044923536
2399,-0.11369462
2400,-0.026512159
2401,-0.043349314
2402,-0.04325692
2403,-0.025847703
2404,-0.008865445
2405,0.00016339846
2406,0.018227967
2407,0.005288906
2408,0.014138893
2409,0.13577971
2410,0.08316991
2411,0.11554933
2412,0.009310704
2413,0.033489082
2414,-0.11512854
2415,-0.055909827
2416,0.02196573
2417,0.019539863
2418,-0.015022737
2419,-0.027131867
2420,0.038134295
2421,-0.11393799
2422,-0.08326448
2423,0.056683376
2424,-0.0008749875
2425,0.03222981
2426,-0.14005946
2427,0.05168271
2428,0.075177304
2429,-0.0005461619
2430,-0.0066007967
2431,0.02921669
2432,-0.032905746
2433,-0.006416438
2434,-0.017914005
2435,-0.17976342
2436,-0.020815892
2437,-0.0116277775
2438,-0.13448782
2439,0.06510867
2440,0.01473544
2441,-0.16779137
2442,0.006147091
2443,-0.09333182
2444,-0.012768855
2445,-0.04208807
2446,-0.048475448
2447,0.016292691
2448,-0.14112729
2449,-0.02349325
2450,0.027729293
2451,-0.029476283
2452,0.071855046
2453,0.0015035447
2454,0.047894854
2455,0.08000888
2456,-0.027200282
2457,-0.1000582
2458,-0.0057334225
2459,0.0019959074
2460,0.017838283
2461,-0.14541045
2462,-0.023724455
2463,0.054380875
2464,0.051494293
2465,-0.057535455
2466,0.06451445
2467,0.03565048
2468,0.023160798
2469,0.05386442
2470,-0.076771855
2471,-0.052564055
2472,0.0072228657
2473,-0.027146647
2474,0.043677114
2475,-0.07868847
2476,0.026771244
2477,-0.04225672
2478,0.008807807
2479,-0.099913895
2480,0.037824865
2481,-0.18331797
2482,-0.0331578
2483,-0.031736415
2484,0.0071504675
2485,0.023926115
2486,0.015767
2487,-0.0953386
2488,-0.039998278
2489,-0.0020850177
2490,-0.06282875
2491,0.0020129038
2492,-0.020483788
2493,-0.052214578
2494,-0.058713518
2495,0.0045913337
2496,0.059922315
2497,-0.03709313
2498,0.11305481
2499,0.04714731
2500,-0.0024596755
2501,0.0072754184
2502,0.055151463
2503,0.0857929
2504,0.037410367
2505,-0.07583693
2506,0.01522535
2507,0.00822007
2508,-0.122854896
2509,0.028043944
2510,-0.031626705
2511,0.070323214
2512,-0.128674
2513,0.0013997289
2514,-0.09405701
2515,-0.012290733
2516,-0.033380393
2517,0.10825181
2518,-0.12670904
2519,-0.12408885
2520,-0.021358829
2521,0.08076092
2522,0.07107433
2523,-0.16558088
2524,0.043748114
2525,0.04086935
2526,-0.011813735
2527,-0.11413221
2528,-0.030761467
2529,-0.02131239
2530,-0.0058864662
2531,-0.10117608
2532,-0.015200557
2533,0.058531318
2534,0.0031215586
2535,0.026608882
2536,-0.013370551
2537,-0.004592666
2538,0.026716731
2539,-0.116005756
2540,-0.17170392
2541,-0.04764206
2542,-0.045071416
2543,0.009537561
2544,0.03262179
2545,-0.13402456
2546,0.011458101
2547,-0.060664862
2548,0.0049441014
2549,-0.0757955
2550,-0.0521871
2551,-0.039759405
2552,-0.102937505
2553,0.022074353
2554,0.021539599
2555,-0.011391765
2556,0.017100256
2557,-0.3879654
2558,0.0068775997
2559,0.0589511
2560,0.00088875147
2561,-0.044811632
2562,-0.0119137755
2563,-0.087831244
2564,-0.092988744
2565,-0.017256416
2566,-0.08318361
2567,0.018624723
2568,-0.060570367
2569,-0.11523984
2570,-0.038945436
2571,-0.126818
2572,0.039903685
2573,0.03538149
2574,-0.026846813
2575,1.3103992e-05
2576,-0.23429078
2577,-0.03824703
2578,0.011740571
2579,-0.05815083
2580,0.0068962662
2581,-0.013632094
2582,0.016529713
2583,0.031302147
2584,0.016810492
2585,-0.12137285
2586,-0.1247998
2587,0.0050790277
2588,0.051385015
2589,0.054885883
2590,0.026120646
2591,0.006477662
2592,-0.120714456
2593,-0.012729271
2594,0.027915133
2595,0.012367912
2596,0.053002022
2597,0.010464062
2598,-0.19330174
2599,-0.074057765
2600,0.01522104
2601,-0.036987145
2602,0.03430376
2603,-0.12595469
2604,0.019645227
2605,0.009571333
2606,-0.019621566
2607,-0.06744465
2608,0.036611445
2609,-0.11462176
2610,-0.034892812
2611,-0.015324093
2612,0.015040449
2613,0.030818976
2614,-0.008547117
2615,-0.0873141
2616,0.022703638
2617,0.032644987
2618,-0.05831003
2619,-0.024222309
2620,-0.042173326
2621,0.029732436
2622,0.07626228
2623,-0.03741357
2624,-0.009344366
2625,-0.035873227
2626,0.06300065
2627,0.0019292947
2628,0.017071683
2629,0.021448111
2630,-0.07071264
2631,0.008842658
2632,-0.0013035622
2633,-0.048010275
2634,0.008600465
2635,0.0142035475
2636,-0.021082727
2637,0.022337014
2638,-0.06381201
2639,0.04589566
2640,-0.10687821
2641,-0.02678628
2642,-0.1599135
2643,0.023720458
2644,-0.05008662
2645,0.031513024
2646,0.009700682
2647,-0.061642453
2648,-0.08671538
2649,0.06514394
2650,0.016564276
2651,-0.07495322
2652,-0.105167925
2653,0.018489026
2654,-0.016097592
2655,-0.120260336
2656,0.045101527
2657,0.054494806
2658,0.061174523
2659,0.042293344
2660,0.0011305864
2661,-0.028691716
2662,0.04917964
2663,-0.008537765
2664,0.003967971
2665,-0.026767772
2666,-0.034842484
2667,0.02097706
2668,-0.13627607
2669,-0.02237439
2670,-0.05991229
2671,0.037871063
2672,0.017794907
2673,-0.10652219
2674,-0.0056882133
2675,-0.08642988
2676,0.01773735
2677,-0.17395157
2678,0.025474727
2679,-0.013777458
2680,-0.074529566
2681,0.009759652
2682,0.030602202
2683,-0.01989776
2684,-0.042018678
2685,0.06261828
2686,-0.04557015
2687,0.012083747
2688,-0.008258775
2689,-0.03899842
2690,-0.08747954
2691,-0.011887008
2692,-0.063582145
2693,0.0083258655
2694,0.018984163
2695,-0.009174664
2696,-0.008663595
2697,-0.11241448
2698,0.039679635
2699,-0.11590734
2700,0.0336658
2701,0.046236206
2702,0.014801561
2703,-0.014806091
2704,-0.09399569
2705,-0.022467447
2706,-0.007386086
2707,-0.048675735
2708,0.009865852
2709,-0.0013879533
2710,0.01312338
2711,0.002664138
2712,0.010721872
2713,-0.123556204
2714,-0.10084183
2715,-0.00096228096
2716,0.0013788446
2717,0.033784717
2718,0.011584951
2719,0.023069259
2720,-0.114201404
2721,-0.07831146
2722,0.07620556
2723,-0.04484542
2724,0.00061914924
2725,0.023462616
2726,-0.011073594
2727,-0.03185113
2728,-0.0017985628
2729,0.044241227
2730,0.011653494
2731,-0.10915818
2732,0.010264629
2733,0.074253224
2734,-0.055679753
2735,-0.034245737
2736,0.018311914
2737,0.027871815
2738,-0.11637801
2739,-0.23480536
2740,0.0098342635
2741,-0.010781977
2742,0.023082955
2743,-0.11606848
2744,-0.044020068
2745,-0.03225317
2746,-0.15991677
2747,-0.01881934
2748,0.020111417
2749,0.043906134
2750,-0.044712983
2751,-0.059892848
2752,-0.033953346
2753,-0.07670317
2754,-0.05049383
2755,-0.003316762
2756,-0.018303914
2757,0.013175533
2758,-0.003478686
2759,0.03159578
2760,0.015107053
2761,-0.026788576
2762,0.03361504
2763,-0.011317612
2764,-0.008083024
2765,0.008607369
2766,0.050895344
2767,-0.07791703
2768,-0.050875675
2769,0.005604986
2770,-0.10741537
2771,9.326537e-05
2772,0.025116617
2773,0.0317492
2774,0.08012729
2775,-0.14074937
2776,-0.10736956
2777,-0.13726681
2778,-0.007336738
2779,-0.20199431
2780,-0.06734531
2781,-0.0027032762
2782,-0.00793369
2783,-0.00565583
2784,0.001493541
2785,0.06660701
2786,0.03844252
2787,0.0424212
2788,0.015915595
2789,-0.009618259
2790,0.015706265
2791,0.016483393
2792,-0.051169183
2793,-0.03363997
2794,-0.04800355
2795,-0.027406882
2796,0.0128375925
2797,-0.013632759
2798,-0.09299378
2799,0.024814015
2800,0.023384193
2801,-0.089370266
2802,-0.009156628
2803,-0.12025405
2804,-0.012169292
2805,0.0013771524
2806,0.04242165
2807,-0.047302466
2808,-0.051758178
2809,0.030961689
2810,-0.06950758
2811,0.114617474
2812,-0.19348514
2813,-0.054486368
2814,-0.08830976
2815,0.011232771
2816,0.023274384
2817,0.02124929
2818,-0.13578604
2819,-0.061381884
2820,-0.10137111
2821,0.04078056
2822,-0.07158081
2823,-0.046757106
2824,-0.0007614646
2825,-0.056846846
2826,-0.0153477285
2827,-0.08420864
2828,0.019235566
2829,-0.056539934
2830,0.030048894
2831,-0.00033761
2832,-0.16064616
2833,0.05258733
2834,0.013346583
2835,-0.040494308
2836,0.038743824
2837,0.004045457
2838,0.051515106
2839,0.031067934
2840,0.010449415
2841,-0.06506638
2842,-0.0012100037
2843,-0.009928089
2844,-0.007104341
2845,0.025595717
2846,0.011271737
2847,0.051604472
2848,-0.06905331
2849,-0.08210968
2850,0.035442304
2851,-0.059609484
2852,0.056679685
2853,0.047688365
2854,-0.08869893
2855,-0.038862713
2856,0.015237305
2857,0.09784675
2858,0.013957171
2859,-0.04849829
2860,0.015919091
2861,-0.105131745
2862,-0.042593464
2863,-0.018915199
2864,0.026053583
2865,-0.07917379
2866,0.012546139
2867,-0.06828547
2868,0.014008123
2869,0.07653638
2870,0.018144583
2871,-0.04928885
2872,-0.17251676
2873,0.011813638
2874,-0.05027552
2875,-0.044523627
2876,0.012830799
2877,-0.08470846
2878,0.023410935
2879,-0.041629132
2880,-0.09803448
2881,0.043411527
2882,0.041712448
2883,0.012203258
2884,0.025281124
2885,0.03875175
2886,-0.0122928815
2887,0.008129181
2888,0.010566357
2889,-0.010277273
2890,-0.07376286
2891,-0.038013894
2892,-0.058289073
2893,0.034662183
2894,-0.004083582
2895,0.06698038
2896,-0.120529905
2897,-0.07817401
2898,-0.089782186
2899,0.01814276
2900,-0.0020474524
2901,0.037133507
2902,-0.0074853622
2903,-0.037235286
2904,-0.016277261
2905,0.039409794
2906,-0.015582836
2907,-0.0968511
2908,-0.07931565
2909,0.011432496
2910,-0.010738126
2911,-0.09828748
2912,0.039377764
2913,-0.04062659
2914,0.032558788
2915,0.01456317
2916,0.01279025
2917,0.025605533
2918,0.023336738
2919,0.023525974
2920,0.051293645
2921,0.00028056168
2922,-0.087285414
2923,0.01613464
2924,-0.052217126
2925,-0.024568254
2926,-0.06641194
2927,0.028248956
2928,0.027513921
2929,-0.05748168
2930,-0.10303927
2931,-0.04352224
2932,0.045116425
2933,-0.13832763
2934,-0.08939608
2935,-0.012977345
2936,-0.061425816
2937,0.015402532
2938,-0.0021373397
2939,-0.00026774203
2940,-0.032250755
2941,-0.062039394
2942,-0.0017895816
2943,0.033731546
2944,-0.1757497
2945,0.047354303
2946,-0.13500684
2947,-0.11151484
2948,-0.06745348
2949,-0.12506923
2950,-0.097427174
2951,0.051637094
2952,0.033328593
2953,-0.08142005
2954,0.03600963
2955,-0.03911535
2956,0.060333528
2957,0.026059598
2958,-0.041210447
2959,-0.14611004
2960,-0.035924334
2961,0.06545295
2962,0.042181194
2963,-0.06579403
2964,0.019771194
2965,-0.011092664
2966,2.8718743e-05
2967,0.019707989
2968,0.04559373
2969,-0.06798249
2970,-0.15060277
2971,0.0042923773
2972,-0.0108734565
2973,0.02794229
2974,0.040350363
2975,0.018478723
2976,-0.038679544
2977,-0.05729471
2978,0.002195345
2979,-0.06548534
2980,0.0072642686
2981,0.007356724
2982,-0.10204764
2983,-0.008882939
2984,0.03187894
2985,0.06393211
2986,0.046138946
2987,-0.06478974
2988,0.044531696
2989,-0.0045092427
2990,-0.08258025
2991,0.02616348
2992,-0.011593537
2993,-0.04335207
2994,-0.084163226
2995,-0.06505113
2996,0.03644952
2997,-0.020742046
2998,-0.14819044
2999,-0.055625793
3000,-0.041615147
3001,0.10400425
3002,-0.18023257
3003,-0.0040834397
3004,-0.06438604
3005,0.029995596
3006,0.028201537
3007,0.03291823
3008,-0.032308046
3009,0.09128117
3010,-0.037645295
3011,0.01330656
3012,0.0031240862
3013,0.02881531
3014,-0.07835444
3015,0.035319135
3016,0.0117558325
3017,0.04657885
3018,-0.14578761
3019,0.03581469
3020,-0.0703382
3021,0.10161207
3022,0.118229054
3023,0.012065434
3024,-0.03165424
3025,0.011720062
3026,-0.048674054
3027,0.03276
3028,0.06475082
3029,-0.013804257
3030,-0.005598573
3031,-0.17545186
3032,-0.017971747
3033,0.0019236993
3034,-0.024938744
3035,-0.04979142
3036,-0.013313284
3037,0.034831356
3038,-0.018575812
3039,-0.02376553
3040,-0.10402532
3041,-0.031540982
3042,0.021753564
3043,0.05320506
3044,0.0063201585
3045,-0.092128016
3046,0.07556658
3047,0.00913045
3048,-0.010753434
3049,-0.13070881
3050,0.1632309
3051,-0.07054382
3052,-0.12346915
3053,0.0028038574
3054,-0.032462522
3055,0.052249067
3056,0.03547014
3057,-0.08224503
3058,-0.0105206175
3059,-0.13076942
3060,-0.0039278003
3061,-0.04803596
3062,0.020679612
3063,-0.19706364
3064,-0.010711046
3065,0.0023188686
3066,-0.06559379
3067,0.072099775
3068,-0.0031400325
3069,-0.08694555
3070,-0.080963895
3071,0.005847201
3072,0.03345808
3073,-0.06324682
3074,-0.023447625
3075,-0.029457485
3076,-0.066600606
3077,0.04166051
3078,-0.043568674
3079,-0.028209837
3080,-0.036010407
3081,-0.032976095
3082,-0.057481647
3083,-0.12169556
3084,-0.15867141
3085,0.04710531
3086,0.022320367
3087,0.016322702
3088,-0.091784716
3089,-0.09238049
3090,-0.004400369
3091,0.020787306
3092,0.0020102889
3093,-0.012409986
3094,-0.008498739
3095,-0.008330348
3096,-0.06809107
3097,-0.070094146
3098,0.0024963447
3099,-0.004852298
3100,-0.02025634
3101,0.014278879
3102,-0.009194342
3103,0.0020777558
3104,-0.12851033
3105,-0.09660517
3106,0.00023119223
3107,-0.054079227
3108,0.023028998
3109,-0.0008782714
3110,0.06200024
3111,-0.0113323685
3112,-0.018655391
3113,0.007405239
3114,-0.012909273
3115,-0.055336744
3116,-0.015710289
3117,0.05917565
3118,0.010849587
3119,-0.022699125
3120,-0.07551835
3121,-0.09372745
3122,0.00044435053
3123,-0.009334722
3124,-0.0077562653
3125,0.050808303
3126,0.03773773
3127,-0.060967974
3128,0.015948752
3129,-0.092749275
3130,0.045759812
3131,0.045934394
3132,0.0068964204
3133,0.025657436
3134,-0.024490617
3135,0.0063661756
3136,-0.038203295
3137,-0.05076075
3138,-0.032833837
3139,0.010557628
3140,-0.016093355
3141,-0.0074646957
3142,0.019237302
3143,0.0018438542
3144,-0.0056419307
3145,-0.0034013882
3146,0.03385851
3147,-0.045986343
3148,0.07790102
3149,-0.031634554
3150,0.032655284
3151,-0.037964225
3152,-0.014033267
3153,-0.051034987
3154,-0.09188062
3155,-0.010033947
3156,-0.015974244
3157,-0.01926709
3158,0.027673516
3159,0.04267524
3160,-0.017117279
3161,-0.034741264
3162,-0.008057549
3163,-0.026223764
3164,-0.0611956
3165,0.014469166
3166,-0.01585382
3167,-0.13855472
3168,0.06895998
3169,0.05411467
3170,-0.07128523
3171,0.020995261
3172,-0.012928079
3173,-0.025277775
3174,-0.029708734
3175,-0.00058075367
3176,-0.019826578
3177,0.048728976
3178,-0.02436846
3179,0.06260742
3180,-0.086333685
3181,0.06354447
3182,0.0017828732
3183,-0.21160616
3184,-0.0125453705
3185,-0.04537817
3186,0.07266843
3187,0.0014348567
3188,-0.044681143
3189,0.0042616515
3190,0.057683744
3191,0.096787594
3192,-0.06593244
3193,0.0019064075
3194,-0.058291446
3195,-0.056147963
3196,-0.103225335
3197,0.072090134
3198,0.019000482
3199,0.010072334
3200,0.027467664
3201,-0.07913004
3202,-0.050931748
3203,-0.091636375
3204,-0.04975147
3205,0.009154818
3206,-0.100591935
3207,-0.0017948665
3208,0.016522659
3209,-0.08335267
3210,0.0070666573
3211,-0.07207354
3212,-0.0024117448
3213,0.009028316
3214,0.020052074
3215,0.0037651665
3216,-0.07877638
3217,-0.024718951
3218,-0.013000306
3219,-0.0764368
3220,0.022028025
3221,0.0047518285
3222,0.031244632
3223,0.031524274
3224,-0.024399268
3225,-0.09202887
3226,-0.061205972
3227,-0.010280395
3228,0.01480632
3229,0.022297885
3230,-0.014048691
3231,0.0109033
3232,-0.10710699
3233,-0.09350283
3234,0.07200148
3235,0.00010207346
3236,0.04530183
3237,0.001651504
3238,-0.104483835
3239,-0.06384346
3240,-0.004984382
3241,-0.009329448
3242,0.011524714
3243,-0.06756692
3244,-0.0149780195
3245,-0.025048437
3246,-0.039756216
3247,-0.051120337
3248,0.015126269
3249,-0.058333855
3250,-0.029288271
3251,-0.13366793
3252,-0.028372671
3253,0.050917093
3254,-0.061474074
3255,-0.09547997
3256,-0.034222238
3257,0.04412879
3258,-0.09171917
3259,-0.06813578
3260,-0.043336604
3261,0.036419056
3262,-0.04524955
3263,-0.010140632
3264,-0.010075306
3265,-0.041636284
3266,0.017273284
3267,0.008117062
3268,-0.022036158
3269,-0.009475374
3270,-0.028726142
3271,0.019088518
3272,0.0075220917
3273,-0.05866296
3274,-0.011211988
3275,0.019941315
3276,-0.049416803
3277,0.020750724
3278,0.034244772
3279,0.0113878595
3280,-0.06528311
3281,0.0023526195
3282,-0.07216108
3283,0.0053489753
3284,-0.048018698
3285,0.049655512
3286,0.02815671
3287,-0.14681439
3288,-0.04523309
3289,0.056194946
3290,0.026455894
3291,-0.19444647
3292,-0.11078272
3293,0.0010297566
3294,0.0010754577
3295,-0.08274708
3296,-0.006721879
3297,0.029411485
3298,0.048834547
3299,0.03474593
3300,-0.001095073
3301,-0.0007513542
3302,0.0030886005
3303,0.0012077382
3304,-0.0109358365
3305,-0.038085822
3306,-0.05326512
3307,-0.0041767927
3308,-0.0864057
3309,-0.041079987
3310,-0.13658561
3311,0.042673863
3312,-0.005878996
3313,-0.09717256
3314,-0.014020142
3315,-0.092022516
3316,-0.011573797
3317,-0.037897024
3318,-0.00041277832
3319,-0.096107006
3320,-0.04468901
3321,0.013837762
3322,-0.0014418763
3323,-0.014180037
3324,-0.00081094354
3325,-0.00380132
3326,-0.042636514
3327,0.01031486
3328,-0.16845869
3329,-0.025056744
3330,-0.008423915
3331,0.30110222
3332,-0.09846924
3333,0.03579163
3334,0.27193296
3335,-0.064977445
3336,-0.15760994
3337,0.28974763
3338,-0.0757233
3339,0.2835416
3340,-0.32757187
3341,0.10962143
3342,-0.2735193
3343,0.057548657
3344,0.28049073
3345,-0.15513892
3346,0.17650288
3347,0.15759327
3348,0.14198871
3349,0.009402406
3350,0.1895157
3351,0.10614579
3352,-0.20307663
3353,0.30333936
3354,0.22585163
3355,0.0074042254
3356,-0.18959592
3357,-0.11189432
3358,0.043275908
3359,0.1545435
3360,0.1580172
3361,0.13499554
3362,0.052721422
3363,-0.31991246
3364,-0.012246304
3365,0.17269468
3366,0.30806735
3367,0.117570534
3368,0.18402658
3369,-0.09201043
3370,-0.19851178
3371,0.2934739
3372,0.10016216
3373,-0.06451036
3374,0.20475097
3375,0.08174971
3376,-0.24801254
3377,0.28791377
3378,0.17066216
3379,-0.14828095
3380,-0.09117523
3381,-0.17211048
3382,-0.012283005
3383,0.29669902
3384,0.046992615
3385,-0.17866145
3386,0.07349127
3387,-0.33695588
3388,-0.07031397
3389,-0.008023301
3390,0.18059862
3391,0.21387848
3392,0.109234065
3393,-0.14664178
3394,0.056874342
3395,0.193851
3396,-0.057020336
3397,0.10518042
3398,0.1008803
3399,-0.18050134
3400,-0.08705012
3401,0.07489405
3402,0.0012084871
3403,-0.050182447
3404,-0.006033399
3405,-0.1436078
3406,-0.022317674
3407,-0.018987484
3408,0.062205575
3409,-0.039641928
3410,0.29657832
3411,0.063984856
3412,-0.034214698
3413,-0.22965884
3414,-0.0779447
3415,0.050210055
3416,-0.050021645
3417,0.025902305
3418,0.033934206
3419,0.2497145
3420,0.16574399
3421,0.19728504
3422,-0.005195534
3423,0.29275736
3424,-0.14244524
3425,0.1187303
3426,-0.36396325
3427,-0.16454558
3428,-0.0024606062
3429,-0.06670917
3430,-0.11245232
3431,-0.110286534
3432,0.01385734
3433,0.055118665
3434,0.19389656
3435,0.094439425
3436,0.2795049
3437,0.11235974
3438,0.16705334
3439,-0.3681582
3440,-0.1499215
3441,0.29985675
3442,-0.30670992
3443,-0.110514365
3444,-0.12863411
3445,-0.047287278
3446,0.01427316
3447,0.0915773
3448,0.19369581
3449,-0.07572717
3450,-0.2915484
3451,0.04458576
3452,0.03476045
3453,0.07582283
3454,0.05784796
3455,0.12588027
3456,-0.027629843
3457,-0.036293216
3458,-0.04168564
3459,-0.05111436
3460,-0.009237751
3461,-0.011943066
3462,-0.024304893
3463,0.015675025
3464,-0.05542524
3465,-0.043159235
3466,0.016240204
3467,-0.038027056
3468,0.04182817
3469,-0.029853983
3470,0.05291856
3471,-0.0124192005
3472,-0.035579097
3473,0.003238212
3474,0.011381955
3475,-0.047039688
3476,0.024883192
3477,-0.0031407098
3478,-0.0061481446
3479,0.0010470602
3480,0.02224882
3481,-0.07609351
3482,-0.105604574
3483,0.005939005
3484,0.061765768
3485,0.025155656
3486,0.0031652583
3487,-0.0007908089
3488,-0.16246682
3489,0.050136622
3490,-0.07043957
3491,-0.06214672
3492,-0.039756227
3493,0.0031547558
3494,-0.039745305
3495,-0.0069021448
3496,0.015285024
3497,-0.22586513
3498,0.013011814
3499,-0.08101271
3500,0.0072915414
3501,-0.018010678
3502,-0.00752824
3503,-0.026878467
3504,0.044119887
3505,-0.09509977
3506,-0.044330075
3507,-0.0767662
3508,0.00076362
3509,0.017198134
3510,-0.036037736
3511,-0.053204823
3512,0.057777077
3513,0.025389217
3514,-0.052645214
3515,-0.2203276
3516,-0.064578414
3517,0.045543514
3518,0.0014508076
3519,-0.075862676
3520,-0.030800093
3521,-0.034209687
3522,0.01700781
3523,-0.0028002793
3524,0.0107331155
3525,0.002363746
3526,-0.015776373
3527,0.03443807
3528,0.033491448
3529,-0.017711991
3530,-0.03493039
3531,0.029816188
3532,-0.0051512322
3533,0.007695248
3534,0.017385194
3535,-0.025434118
3536,0.012168977
3537,-0.0138081
3538,-0.027863167
3539,0.0014890649
3540,0.007994346
3541,0.06461778
3542,0.063405134
3543,-0.12570353
3544,-0.107582994
3545,0.08344592
3546,0.03186165
3547,-0.098593734
3548,-0.047601577
3549,0.008226322
3550,0.004891376
3551,-0.10877366
3552,-0.0075887907
3553,0.028025458
3554,0.04327693
3555,0.022372326
3556,0.0040504728
3557,0.03179524
3558,0.027382994
3559,0.029370721
3560,0.01541308
3561,-0.0015205687
3562,-0.11232898
3563,-0.060725205
3564,-0.07996905
3565,-0.011400388
3566,-0.03917424
3567,0.040227473
3568,0.015951188
3569,-0.050432947
3570,-0.256848
3571,-0.033957012
3572,0.027180782
3573,0.022667905
3574,-0.0058407006
3575,-0.06086457
3576,-0.04217938
3577,0.027285319
3578,-0.03363076
3579,-0.012625891
3580,-0.0201763
3581,-0.010492603
3582,-0.069494456
3583,0.020255907
3584,0.029367363
3585,-0.10395859
3586,0.03473834
3587,-0.17939992
3588,0.0122244535
3589,0.14216824
3590,-0.20499255
3591,-0.029118491
3592,0.10009648
3593,-0.09665699
3594,-0.06535521
3595,-0.110063806
3596,-0.20529908
3597,0.09616571
3598,-0.057461213
3599,0.14702123
3600,-0.117341936
3601,-0.18080162
3602,0.0032384833
3603,0.08234822
3604,0.025495308
3605,0.009440584
3606,0.028586539
3607,0.011494038
3608,-0.06603055
3609,-0.12504119
3610,-0.08803206
3611,-1.2223256e-05
3612,-0.18836118
3613,0.012407039
3614,0.009169445
3615,0.033890337
3616,-0.0365637
3617,-0.134635
3618,-0.08787326
3619,-0.2692208
3620,0.051147766
3621,0.02590742
3622,0.15675092
3623,-0.00027371856
3624,0.0089415815
3625,-0.10045373
3626,-0.032272458
3627,-0.14719856
3628,0.029652394
3629,0.1192011
3630,0.10390915
3631,0.07738305
3632,-0.1831858
3633,-0.11693088
3634,0.033188924
3635,-0.099457204
3636,-0.006370351
3637,-0.0046612835
3638,0.095034234
3639,-0.12364749
3640,-0.021134643
3641,-0.19713338
3642,0.014582882
3643,0.0432471
3644,-0.088720165
3645,0.045313943
3646,0.052122176
3647,-0.025074234
3648,-0.21192852
3649,-0.123842776
3650,-0.013138156
3651,0.03101467
3652,-0.029654993
3653,0.021556396
3654,0.054333616
3655,-0.02668701
3656,-0.025873424
3657,0.14686146
3658,0.02792273
3659,0.019767644
3660,-0.029580368
3661,-0.029270887
3662,0.029620444
3663,-0.014272414
3664,-0.07751245
3665,0.026078027
3666,-0.11311456
3667,0.0058890022
3668,-0.15262465
3669,-0.2636303
3670,0.07960111
3671,0.049134746
3672,-0.13801555
3673,-0.040209632
3674,0.01287102
3675,0.011648859
3676,-0.018456934
3677,0.026377378
3678,-0.0012349985
3679,-0.07018222
3680,0.04856736
3681,0.037126828
3682,-0.25000632
3683,0.009650666
3684,-0.0005425525
3685,0.05219334
3686,-0.027686175
3687,-0.013838748
3688,0.037435506
3689,0.07278004
3690,-0.036427554
3691,0.0564332
3692,-0.17232716
3693,0.01586906
3694,0.056168243
3695,-0.23841178
3696,-0.038655177
3697,-0.11516694
3698,0.086625904
3699,-0.06197946
3700,-0.0046716426
3701,-0.08280497
3702,0.11969687
3703,0.035571408
3704,-0.07455801
3705,-0.010002444
3706,-0.23281313
3707,-0.07578533
3708,0.004993079
3709,0.113321975
3710,0.018311633
3711,0.018218627
3712,-0.39837167
3713,0.07605414
3714,-0.082614124
3715,-0.089136824
3716,0.0030461734
3717,0.04257446
3718,-0.067664534
3719,-0.22445041
3720,-0.17529806
3721,-0.09921037
3722,0.051781084
3723,-0.11132269
3724,0.044716824
3725,-0.23982848
3726,0.16834903
3727,0.03489786
3728,-0.08382189
3729,0.04711504
3730,0.03291917
3731,0.07247235
3732,0.03270708
3733,0.014734323
3734,0.023544991
3735,0.029144252
3736,-0.13104081
3737,-0.1117498
3738,-0.06781311
3739,-0.0051130224
3740,-0.029247692
3741,-0.2024848
3742,0.024414562
3743,0.01937982
3744,-0.15457554
3745,0.0021674987
3746,0.03842455
3747,-0.06696147
3748,-0.013946348
3749,0.02718695
3750,0.0077473246
3751,-0.029677909
3752,0.028007133
3753,-0.094485514
3754,0.043712728
3755,-0.08170579
3756,0.030480346
3757,-0.15250577
3758,0.10431098
3759,0.013195476
3760,-0.08272934
3761,-0.056631766
3762,0.1053787
3763,0.075177625
3764,0.032938134
3765,-0.08910117
3766,-0.09290295
3767,-0.091277204
3768,-0.08984376
3769,0.19574949
3770,0.0032076398
3771,0.04626812
3772,-0.034469977
3773,-0.13265014
3774,-0.009418949
3775,0.007934719
3776,-0.054553863
3777,0.06324178
3778,0.0503656
3779,0.0029132657
3780,0.05810653
3781,0.018521857
3782,0.038976345
3783,0.032564476
3784,0.039983336
3785,0.026009029
3786,-0.026542246
3787,0.046756394
3788,-0.04644885
3789,0.04116567
3790,-0.032873638
3791,0.054475076
3792,0.026708558
3793,-0.00993318
3794,-0.05396089
3795,0.009615326
3796,0.03392283
3797,-0.0014527753
3798,-0.2227514
3799,0.015211328
3800,0.033118416
3801,-0.12522165
3802,0.027603606
3803,0.076382846
3804,-0.060585298
3805,0.033041365
3806,-0.012380939
3807,-0.022273812
3808,-0.03707012
3809,-0.1183818
3810,0.010307642
3811,-0.1719159
3812,0.0089838
3813,0.0430854
3814,0.042074434
3815,0.036993798
3816,-0.0029988883
3817,0.032561023
3818,-0.027046004
3819,-0.012064261
3820,-0.049959026
3821,0.0010299815
3822,0.016667673
3823,0.024922835
3824,0.0248766
3825,-0.12083489
3826,-0.048779123
3827,-0.0031225272
3828,0.057211656
3829,0.028566878
3830,-0.2462096
3831,-0.01606964
3832,0.036775365
3833,0.055354334
3834,-0.0937784
3835,0.080612026
3836,0.09942987
3837,-0.1443947
3838,0.049443573
3839,0.029995672
3840,-0.03530635
3841,0.025041426
3842,-0.0033992236
3843,0.025496997
3844,-0.05171225
3845,-0.027557192
3846,0.021785473
3847,-0.015865467
3848,-0.04252004
3849,0.056794323
3850,0.038575962
3851,0.066393845
3852,-0.10930901
3853,0.14022003
3854,0.036245044
3855,-0.007639229
3856,0.08614928
3857,0.102648
3858,0.079469316
3859,0.107625246
3860,-0.07064289
3861,-0.0076197456
3862,-0.0035004588
3863,-0.21847582
3864,-0.06810269
3865,0.04752992
3866,0.14002421
3867,-0.008040946
3868,-0.16512254
3869,-0.0027628292
3870,0.050894074
3871,-0.07587937
3872,-0.028534941
3873,0.025382511
3874,-0.18966976
3875,0.0052212016
3876,-0.09528452
3877,-0.043670427
3878,0.009102953
3879,-0.050284225
3880,0.055268582
3881,0.049660172
3882,0.036740962
3883,0.019087985
3884,0.0362345
3885,0.1690925
3886,0.022892872
3887,0.020255694
3888,-0.17673947
3889,-0.016760971
3890,0.030554838
3891,-0.098111846
3892,0.025131522
3893,-0.08005216
3894,0.04346465
3895,0.08214194
3896,0.042588297
3897,0.030414166
3898,-0.1272365
3899,0.114938505
3900,0.025452236
3901,0.005261489
3902,-0.019193158
3903,-0.002567916
3904,-0.054175753
3905,0.15370338
3906,-0.120491385
3907,0.047842175
3908,0.062105082
3909,0.07501779
3910,0.07477811
3911,0.018626753
3912,0.051103987
3913,-0.0294082
3914,-0.07684283
3915,0.047435697
3916,0.04718355
3917,0.02352652
3918,0.14015676
3919,-0.036619928
3920,-0.22431238
3921,0.12929398
3922,0.0669963
3923,0.07576657
3924,0.01359454
3925,-0.063640974
3926,-0.0126986485
3927,-0.08812878
3928,0.18471116
3929,-0.033866156
3930,0.02661853
3931,0.03199695
3932,0.0052160206
3933,0.04215122
3934,0.0012305786
3935,0.040048093
3936,0.02348157
3937,0.052127443
3938,-0.10906396
3939,-0.028984038
3940,0.0132609205
3941,-0.008630422
3942,0.054988883
3943,0.016329246
3944,0.03345465
3945,-0.010543825
3946,0.051792428
3947,-0.0013781639
3948,0.007344702
3949,0.04179634
3950,-0.09050645
3951,-0.13592428
3952,0.018614532
3953,0.044742446
3954,0.11239317
3955,0.061844025
3956,0.038051266
3957,0.03650695
3958,0.1337584
3959,0.030930448
3960,-0.04879812
3961,0.032840695
3962,-0.01765644
3963,0.0024196706
3964,0.07407347
3965,0.12982363
3966,0.03135142
3967,-0.03162308
3968,0.031371724
3969,-0.064049736
3970,-0.0632814
3971,-0.072876744
3972,-0.031795908
3973,-0.04376783
3974,-0.10146008
3975,0.006483118
3976,-0.027641723
3977,-0.08050367
3978,0.041316923
3979,-0.11040011
3980,0.01836148
3981,-0.040100895
3982,0.0084749535
3983,-0.029375173
3984,-0.08612742
3985,-0.043471165
3986,0.02003683
3987,-0.017634543
3988,0.025119465
3989,-0.009467491
3990,0.014048362
3991,-0.011509859
3992,-0.0065942286
3993,-0.12131218
3994,-0.07908882
3995,0.004851917
3996,-0.050798193
3997,0.01838346
3998,0.012591502
3999,-0.027950294
4000,-0.0948068
4001,-0.027136235
4002,-0.34527946
4003,-0.16442959
4004,-0.024216954
4005,0.006825823
4006,-0.0021577578
4007,-0.076709524
4008,0.031044323
4009,-0.042873662
4010,0.038284767
4011,-0.09899283
4012,0.038336515
4013,-0.015048861
4014,-0.04515598
4015,-0.0028096202
4016,-0.02204457
4017,-0.049734958
4018,-0.04697969
4019,-0.21922645
4020,0.027161513
4021,0.018747402
4022,-0.12635784
4023,-0.07023133
4024,0.095555566
4025,0.03286791
4026,-0.14461677
4027,-0.07655793
4028,-0.005367261
4029,0.053618267
4030,0.03633747
4031,-0.03551686
4032,-0.16670741
4033,-0.0075716623
4034,0.09027294
4035,0.023603048
4036,0.0281024
4037,0.026431724
4038,-0.039769705
4039,0.008492701
4040,0.016583716
4041,-0.009209757
4042,0.015367944
4043,0.019278565
4044,0.044507045
4045,-0.029364172
4046,0.08259578
4047,-0.028227925
4048,-0.07116104
4049,0.0805825
4050,-0.09352566
4051,0.029845543
4052,-0.019460592
4053,0.01579401
4054,-0.03639372
4055,-0.1511888
4056,0.029365608
4057,0.048361924
4058,0.031088104
4059,-0.10780873
4060,-0.042393636
4061,0.007932088
4062,-0.0009103367
4063,-0.05615166
4064,-0.113352366
4065,0.00013153121
4066,0.012690378
4067,-0.004188434
4068,-0.0075040716
4069,-0.05079396
4070,0.02162798
4071,-0.023039097
4072,-0.03536469
4073,-0.025930801
4074,-0.0046761995
4075,0.012221015
4076,-0.07555615
4077,-0.019913994
4078,-0.10543968
4079,0.012193491
4080,0.017352128
4081,-0.1058335
4082,-0.051891446
4083,-0.04525785
4084,-0.04228272
4085,-0.07992734
4086,-0.058680467
4087,0.017412765
4088,-0.038117714
4089,0.012963078
4090,-0.07656744
4091,0.072156176
4092,0.017870419
4093,-0.09814459
4094,0.021581858
4095,0.009273465
4096,-0.10184516
4097,0.009599167
4098,-0.013200025
4099,-0.14064899
4100,0.00046877764
4101,0.078047365
4102,-0.15852545
4103,-0.21831396
4104,-0.012710235
4105,-0.15258421
4106,-0.055117153
4107,-0.014840784
4108,-0.010457782
4109,-0.055801738
4110,-0.0027703792
4111,0.07069453
4112,-0.019549107
4113,-0.026999408
4114,-0.0032676545
4115,0.005134117
4116,0.0074578184
4117,-0.00023784803
4118,0.023977194
4119,0.031978592
4120,0.00027758296
4121,-0.038674843
4122,0.022424808
4123,-0.008565698
4124,0.034333993
4125,-0.2058729
4126,0.00711094
4127,0.025201526
4128,-0.04613362
4129,-0.06831913
4130,0.104219675
4131,-0.19628593
4132,0.0045117973
4133,0.023036314
4134,0.038202714
4135,-0.034579758
4136,0.00021755473
4137,-0.1723445
4138,-0.010132904
4139,-0.08520266
4140,0.015690286
4141,-0.06589279
4142,0.042771593
4143,0.010785301
4144,-0.070291646
4145,-0.17793736
4146,0.05656913
4147,-0.17074515
4148,0.029564809
4149,-0.0040234174
4150,-0.06699883
4151,-0.0130931735
4152,-0.04618405
4153,-0.01579151
4154,0.013646362
4155,-0.21109103
4156,0.013048291
4157,-0.08671368
4158,0.011705721
4159,0.05140563
4160,-0.18337269
4161,-0.048859026
4162,0.023485549
4163,-0.0042252727
4164,0.011899778
4165,0.017195465
4166,0.0053435354
4167,-0.006397802
4168,-0.0064155245
4169,0.018581843
4170,-0.06445584
4171,-0.083710656
4172,-0.020896202
4173,-0.009547795
4174,-0.08653444
4175,0.005204718
4176,-0.02507702
4177,-0.109419964
4178,-0.055839688
4179,0.0017933507
4180,-0.07074634
4181,-0.0032973841
4182,-0.1751977
4183,-0.047851175
4184,-0.054368477
4185,-0.025380716
4186,-0.008241376
4187,-0.07404854
4188,0.016362512
4189,0.0019145815
4190,-0.0047197756
4191,-0.14670895
4192,-0.051845215
4193,-0.020335913
4194,-0.018551843
4195,-0.21710047
4196,-0.00798735
4197,0.020458689
4198,0.012653598
4199,0.01741116
4200,0.065732315
4201,0.014356121
4202,-0.102270015
4203,0.06612997
4204,-0.2013098
4205,-0.012980032
4206,0.041306227
4207,-0.03920207
4208,0.0005422516
4209,-0.1951112
4210,-0.24509563
4211,-0.015465336
4212,0.02753453
4213,-0.03973796
4214,-0.052210566
4215,0.07831541
4216,-0.18372945
4217,0.008038326
4218,-0.17320867
4219,-0.09965345
4220,-0.08782454
4221,-0.12247845
4222,0.080377266
4223,0.017181031
4224,-0.10179739
4225,-0.022890598
4226,-0.112279326
4227,-0.06624472
4228,-0.029385906
4229,0.0416777
4230,-0.061770797
4231,0.032767758
4232,0.0019044916
4233,-0.16497381
4234,0.03320132
4235,-0.16486536
4236,0.009909859
4237,0.021517634
4238,0.049288087
4239,0.021865431
4240,-0.15692869
4241,-0.043214418
4242,-0.0065662647
4243,-0.10566221
4244,-0.0020456603
4245,0.0032370086
4246,0.02852212
4247,0.002955857
4248,0.01681733
4249,-0.14994924
4250,-0.0690979
4251,-0.003168154
4252,-0.010947273
4253,0.048944846
4254,0.0137240095
4255,0.019365022
4256,-0.052330505
4257,-0.07929484
4258,0.01905617
4259,-0.0022902242
4260,-0.035018492
4261,0.024779543
4262,0.0015557497
4263,-0.06428203
4264,-0.0072680917
4265,-0.012898744
4266,0.007380692
4267,-0.17342454
4268,0.0091259135
4269,-0.060536087
4270,-0.07375185
4271,-0.008285689
4272,-0.011244579
4273,-0.056336496
4274,-0.054985527
4275,-0.13017547
4276,0.021607313
4277,-0.040952455
4278,-0.22135782
4279,-0.118321836
4280,-0.10035696
4281,0.024629487
4282,-0.10920897
4283,-0.036170654
4284,0.032728862
4285,0.060655557
4286,0.0033162853
4287,-0.2082167
4288,-0.054565836
4289,-0.07536776
4290,-0.019196775
4291,-0.0035755623
4292,-0.036015857
4293,0.015949732
4294,0.004347631
4295,-0.0059640654
4296,0.015086546
4297,0.0245485
4298,-0.0081240395
4299,0.06251897
4300,-0.018609805
4301,0.0004996563
4302,0.012883631
4303,-0.07250154
4304,-0.13827688
4305,-0.12706718
4306,-0.1749159
4307,0.01945224
4308,-0.0029988685
4309,-0.0342096
4310,0.008533351
4311,-0.08911339
4312,-0.17760344
4313,-0.03213669
4314,-0.020120539
4315,-0.17087382
4316,-0.07134358
4317,0.008337375
4318,-0.015716286
4319,-0.07307251
4320,-0.11101837
4321,0.048401628
4322,0.01970239
4323,0.05415398
4324,-0.005037667
4325,0.008369525
4326,0.0041163256
4327,0.014277056
4328,-0.046133827
4329,-0.020680366
4330,-0.12083693
4331,0.012378738
4332,-0.09449438
4333,0.013060412
4334,-0.107190795
4335,0.026151218
4336,0.0014303074
4337,-0.17038266
4338,-0.0399204
4339,-0.050418988
4340,-0.0018791817
4341,-0.15252966
4342,-0.044843975
4343,0.044877756
4344,-0.073604405
4345,0.033022884
4346,-0.06259177
4347,0.027546892
4348,-0.05829911
4349,-0.057822973
4350,-0.03406448
4351,0.008337844
4352,-0.17284283
4353,0.06907477
4354,0.014348185
4355,-0.070175424
4356,0.017032605
4357,0.07814855
4358,-0.14897965
4359,-0.21110135
4360,-0.033783793
4361,-0.057868235
4362,0.07496191
4363,-0.057763245
4364,0.03113803
4365,-0.20885627
4366,0.1740821
4367,0.04776906
4368,-0.04004981
4369,0.037998542
4370,-0.0022981516
4371,0.08616714
4372,0.027663074
4373,-0.00881552
4374,0.006679339
4375,0.022059146
4376,-0.054599926
4377,-0.060432658
4378,0.0063015167
4379,0.002372431
4380,0.013370143
4381,-0.389835
4382,0.015057095
4383,0.021997815
4384,-0.12037315
4385,-0.02907588
4386,0.08398989
4387,-0.07721689
4388,0.0037015923
4389,-0.004091847
4390,-0.005900876
4391,-0.042745102
4392,0.0011451383
4393,-0.04019442
4394,0.00885404
4395,-0.079539314
4396,0.0013497603
4397,-0.3179641
4398,0.1462553
4399,0.037114114
4400,-0.06799754
4401,-0.06056299
4402,0.12321696
4403,-0.09947404
4404,0.025285812
4405,-0.06879971
4406,-0.026731608
4407,-0.06394457
4408,-0.12223485
4409,0.21224843
4410,-0.046165127
4411,0.02081775
4412,-0.0007661197
4413,-0.3319501
4414,-0.015989045
4415,-0.13443093
4416,-0.04519026
4417,0.047011033
4418,0.031201558
4419,0.0019028307
4420,0.05475172
4421,0.009790603
4422,0.029550117
4423,-0.0027358893
4424,0.043047745
4425,0.034797844
4426,-0.0148362825
4427,-0.20655023
4428,-0.038594484
4429,0.0016179117
4430,-0.07775852
4431,-0.01396423
4432,-0.03674993
4433,-0.054694265
4434,-0.0460188
4435,0.008797055
4436,0.0283414
4437,-0.0017844235
4438,-0.22532415
4439,-0.015358782
4440,0.056763392
4441,-0.07976723
4442,0.048315752
4443,-0.09443093
4444,-0.0098470645
4445,0.014027244
4446,-0.0061670383
4447,-0.15059459
4448,-0.006076418
4449,-0.07538294
4450,-0.028201977
4451,-0.3738005
4452,-0.010252146
4453,0.05594726
4454,0.035959296
4455,0.0089263
4456,0.0021144603
4457,0.04043686
4458,-0.08022464
4459,-0.037659712
4460,-0.12561183
4461,-0.02822904
4462,-0.0015852173
4463,-0.014470495
4464,0.039697055
4465,-0.12279044
4466,0.006030992
4467,0.011666702
4468,0.054591134
4469,-0.014341536
4470,-0.33565333
4471,-0.009838271
4472,0.0022050089
4473,0.04592059
4474,-0.06352003
4475,0.037502933
4476,0.08213451
4477,-0.13930431
4478,0.079465955
4479,0.0070810826
4480,-0.005168537
4481,-0.084459044
4482,-0.078948095
4483,-0.034386795
4484,-0.047762726
4485,-0.02539768
4486,-0.07333992
4487,0.025608895
4488,-0.06289379
4489,-0.05793574
4490,0.008003986
4491,-0.08627867
4492,0.0660094
4493,-0.032989893
4494,0.06424991
4495,-0.022403888
4496,-0.07290794
4497,0.0012054247
4498,-0.049221173
4499,-0.05375459
4500,0.042224813
4501,-0.01607444
4502,0.007665152
4503,0.032127164
4504,0.023745067
4505,-0.10346174
4506,-0.034106445
4507,-0.016754264
4508,0.042918444
4509,0.051436283
4510,-0.00286372
4511,0.041963287
4512,-0.016524196
4513,-0.034319893
4514,0.09058746
4515,0.03380924
4516,0.080474675
4517,0.022879865
4518,-0.10601065
4519,-0.11840185
4520,0.002198164
4521,0.092018686
4522,-0.008551221
4523,-0.0509452
4524,0.0074079265
4525,-0.033780284
4526,-0.07807887
4527,-0.052956853
4528,0.024067005
4529,-0.039897464
4530,-0.04986987
4531,0.038936123
4532,-0.010314914
4533,0.13161056
4534,0.01835975
4535,-0.099854305
4536,-0.02689724
4537,0.019207511
4538,-0.0056345933
4539,-0.07895574
4540,0.012309194
4541,0.02217038
4542,-0.0647021
4543,-0.13898753
4544,0.0060942727
4545,0.013626574
4546,0.03250444
4547,-0.016284013
4548,0.00015732032
4549,0.011459213
4550,-0.069371864
4551,0.029663822
4552,0.027395476
4553,-0.018293278
4554,0.027414583
4555,0.049563587
4556,-0.08088725
4557,0.039662518
4558,0.030150864
4559,0.04966795
4560,-0.034430437
4561,0.0062629986
4562,-0.08631499
4563,-0.015070487
4564,-0.105671726
4565,0.015486069
4566,0.020688448
4567,0.03894313
4568,-0.034700844
4569,0.070669554
4570,-0.068175234
4571,-0.092835866
4572,-0.032030832
4573,-0.007653954
4574,-0.00051129033
4575,-0.07257005
4576,0.11809132
4577,0.008063757
4578,0.07146244
4579,0.05979667
4580,0.0033872505
4581,-0.009267623
4582,0.01657507
4583,-0.009451063
4584,-0.08408894
4585,-0.048270613
4586,-0.04560246
4587,-0.007528173
4588,-0.07120618
4589,-0.02791921
4590,-0.014795579
4591,0.06053587
4592,0.009649363
4593,-0.0710859
4594,-0.14768097
4595,-0.057838537
4596,0.02159551
4597,-0.045416374
4598,-0.040012896
4599,-0.007999763
4600,-0.04832998
4601,-0.02605946
4602,0.043550674
4603,-0.0017025173
4604,-0.10338106
4605,-0.012863641
4606,-0.059369415
4607,0.019995809
4608,0.049606293
4609,0.019565092
4610,0.06050994
4611,-0.010221502
4612,0.08536882
4613,-0.055500004
4614,-0.016545607
4615,0.08711187
4616,0.049055517
4617,-0.0015767339
4618,0.02993789
4619,0.0019483092
4620,-0.08501064
4621,-0.0017570761
4622,-0.051781222
4623,-0.023873253
4624,0.04945526
4625,-0.09357422
4626,0.080669984
4627,0.018590566
4628,0.04812266
4629,0.0044141896
4630,0.04217327
4631,0.03652978
4632,0.051877905
4633,-0.011267972
4634,0.006861682
4635,-0.0012943355
4636,-0.0060488787
4637,0.040115844
4638,0.071014084
4639,0.043085087
4640,0.0068409005
4641,0.028007993
4642,-0.10282468
4643,-0.089219876
4644,-0.038252432
4645,0.016290035
4646,0.14767826
4647,0.019724544
4648,0.060565595
4649,-0.00062595453
4650,0.03850095
4651,0.0005664504
4652,0.061856717
4653,-0.035438493
4654,0.070687346
4655,0.06202531
4656,0.013288194
4657,-0.034706414
4658,0.05185664
4659,-0.0034865425
4660,0.04276949
4661,-0.050936967
4662,-0.075122856
4663,0.003411255
4664,0.18686913
4665,-0.06344212
4666,-0.051727206
4667,0.074504696
4668,0.0758688
4669,0.041742764
4670,0.056135677
4671,0.03756716
4672,0.011394742
4673,-0.05368572
4674,0.06323469
4675,0.0876353
4676,0.04743096
4677,0.065859854
4678,-0.007050319
4679,-0.005936701
4680,0.037141837
4681,0.06592715
4682,-0.099383675
4683,0.059803516
4684,0.008932596
4685,0.06616901
4686,0.08246317
4687,0.04020634
4688,0.060059156
4689,0.079297006
4690,0.034197625
4691,0.06451591
4692,0.04988404
4693,-0.15610437
4694,-0.010287581
4695,-0.022218542
4696,0.005904613
4697,0.013567315
4698,0.08658159
4699,-0.006797243
4700,-0.00083399145
4701,0.0413855
4702,-0.007394087
4703,-0.02175896
4704,-0.13040875
4705,-0.013156911
4706,-0.110865645
4707,0.043100093
4708,-0.012601435
4709,-0.073669784
4710,0.04679304
4711,0.025777273
4712,0.08648779
4713,0.11592814
4714,0.069680184
4715,0.11302476
4716,-0.04599994
4717,0.048876535
4718,0.02851637
4719,-0.1559975
4720,0.04686558
4721,-0.030966338
4722,0.04121746
4723,0.0007439293
4724,0.024607725
4725,0.05386597
4726,0.0033274365
4727,0.043853667
4728,-0.019171515
4729,0.037095908
4730,-0.16734956
4731,0.073419124
4732,-0.017817046
4733,-0.11503114
4734,-0.062775284
4735,0.024885755
4736,-0.2116308
4737,-0.029211838
4738,-0.06703349
4739,-0.04901492
4740,-0.025035797
4741,-0.014183388
4742,-0.009570171
4743,-0.019349605
4744,-0.051495403
4745,-0.0483453
4746,0.023768842
4747,-0.069836825
4748,0.033933695
4749,-0.15631504
4750,0.012383371
4751,-0.0106129935
4752,-0.061000727
4753,-0.007303544
4754,0.022564221
4755,-0.027098706
4756,0.039871044
4757,0.02079001
4758,0.035618115
4759,0.013116372
4760,0.043530524
4761,-0.08535443
4762,-0.0051364684
4763,0.009540161
4764,0.025975278
4765,-0.11050848
4766,0.002003261
4767,0.005600642
4768,0.01569159
4769,-0.022225961
4770,0.056658216
4771,0.0017144076
4772,0.036971886
4773,0.03292745
4774,-0.050508074
4775,-0.062319204
4776,0.01744791
4777,0.015267745
4778,0.02586176
4779,0.029357057
4780,0.019444792
4781,-0.11704826
4782,0.008530106
4783,-0.04499713
4784,0.014156868
4785,0.012849139
4786,-0.07872465
4787,-0.012025591
4788,0.033124942
4789,0.013863777
4790,0.04272731
4791,-0.069829896
4792,-0.137232
4793,-0.016086506
4794,-0.055788215
4795,-0.09914235
4796,-0.01597222
4797,-0.11474755
4798,-0.01275585
4799,-0.10705894
4800,0.028297096
4801,0.01672862
4802,-0.0023273798
4803,0.02237571
4804,0.04801891
4805,0.048745044
4806,0.043241728
4807,0.052437466
4808,0.03893416
4809,-0.008478374
4810,0.07058565
4811,-0.10824816
4812,-0.010898421
4813,0.020439768
4814,-0.040315077
4815,0.010382337
4816,0.02227888
4817,0.020343505
4818,-0.058916677
4819,0.010779472
4820,0.037172023
4821,0.20782602
4822,-0.1785941
4823,-0.046917316
4824,-0.02213533
4825,-0.13986683
4826,0.039545793
4827,-0.056152172
4828,0.07869104
4829,0.023075305
4830,0.012494571
4831,-0.12704527
4832,-0.009985784
4833,-0.05086861
4834,0.05162282
4835,-0.07775268
4836,-0.014452689
4837,0.057726454
4838,0.023793219
4839,0.038735237
4840,0.0051728436
4841,-0.008839617
4842,0.01696819
4843,-0.05163412
4844,-0.040018503
4845,-0.020365987
4846,-0.0051702517
4847,0.023218134
4848,0.016004894
4849,-0.046656206
4850,-0.13039038
4851,0.00494665
4852,0.008803166
4853,0.0043794513
4854,-0.123886146
4855,-0.046586536
4856,-0.06648542
4857,0.024261931
4858,0.011705372
4859,0.04065567
4860,0.06794376
4861,-0.36073497
4862,-0.019792939
4863,0.025772614
4864,0.0111097675
4865,0.011930816
4866,-0.0910049
4867,-0.015786888
4868,-0.069419935
4869,0.024673402
4870,-0.02413271
4871,0.009281117
4872,0.010996512
4873,-0.12282706
4874,0.04699951
4875,-0.12974034
4876,0.00085757545
4877,0.024528755
4878,0.04819503
4879,0.028586159
4880,-0.10872885
4881,-0.06322852
4882,0.03282839
4883,-0.03583306
4884,0.0142129455
4885,-0.0010185273
4886,0.008692087
4887,-0.018049847
4888,-0.015147548
4889,-0.108917125
4890,-0.021282585
4891,-0.00047455393
4892,-0.039426032
4893,0.04321729
4894,0.01555664
4895,-0.0042413916
4896,-0.08029902
4897,-0.10364974
4898,-0.045110248
4899,-0.044142753
4900,-0.030908924
4901,0.021673558
4902,0.022292102
4903,0.005447139
4904,0.023667036
4905,-0.11574891
4906,0.021552796
4907,-0.13533734
4908,0.035268173
4909,0.04798054
4910,-0.0088734655
4911,0.0017858966
4912,-0.09018892
4913,-0.02209142
4914,-0.018592231
4915,-0.071925245
4916,0.015322134
4917,0.0478455
4918,-0.033158623
4919,-0.09715936
4920,0.010263111
4921,-0.02704016
4922,-0.10712096
4923,-0.07339918
4924,-0.018053433
4925,0.053936463
4926,0.0136958845
4927,-0.06334817
4928,-0.16513084
4929,-0.036032278
4930,-0.06301979
4931,0.009144809
4932,-0.0013621255
4933,0.012922922
4934,0.035859838
4935,0.004573224
4936,0.009072451
4937,-0.010816114
4938,-0.017657854
4939,0.002380103
4940,-0.10060491
4941,-0.0069164257
4942,0.05987114
4943,-0.016193766
4944,-0.10001078
4945,-0.03752119
4946,-0.110943526
4947,0.018510357
4948,0.073323466
4949,0.029139332
4950,0.059045665
4951,-0.10737115
4952,-0.039674047
4953,-0.0030369658
4954,0.0065954654
4955,-0.21151203
4956,-0.0384079
4957,0.013799891
4958,-0.00146704
4959,-0.04566738
4960,-0.007136505
4961,0.052328013
4962,-0.036727507
4963,0.020637847
4964,-0.0018263162
4965,-0.014806824
4966,0.009941151
4967,0.013783102
4968,-0.004412775
4969,-0.0026026373
4970,-0.005317707
4971,0.07842632
4972,-0.04452388
4973,0.02629248
4974,-0.06521312
4975,-0.022365456
4976,0.019808998
4977,-0.12720065
4978,-0.04580936
4979,-0.04018099
4980,0.0033476367
4981,-0.10081336
4982,0.021279119
4983,0.04962426
4984,-0.071173355
4985,0.03841572
4986,-0.0769546
4987,0.026285933
4988,-0.060273018
4989,0.026500845
4990,-0.03691277
4991,0.013744497
4992,0.04734648
4993,-0.07411591
4994,-0.06299677
4995,-0.07802421
4996,-0.06531826
4997,0.07769183
4998,-0.088822454
4999,0.04992809
5000,0.05475908
5001,-0.045895237
5002,-0.047699034
5003,-0.056440935
5004,-0.1303283
5005,-0.026104469
5006,0.025851322
5007,0.10181944
5008,-0.032442022
5009,-0.08289116
5010,0.012294883
5011,4.247704e-07
5012,0.030082354
5013,-0.014684585
5014,0.032075588
5015,0.02630448
5016,-0.008449944
5017,-0.061181657
5018,0.013174352
5019,0.0027720972
5020,-0.040253494
5021,0.044689424
5022,0.009680416
5023,0.024061391
5024,-0.08993829
5025,-0.061834704
5026,0.044389557
5027,-0.06188332
5028,-0.04211744
5029,0.03795084
5030,0.06934116
5031,-0.05716772
5032,0.027321605
5033,-0.015713725
5034,-0.004829808
5035,-0.04562101
5036,0.015297525
5037,0.030064816
5038,0.002213179
5039,0.038165033
5040,-0.07035832
5041,-0.06303098
5042,0.0010773009
5043,-0.113558054
5044,0.0069207866
5045,0.050546866
5046,-0.03747512
5047,-0.07175798
5048,0.08326349
5049,-0.063302584
5050,-0.06538633
5051,-0.09970168
5052,-0.027157921
5053,0.031248908
5054,0.012350401
5055,-0.05012738
5056,-0.12590027
5057,-0.03593801
5058,0.015367509
5059,0.019453952
5060,-0.018462146
5061,0.017052216
5062,-0.001293689
5063,0.023015814
5064,0.025889289
5065,0.09111998
5066,-0.1313726
5067,0.04956091
5068,-0.34551898
5069,2.9147697e-05
5070,0.06388053
5071,0.056993254
5072,-0.045405135
5073,-0.056795035
5074,-0.033436112
5075,0.001143288
5076,-0.04359999
5077,-0.05894004
5078,0.0029513356
5079,-0.023015449
5080,0.038161766
5081,0.028477486
5082,0.027367165
5083,-0.11656915
5084,-0.019273408
5085,0.02350148
5086,-0.000995092
5087,-0.063887894
5088,-0.042972963
5089,0.017030178
5090,-0.18910089
5091,0.008201076
5092,0.010684153
5093,0.025474807
5094,-0.0115506
5095,0.020247241
5096,0.017159201
5097,0.021862624
5098,-0.023785027
5099,0.05709595
5100,-0.11522832
5101,0.025289191
5102,-0.055262517
5103,-0.18061979
5104,-0.010490923
5105,-0.07412937
5106,-0.09095136
5107,-0.06714868
5108,-0.02001635
5109,-0.05969299
5110,-0.0129632475
5111,0.002644779
5112,-0.063261695
5113,0.021340352
5114,-0.03333865
5115,0.029508026
5116,0.027883736
5117,0.0064721024
5118,0.0032776506
5119,0.036095537
5120,-0.005241047
5121,0.019864017
5122,-0.117233075
5123,0.015956767
5124,-0.03476547
5125,0.041749753
5126,-0.01303295
5127,0.057755996
5128,0.028458016
5129,-0.05014521
5130,0.0025093341
5131,-0.038236335
5132,0.019722797
5133,0.0027112833
5134,0.024208128
5135,0.02835409
5136,-0.05414505
5137,0.020645952
5138,0.008346822
5139,-0.037172046
5140,0.011085183
5141,0.0017071525
5142,-0.0068554464
5143,0.01644153
5144,0.07576977
5145,-0.071909934
5146,0.023971168
5147,0.010552478
5148,-0.015908478
5149,-0.012304998
5150,-0.0039796913
5151,0.031883318
5152,-0.12191947
5153,-0.054435045
5154,0.015811728
5155,-0.15848248
5156,0.06699283
5157,0.014800436
5158,-0.0044586086
5159,-0.028723456
5160,0.0059897522
5161,-0.029936224
5162,-0.006232011
5163,-0.04735471
5164,-0.002266499
5165,-0.05469094
5166,-0.0019974366
5167,-0.000516667
5168,0.026502544
5169,-0.05458771
5170,-0.0018481693
5171,-0.066089146
5172,0.038245916
5173,0.04276039
5174,-0.03734216
5175,-0.03321313
5176,-0.090648495
5177,0.016657893
5178,-0.062904716
5179,-0.08654727
5180,-0.03132549
5181,-0.07060452
5182,0.02630859
5183,-0.035455428
5184,-0.17493068
5185,0.02377471
5186,0.049442444
5187,0.013816845
5188,0.038689494
5189,0.028826606
5190,-0.0070380894
5191,0.022035614
5192,0.026736258
5193,0.012531223
5194,0.0047844327
5195,-0.05203027
5196,-0.06137093
5197,0.030394645
5198,-0.03466775
5199,0.026781311
5200,-0.014876711
5201,-0.0037463396
5202,-0.07583777
5203,-0.004699387
5204,-0.00469463
5205,0.022812322
5206,-0.027545271
5207,-0.11330277
5208,-0.036365733
5209,0.027384806
5210,-0.053312384
5211,-0.08795456
5212,-0.09331306
5213,-0.014924522
5214,-0.0102803875
5215,-0.041196372
5216,0.015030943
5217,0.0025962573
5218,0.03437038
5219,-0.03693969
5220,-0.011774028
5221,0.03569567
5222,0.008009185
5223,0.038267992
5224,0.09442892
5225,0.010093697
5226,-0.053316206
5227,0.042721406
5228,-0.13251758
5229,-0.042666692
5230,-0.020568017
5231,0.028409358
5232,0.027703514
5233,-0.05389843
5234,-0.22918156
5235,-0.06801241
5236,0.052118972
5237,-0.0051560593
5238,0.014982636
5239,0.02470615
5240,-0.087906785
5241,0.02216383
5242,-0.08801011
5243,0.023512056
5244,-0.05130545
5245,-0.0013265681
5246,-4.1507155e-06
5247,-0.011699034
5248,0.13177478
5249,0.016802425
5250,0.11890596
5251,-0.13263527
5252,-0.009250973
5253,-0.059122246
5254,-0.16368964
5255,0.004738525
5256,0.18205275
5257,-0.07789574
5258,0.0029454755
5259,-0.103025325
5260,-0.21044528
5261,0.099569984
5262,-0.035061736
5263,-0.059420306
5264,-0.08999719
5265,0.003069744
5266,-0.0123458635
5267,0.12377652
5268,-0.010080897
5269,-0.002624752
5270,-0.023921242
5271,-0.28822786
5272,-0.15524197
5273,-0.10003046
5274,0.04773468
5275,0.0011298449
5276,-0.19379076
5277,0.015330455
5278,-0.038910404
5279,-0.02763965
5280,0.0436956
5281,0.0022121288
5282,-0.24939883
5283,-0.2155135
5284,0.012708821
5285,-0.0024135197
5286,-0.02223884
5287,0.057542894
5288,-0.0064674215
5289,-0.045411922
5290,0.0251315
5291,-0.16714925
5292,-0.024278026
5293,0.1581865
5294,0.04815741
5295,-0.026109794
5296,-0.19533943
5297,-0.19036818
5298,0.029916354
5299,-0.010872417
5300,-0.015097574
5301,0.08761819
5302,0.18289274
5303,-0.11422489
5304,0.010075384
5305,-0.020998761
5306,0.032404296
5307,-0.0048116376
5308,0.022992486
5309,0.008538097
5310,-0.04234695
5311,0.030566005
5312,-0.20800422
5313,0.047431152
5314,-0.17695151
5315,0.010337332
5316,0.0050177784
5317,-0.017874794
5318,0.030129502
5319,0.02461656
5320,0.02045766
5321,-0.021650294
5322,0.07071458
5323,-0.02207357
5324,0.06451154
5325,-0.03534367
5326,0.013518339
5327,-0.21760255
5328,-0.041511457
5329,0.13094139
5330,-0.0771573
5331,-0.044367477
5332,0.01191969
5333,0.03134168
5334,-0.0052478793
5335,0.04314767
5336,0.102938585
5337,0.010271772
5338,0.025848443
5339,0.08061424
5340,-0.0017308325
5341,-0.008822699
5342,-0.010929126
5343,-0.057128977
5344,0.069699876
5345,0.047581304
5346,-0.1688929
5347,0.004105624
5348,-0.0040649134
5349,-0.03870204
5350,-0.02163859
5351,-0.044264264
5352,-0.0881623
5353,-0.02667569
5354,0.05371657
5355,0.028091997
5356,-0.1545263
5357,0.03612748
5358,0.019217154
5359,-0.1928543
5360,-0.0011407994
5361,-0.09329485
5362,0.048865285
5363,0.014776856
5364,-0.066316985
5365,-0.014306294
5366,0.13930692
5367,0.017288353
5368,-0.06482715
5369,0.0008977449
5370,-0.17207623
5371,-0.034692597
5372,-0.010912902
5373,0.20322493
5374,0.0034626697
5375,-0.0040028887
5376,0.04980424
5377,-6.267112e-05
5378,0.17739333
5379,-0.11157218
5380,0.052982513
5381,-0.013142258
5382,-0.13994282
5383,-0.008496364
5384,0.0838429
5385,-0.08522976
5386,-0.026105192
5387,-0.080064066
5388,-0.26389357
5389,0.117748156
5390,-0.03795576
5391,0.0021405646
5392,-0.047790486
5393,-0.06432194
5394,0.007516207
5395,0.073902875
5396,0.05176582
5397,0.0069984687
5398,0.007275413
5399,-0.021217147
5400,-0.21981934
5401,-0.09965367
5402,-0.055407666
5403,0.012816775
5404,-0.15054989
5405,0.023485344
5406,-0.013591043
5407,0.005040706
5408,-0.011859729
5409,-0.11179107
5410,0.19826728
5411,-0.04266249
5412,0.16371433
5413,0.016780887
5414,0.1405582
5415,0.05981322
5416,0.02109796
5417,-0.010575881
5418,-0.028223662
5419,-0.12609379
5420,-0.010415819
5421,0.08839159
5422,0.055568736
5423,0.04526944
5424,-0.14255528
5425,-0.13280168
5426,0.035745278
5427,-0.033866324
5428,-0.040672466
5429,0.09915208
5430,0.044536714
5431,-0.09807062
5432,0.030037362
5433,-0.0086439
5434,-0.035528965
5435,0.02474258
5436,-0.0019176664
5437,0.008170909
5438,0.007441341
5439,-0.026693938
5440,-0.022030644
5441,-0.05306306
5442,-0.008833338
5443,6.974914e-05
5444,-0.042303327
5445,-0.0055576772
5446,0.048546743
5447,0.01542418
5448,-0.0034003407
5449,0.040580593
5450,0.017459288
5451,-0.039448246
5452,-0.06931189
5453,-0.05738163
5454,0.03716497
5455,0.014079519
5456,-0.14798838
5457,0.032230463
5458,-0.09099338
5459,-0.009618524
5460,0.022915268
5461,-0.034763694
5462,0.08502676
5463,-0.0551787
5464,0.023403043
5465,-0.02507065
5466,0.0172668
5467,0.0032889005
5468,0.02839459
5469,0.00955719
5470,0.009015164
5471,-0.052190997
5472,0.049397923
5473,0.06272543
5474,-0.28471667
5475,0.009806066
5476,0.0031378074
5477,-0.11183295
5478,-0.011309899
5479,-0.10945527
5480,-0.12169209
5481,-0.03289089
5482,0.18503027
5483,0.020348437
5484,-0.13196605
5485,0.09816063
5486,0.020914786
5487,-0.30842772
5488,-0.044540554
5489,-0.11682863
5490,0.03592267
5491,0.010876219
5492,-0.12078227
5493,-0.091933064
5494,0.10102595
5495,-0.000546452
5496,-0.045534406
5497,-0.014041539
5498,-0.05795589
5499,-0.022387229
5500,-0.028761778
5501,0.14903598
5502,-0.0065421024
5503,0.022528455
5504,0.03775066
5505,0.048316393
5506,-0.037546806
5507,-0.14874375
5508,-0.024878802
5509,0.024948308
5510,-0.16705048
5511,-0.030012053
5512,0.012056436
5513,-0.06447982
5514,0.007981071
5515,-0.06345224
5516,0.05707601
5517,-0.072068
5518,0.09569025
5519,0.021987017
5520,-0.06259798
5521,0.12358286
5522,0.043010663
5523,-0.048912086
5524,0.0018410335
5525,-0.001994242
5526,0.025880266
5527,0.008619623
5528,-0.06300238
5529,-0.07845545
5530,0.01383313
5531,-0.011861488
5532,-0.010945561
5533,0.006975215
5534,0.015275385
5535,0.018517701
5536,-0.09146637
5537,-0.0034403761
5538,-0.06969632
5539,-0.110491
5540,-0.015347709
5541,0.015761636
5542,-0.04990137
5543,-0.018792965
5544,0.02747322
5545,-0.27665454
5546,0.023211844
5547,-0.068343766
5548,-0.007170231
5549,-0.0056549194
5550,-0.0016718938
5551,-0.02699484
5552,0.05873104
5553,-0.17108688
5554,0.053246703
5555,-0.07849479
5556,0.05359564
5557,0.08658521
5558,-0.013552692
5559,-0.08578338
5560,0.042517845
5561,0.07466728
5562,-0.07541503
5563,-0.2225378
5564,-0.021645818
5565,0.100266755
5566,-0.022524618
5567,0.022486309
5568,-0.14137992
5569,0.11716042
5570,0.005381305
5571,0.02138861
5572,0.07205372
5573,0.02111826
5574,-0.014330724
5575,0.03381198
5576,0.05291512
5577,-0.03199094
5578,-0.07870295
5579,0.118484974
5580,-0.09315041
5581,0.07091423
5582,0.05437093
5583,0.052610893
5584,-0.07329695
5585,0.05433736
5586,-0.03209187
5587,0.012704889
5588,-8.537316e-05
5589,0.078235626
5590,-0.059802424
5591,-0.0393298
5592,0.044836134
5593,0.09787593
5594,0.0137317525
5595,0.00082453224
5596,-0.029122338
5597,0.018676454
5598,-0.00883899
5599,-0.06770227
5600,-0.05254449
5601,-0.01770072
5602,0.079987176
5603,-0.0008970171
5604,-0.0070377523
5605,0.021075405
5606,0.0457903
5607,0.034443475
5608,0.062066417
5609,0.016020844
5610,-0.008581743
5611,0.047830213
5612,-0.19901608
5613,0.010552436
5614,-0.03219656
5615,0.06933002
5616,0.06026528
5617,-0.12829672
5618,-0.23155245
5619,-0.07491855
5620,0.073883794
5621,-0.08055486
5622,-0.0050498066
5623,0.05944982
5624,-0.092384286
5625,0.042310573
5626,-0.048795585
5627,0.0049663917
5628,0.14864217
5629,0.09496209
5630,-0.0019535022
5631,0.030502375
5632,0.05668165
5633,0.14314917
5634,-0.063791655
5635,0.009374478
5636,0.05635617
5637,0.029159907
5638,0.03469631
5639,-0.041931074
5640,-0.010602403
5641,-0.0239565
5642,-0.018382015
5643,0.036011953
5644,-0.078205
5645,-0.04255417
5646,-0.11457668
5647,0.12465025
5648,0.03360882
5649,0.019119808
5650,0.06559393
5651,0.09741458
5652,0.15083385
5653,0.0074287746
5654,0.12416335
5655,0.13409111
5656,-0.14201942
5657,0.04209441
5658,0.08510703
5659,-0.014091829
5660,-0.087816276
5661,-0.11079544
5662,0.030618925
5663,0.14067534
5664,0.18583624
5665,0.0873303
5666,-0.13919984
5667,-0.071356356
5668,0.015751122
5669,0.08775227
5670,0.11018048
5671,0.08788978
5672,0.061471753
5673,-0.087930106
5674,0.060629614
5675,0.01824767
5676,0.13428475
5677,0.013419576
5678,0.25752625
5679,0.11179412
5680,-0.19205695
5681,0.009687001
5682,0.24201491
5683,0.02835475
5684,0.085359834
5685,0.00078257744
5686,-0.0838519
5687,0.057001647
5688,0.08078092
5689,-0.03212208
5690,0.2674583
5691,-0.06454402
5692,-0.10267977
5693,-0.06090217
5694,0.05172243
5695,0.116950236
5696,-0.017381355
5697,0.026569929
5698,0.10593161
5699,0.10411866
5700,0.07770207
5701,0.061841194
5702,0.07892401
5703,0.072865866
5704,0.101546176
5705,0.040592257
5706,-0.08724093
5707,-0.03224318
5708,-0.014685923
5709,0.057832234
5710,0.010842249
5711,0.08185949
5712,0.30080462
5713,-0.016276948
5714,0.021517744
5715,0.050964713
5716,0.15560828
5717,-0.2521826
5718,-0.1796545
5719,0.22706474
5720,0.044151794
5721,0.042260572
5722,0.114313535
5723,0.13995722
5724,0.17952442
5725,0.06982491
5726,-0.012750135
5727,0.10511655
5728,0.009628075
5729,-0.06369599
5730,-0.13730654
5731,-0.13254592
5732,-0.005620153
5733,0.058646753
5734,0.026145432
5735,0.07032436
5736,0.038441315
5737,0.06345591
5738,0.11487658
5739,0.11696625
5740,0.005767461
5741,0.24789362
5742,0.2589457
5743,-0.13953876
5744,0.10726706
5745,-0.003728905
5746,-0.0031443816
5747,-0.040870752
5748,0.06992144
5749,0.20903113
5750,0.0037010896
5751,0.16624813
5752,0.20000435
5753,0.059555575
5754,-0.04055361
5755,0.06502472
5756,0.012958388
5757,0.010197326
5758,0.033521686
5759,0.1138779
5760,0.034761824
5761,-0.01373031
5762,-0.01985131
5763,-0.10409657
5764,0.0034572505
5765,0.017503133
5766,0.05604012
5767,-0.046409998
5768,-0.101265565
5769,-0.10201802
5770,0.003032452
5771,-0.04787381
5772,0.01485434
5773,0.0077291564
5774,0.0196327
5775,0.021411762
5776,-0.03413184
5777,0.0074645686
5778,-0.004936772
5779,0.008354534
5780,0.011980447
5781,0.0060733138
5782,-0.012263885
5783,0.0019895793
5784,-0.032272283
5785,-0.07586001
5786,0.034064237
5787,0.0035585905
5788,-0.018882213
5789,0.008701086
5790,-0.032265626
5791,-0.0035385143
5792,-0.08265071
5793,0.02263307
5794,-0.03589456
5795,0.016409338
5796,-0.0044704108
5797,-0.010190353
5798,-0.03197085
5799,-0.0022758562
5800,-0.021098359
5801,-0.03736367
5802,0.019248242
5803,-0.11092348
5804,-0.00035205344
5805,0.03566969
5806,0.01471314
5807,-0.010853555
5808,-0.082180664
5809,-0.12945074
5810,-0.0050044013
5811,0.011446442
5812,-0.015758367
5813,0.029733947
5814,-0.023078352
5815,-0.05985477
5816,0.06500625
5817,0.028615724
5818,0.034826957
5819,-0.019171646
5820,0.0025806783
5821,0.024541268
5822,-0.021742025
5823,0.00818838
5824,-0.016346907
5825,0.015040002
5826,0.05609858
5827,-0.0049801795
5828,0.009987466
5829,-0.017390493
5830,-0.017259227
5831,0.0108671775
5832,-0.0037125498
5833,-0.014122065
5834,-0.041411094
5835,-0.09157377
5836,0.013494242
5837,-0.004792492
5838,0.008734859
5839,0.00024315665
5840,-0.01523596
5841,0.029539643
5842,-0.049903616
5843,-0.004339937
5844,-0.023175232
5845,0.004385952
5846,0.052911572
5847,-0.012727051
5848,0.048804123
5849,0.007898981
5850,0.00018984138
5851,-0.124457724
5852,-0.019288255
5853,-0.00563969
5854,0.0016786075
5855,-0.14286748
5856,0.012371432
5857,0.02279839
5858,-0.007542796
5859,0.01581749
5860,0.007715975
5861,0.022576837
5862,0.0006596266
5863,-0.018545596
5864,-0.023088839
5865,-0.022567015
5866,-0.06483168
5867,-0.0025948514
5868,-0.028520761
5869,-0.03675751
5870,0.0072564213
5871,-0.004422761
5872,-0.00464269
5873,-0.11494376
5874,-0.0046168515
5875,-0.001238393
5876,-0.002720985
