Sno,Weight
0,0.013972145
1,-0.006084936
2,0.0037210572
3,-0.010932724
4,-0.006897669
5,0.0074103586
6,-0.0023168733
7,0.010719336
8,-0.00095686165
9,-0.00069423456
10,0.007239874
11,0.0027998062
12,0.00010856778
13,-0.010925817
14,-0.016376678
15,0.00049430475
16,0.009620659
17,-0.0031330064
18,-0.018745426
19,0.010145508
20,0.0070914575
21,0.0026268791
22,0.0065735034
23,0.0012408656
24,-0.0018534627
25,-0.010327837
26,-0.0021098792
27,0.006408011
28,-0.007686107
29,-0.014398547
30,-0.0036576032
31,-0.0012710232
32,-0.00048344317
33,-0.006219602
34,-0.013486149
35,0.0058387103
36,0.005240999
37,0.000118262404
38,-0.0020680916
39,0.0041928045
40,-0.013155708
41,0.008525607
42,-0.0029442683
43,0.0077493126
44,0.0024835742
45,0.0039884034
46,-0.010286681
47,-0.014850239
48,0.003828027
49,-0.0016778529
50,0.0026138448
51,-0.004787604
52,0.00136838
53,-0.0007220399
54,0.0023120497
55,-0.012625514
56,0.0033421721
57,-0.013382973
58,0.001228214
59,0.013437787
60,0.014110021
61,0.011542154
62,-0.00084789726
63,-0.0018776092
64,0.0011154086
65,0.0030231702
66,-0.0054417914
67,-0.004426884
68,-0.013193554
69,0.0010905579
70,0.0045512677
71,0.012469209
72,-0.01763304
73,0.0082645
74,1.2084245e-05
75,-0.004094466
76,0.006997958
77,-0.009561813
78,-6.527324e-05
79,0.003428931
80,-0.003848585
81,0.000113254035
82,0.019096103
83,0.005009985
84,-0.01657287
85,-0.0052457643
86,0.007684162
87,0.0042512403
88,0.019169625
89,0.0034410204
90,0.00019531918
91,-0.008788966
92,-0.005617426
93,0.007973109
94,0.00891859
95,-0.0075427853
96,-0.019096589
97,0.017283166
98,0.006877731
99,-0.007875254
100,-0.0007905214
101,-0.0015026621
102,0.011469488
103,0.011649985
104,0.009532724
105,-0.002496889
106,0.008384024
107,-0.0070122294
108,-0.0013245743
109,0.0045978073
110,-0.0027822212
111,-0.005873938
112,-0.010209728
113,0.007968245
114,0.0016001825
115,-0.0019713873
116,0.0016416156
117,0.015022814
118,-0.003209335
119,-0.009360751
120,0.009731716
121,-0.0019429653
122,-0.0024065338
123,0.017423121
124,-0.009398371
125,-0.013338017
126,-0.008343145
127,-0.0043837754
128,0.04988819
129,-0.09060451
130,0.021011319
131,-0.08503596
132,-0.06167596
133,0.042748213
134,0.018776981
135,0.059708066
136,0.04050688
137,0.0008353306
138,-0.0010723859
139,0.08297766
140,-0.006361867
141,-0.0015539771
142,-0.0007576554
143,0.0388063
144,-0.00088325614
145,0.059624456
146,-0.06392391
147,0.010607697
148,-0.028623378
149,0.030708874
150,0.03606981
151,-0.06017448
152,0.026723152
153,0.041774668
154,-0.06305163
155,0.035491064
156,0.08188468
157,0.027144754
158,-0.0757133
159,-0.0012374534
160,0.026442317
161,0.039148327
162,0.050024718
163,0.006589966
164,-0.066906855
165,0.027693357
166,0.037493054
167,0.061638404
168,0.037390407
169,-0.06356342
170,-0.08471679
171,-5.572664e-05
172,-0.06639246
173,0.011116676
174,-0.053880617
175,0.07140741
176,-0.07234887
177,0.046439175
178,0.027872667
179,-0.0011018917
180,0.029717237
181,0.042289715
182,-0.0067855804
183,0.0068596494
184,-0.019597918
185,0.014960878
186,-0.0746037
187,0.038827103
188,-0.06600189
189,0.07139268
190,0.05294656
191,0.034253877
192,0.05972589
193,0.033105496
194,0.053287067
195,0.0012105482
196,-0.078121245
197,-0.0016323767
198,-0.045356393
199,-0.053845186
200,0.043077588
201,-0.0010535723
202,-0.08609302
203,0.014223367
204,-0.082029834
205,0.037047762
206,0.037918575
207,0.034505792
208,0.017741023
209,0.024111696
210,0.036971245
211,0.009952996
212,-0.0012660453
213,0.03005761
214,-0.0032201887
215,0.005903363
216,0.035596307
217,-0.008568539
218,0.047685787
219,0.0856412
220,0.02057956
221,-0.06366859
222,-0.026088104
223,-0.059834052
224,-0.06593567
225,0.0447367
226,-0.03327088
227,0.038788743
228,-0.0030184838
229,0.0026624962
230,0.030888986
231,0.019627757
232,0.03669802
233,-0.03896308
234,0.036659237
235,0.07168823
236,-0.08119821
237,0.042275224
238,-0.0076432223
239,0.03744326
240,-0.10676032
241,0.011781742
242,0.001256407
243,0.052987944
244,-0.07571737
245,0.057832696
246,0.041542612
247,0.032157324
248,-0.006993486
249,0.036792766
250,-0.00052841223
251,0.030584436
252,0.06326605
253,0.03663848
254,0.03688952
255,0.03803319
256,0.04260939
257,0.024405712
258,0.0017818203
259,0.02261548
260,-0.06152506
261,-0.0001870402
262,0.047921017
263,-0.029319238
264,0.01305455
265,0.037334558
266,0.013313031
267,-0.15243372
268,-0.008936779
269,0.028363105
270,0.03880321
271,0.012279958
272,-0.007182023
273,0.0050742235
274,0.064473316
275,-0.005159929
276,0.045304798
277,0.03461145
278,0.028201608
279,0.019070892
280,-0.044807073
281,0.024265172
282,-0.087489754
283,0.028049482
284,-0.08173173
285,0.03972265
286,-0.07563281
287,0.013665062
288,-0.024843916
289,0.026539039
290,0.013303854
291,0.011350016
292,0.077600434
293,0.035162188
294,0.031252876
295,-0.06143981
296,0.040366817
297,-0.063976906
298,-0.084617734
299,0.065746285
300,-0.066055305
301,-0.0068141394
302,0.07357262
303,-0.032141056
304,-0.07228781
305,0.025387214
306,0.029508565
307,-0.050965805
308,0.024065204
309,-0.0062520993
310,0.0024650726
311,-0.0011553298
312,-0.02997667
313,-0.018224493
314,0.06540998
315,0.0345383
316,0.070951745
317,-0.071599
318,0.05471588
319,-0.019804042
320,-0.06993723
321,0.04313599
322,0.026681172
323,0.03766785
324,-0.07803272
325,0.022671726
326,0.029670075
327,-0.0538555
328,0.028768778
329,0.0032896649
330,0.08779423
331,0.026730666
332,-0.0014039204
333,0.047652062
334,-0.0019762507
335,0.035680566
336,0.033610024
337,0.012251472
338,0.063421965
339,-0.009932163
340,0.054121513
341,0.05597827
342,-0.09712082
343,-0.08677128
344,0.004548724
345,0.00056511466
346,0.0028389548
347,-0.06996321
348,-0.020398043
349,-0.06356177
350,0.06586805
351,-0.058526125
352,0.05568049
353,0.056555193
354,0.026031973
355,0.004435772
356,0.02553991
357,0.06928646
358,0.043454852
359,-0.022811485
360,0.04623014
361,0.062682986
362,0.007895852
363,-0.062024057
364,-0.081274405
365,0.0150850685
366,-0.04637797
367,-0.003529976
368,0.00793058
369,0.016436595
370,0.050244875
371,-0.06364311
372,-0.076056495
373,-0.05715273
374,-0.005354045
375,0.00029142646
376,-0.08091874
377,0.037516825
378,0.0047981506
379,0.029608646
380,-0.057891496
381,0.025142688
382,0.017176136
383,0.036232736
384,0.014953895
385,-0.09073237
386,0.0004987028
387,-0.017914327
388,0.06973041
389,-0.042298626
390,-0.008950707
391,0.0481475
392,0.016902445
393,-0.030184787
394,0.02867975
395,-0.05177411
396,0.06618599
397,0.04011141
398,0.01697684
399,-0.0012601479
400,0.0399919
401,0.0074213864
402,0.017299019
403,0.009194619
404,0.049793575
405,-0.030550996
406,0.007935782
407,0.010137861
408,-0.044808485
409,0.044216342
410,-0.08758401
411,0.03235953
412,-0.08193639
413,-0.0012584382
414,-0.07580081
415,0.043815754
416,-0.043209568
417,-0.033009607
418,-0.00064921245
419,0.07028901
420,0.036512215
421,0.011136758
422,-0.05071094
423,0.03210625
424,0.0012793683
425,-0.061445937
426,-0.08484515
427,0.031409804
428,0.068767555
429,0.0388498
430,0.045541
431,-0.0024614215
432,0.0640361
433,-0.04251371
434,0.01898405
435,-0.050986625
436,0.02728573
437,0.016035168
438,-0.00071557827
439,-0.006969181
440,0.00087104784
441,0.09685063
442,0.025345933
443,-0.03941941
444,0.025762154
445,0.025962729
446,-0.041986782
447,0.04188477
448,0.043066762
449,-0.026450628
450,0.005148164
451,0.03921555
452,-0.028960079
453,0.04712595
454,0.070103854
455,-0.05372073
456,-0.0071842307
457,0.048291914
458,-0.08590728
459,0.01546142
460,-0.017509159
461,-0.052714825
462,-0.047754586
463,0.045957644
464,0.012855985
465,-0.011622642
466,-0.026160197
467,0.05358791
468,-0.0005873968
469,-0.009555818
470,-0.09691262
471,-0.086654976
472,0.009448748
473,0.025490828
474,-0.0502068
475,-0.070245005
476,-0.003866879
477,0.058090232
478,0.08355314
479,-0.05995144
480,0.04697088
481,-0.0482328
482,0.089528896
483,-0.00083982333
484,-0.068517685
485,-0.009249044
486,0.023702838
487,-0.04660245
488,0.064802185
489,0.07837404
490,0.0113856215
491,0.04234052
492,0.062739834
493,0.00044731773
494,-0.073976584
495,-0.0035889738
496,0.031793084
497,0.03817763
498,0.1260888
499,-0.00077783904
500,0.053957805
501,-0.0024415683
502,-0.036449835
503,-0.02945241
504,-0.08084269
505,-0.035461172
506,0.050060082
507,-0.03636261
508,0.037274122
509,-0.055078033
510,0.028344521
511,-0.036492016
512,-0.019582909
513,-0.042656276
514,-0.050567593
515,-0.08504533
516,0.07406496
517,-0.03866252
518,0.057242054
519,-0.03015844
520,-0.02336055
521,-0.029576277
522,-0.021326222
523,-0.029917222
524,-0.035427872
525,0.032880493
526,0.0013809727
527,-0.03839071
528,0.05653831
529,-0.1166771
530,0.011932048
531,-0.09715703
532,-0.07242581
533,-0.00024405519
534,0.023357311
535,-0.029175676
536,-0.044916667
537,-0.066933356
538,-0.08875207
539,-0.03908786
540,-0.082233384
541,-0.049248204
542,0.044959325
543,-0.04112088
544,-0.08073911
545,-0.033254124
546,-0.044283375
547,0.048750237
548,-0.046634775
549,0.054679822
550,-0.050408598
551,-0.03296348
552,-0.010392525
553,-0.055988606
554,-0.084693916
555,-0.04879255
556,-0.06642035
557,-0.0030303968
558,0.045562986
559,0.03179062
560,-0.07205747
561,-0.037825793
562,-0.03105653
563,-0.050998434
564,-0.0048124352
565,0.05546533
566,0.03808831
567,0.013380463
568,0.03497488
569,-0.010259289
570,-0.07488571
571,0.047894478
572,-0.0660708
573,-0.07152339
574,-0.04107885
575,-0.010620245
576,0.032275733
577,-0.0366067
578,-0.014846073
579,0.041019816
580,0.026498884
581,0.0013579475
582,0.02464752
583,-0.053467024
584,0.020931227
585,-0.015540186
586,0.048965454
587,-0.03196809
588,0.07116125
589,-0.05283409
590,-0.0148298945
591,0.008251801
592,-0.083865814
593,-0.04728573
594,0.012558599
595,0.05154308
596,0.024636602
597,-0.078288846
598,-0.06641475
599,-0.10022157
600,0.055992994
601,0.07205587
602,0.04377943
603,-0.069951266
604,0.072019994
605,-0.06374162
606,0.06141436
607,-0.058612797
608,0.05640471
609,-0.048256062
610,0.07782844
611,-0.050496113
612,0.06787896
613,0.071015276
614,0.015652167
615,0.019082459
616,0.009668176
617,-0.03901711
618,-0.032687217
619,-0.062124554
620,-0.08112807
621,-0.033795647
622,0.039558128
623,0.0010298564
624,-0.010418865
625,0.006203005
626,-0.10285865
627,0.02308265
628,0.075764954
629,0.03349059
630,-0.037071686
631,0.06956757
632,-0.02464797
633,-0.05351874
634,0.018693624
635,-0.036602475
636,0.036847226
637,-0.039155938
638,-0.0052715926
639,0.056242757
640,-0.037319105
641,-0.034820788
642,-0.04269532
643,-0.0851593
644,-0.061641667
645,0.099775545
646,0.0014311398
647,0.06333892
648,-0.042959023
649,0.0073725926
650,-0.06445065
651,-0.072996385
652,-0.036002897
653,-0.051671848
654,-0.046918932
655,-0.03833155
656,-0.00042432256
657,0.033745628
658,-0.06340732
659,0.07104833
660,0.012122182
661,-0.030811545
662,0.024454037
663,-0.0011125173
664,-0.015816243
665,0.00010108041
666,-0.06976167
667,-0.039661773
668,0.04495767
669,-0.030416423
670,-0.07598224
671,-0.041365054
672,-0.08083681
673,-0.033248056
674,0.025508951
675,-0.015676122
676,-0.067156464
677,0.0086698085
678,-0.050708063
679,-0.02928746
680,-0.013982418
681,0.066617265
682,0.015196249
683,-0.04435218
684,0.06335629
685,-0.036546517
686,-0.053872243
687,0.053236756
688,-0.07229294
689,-0.037742965
690,-0.03306288
691,-0.050624896
692,0.09386492
693,-0.019761555
694,0.0722077
695,0.0007596265
696,-0.022942813
697,-0.021284724
698,0.03179066
699,-0.03932552
700,-0.024139287
701,-0.07155116
702,-0.04167459
703,0.04682815
704,-0.060019284
705,-0.020848595
706,0.02668155
707,-0.04643668
708,-0.028878404
709,-0.049373794
710,-0.09643412
711,0.050175622
712,-0.022631794
713,0.020345332
714,-0.08579612
715,-0.031778563
716,-0.12106768
717,-0.04157488
718,0.077132605
719,0.01866267
720,-0.032020546
721,-0.02982513
722,-0.025991887
723,-0.071277924
724,-0.011773341
725,-0.050844043
726,-0.06738352
727,-0.060971294
728,0.027203763
729,0.07730919
730,-0.04987742
731,-0.06981075
732,0.007220043
733,0.06290911
734,0.059813514
735,0.06603785
736,-0.065977365
737,-0.04794533
738,0.035087056
739,0.03775183
740,-0.06720802
741,0.07441166
742,-0.050699648
743,-0.06551619
744,0.054937053
745,-0.039205275
746,-0.03245923
747,-0.061953537
748,-0.0810645
749,-0.03956162
750,0.08329441
751,-0.04046493
752,0.028984234
753,-0.033577815
754,-0.026407687
755,-0.06362647
756,0.006624613
757,-0.03839961
758,0.0024387469
759,-0.033686955
760,0.0011680118
761,-0.052055933
762,-0.050559938
763,-0.036938656
764,-0.057877716
765,-0.019230738
766,-0.04965835
767,-0.03677817
768,-0.015238627
769,-0.02959626
770,-0.037730128
771,-0.04571876
772,-0.06116944
773,-0.037359376
774,-0.07647573
775,-0.029233757
776,-0.031621527
777,-0.03382168
778,-0.064365245
779,-0.052083354
780,-0.03247514
781,-0.051606737
782,0.0120501425
783,-0.038555305
784,-0.073450275
785,0.05244656
786,-0.008772564
787,-0.00042223826
788,0.07703716
789,-0.031036092
790,-0.055227216
791,0.010076548
792,0.054937206
793,0.0018183629
794,-0.091974735
795,-0.039413612
796,-0.04571303
797,-0.020487998
798,0.06790921
799,-0.00042255447
800,-0.08110172
801,-0.034047067
802,-0.004474659
803,-0.07326724
804,-0.067032896
805,-0.08304359
806,-0.029522792
807,-0.01953333
808,-0.004926919
809,-0.06416804
810,-0.08452014
811,-0.04979059
812,-0.015487814
813,-0.035974335
814,-0.028108612
815,-0.035842255
816,0.029897
817,-0.03811149
818,-0.043966014
819,-0.04138129
820,-0.048717074
821,-0.009983175
822,-0.054828815
823,0.00033812737
824,-0.01198274
825,-0.012531
826,-0.074904405
827,-0.03908197
828,-0.032484118
829,-0.07136902
830,-0.016383098
831,0.003491587
832,-0.044960383
833,-0.020712007
834,-0.038692866
835,-0.03569568
836,-0.0780576
837,-0.00080812763
838,-0.04434764
839,-0.05350233
840,0.013603207
841,-0.0005055941
842,-0.04359841
843,-0.03192196
844,0.005269322
845,-0.05277957
846,0.11644529
847,-0.009007557
848,0.06684693
849,-0.003109938
850,-0.026149014
851,0.0032217503
852,0.03674805
853,-0.08429849
854,-0.05996661
855,0.064032905
856,-0.08985708
857,0.039048847
858,-0.050284363
859,-0.018582439
860,-0.0820314
861,0.032131877
862,-0.1055268
863,-0.059567578
864,-0.058115393
865,-0.048154566
866,0.018968822
867,0.054429635
868,-0.06143556
869,-0.03864171
870,-0.050575726
871,0.000835776
872,0.002262851
873,-0.038903944
874,-0.032400858
875,-0.015591404
876,-0.063336916
877,-0.03384485
878,0.054736484
879,-0.03997596
880,0.07107578
881,-0.0083836755
882,0.0055367094
883,-0.063554905
884,-0.075951986
885,-0.03691637
886,-0.03517073
887,-0.0327758
888,0.05018649
889,-0.053574897
890,-0.043600768
891,-0.036615353
892,-0.057551157
893,0.12123169
894,-0.008645445
895,-0.03637604
896,-0.03610488
897,-0.090287544
898,-0.0385801
899,-0.08477513
900,-0.02856397
901,0.049402878
902,0.06592187
903,-0.02971201
904,-0.042257857
905,-0.034831118
906,-0.06412469
907,0.008063421
908,-0.035840884
909,-0.051858377
910,-0.04642116
911,-0.038425803
912,-0.013690921
913,-0.0018547757
914,-0.045932036
915,0.011861568
916,-0.020609934
917,-0.030870048
918,0.06843319
919,0.05651085
920,-0.005642063
921,0.0038035251
922,-0.04426408
923,-0.03946694
924,-0.081697375
925,0.020775447
926,-0.07562433
927,-0.040940154
928,-0.03947713
929,-0.030235946
930,-0.050822377
931,-0.022573484
932,-0.06739205
933,-0.10176478
934,-0.030667067
935,-0.061368246
936,-0.046120893
937,-0.06391928
938,-0.081471175
939,-0.034128852
940,0.008939319
941,-0.03651635
942,-0.017208448
943,-0.074170075
944,-0.07194104
945,-0.043135133
946,0.092198685
947,-0.05060989
948,0.056042954
949,-0.03174261
950,-0.055176545
951,-0.038116183
952,-0.020244977
953,0.014729668
954,-0.07501203
955,-0.04033652
956,-0.066120066
957,-0.07178677
958,-0.041092277
959,0.05146425
960,-0.03214142
961,0.062069893
962,-0.051498488
963,-0.047272045
964,-0.059428245
965,-0.025908843
966,-0.021732837
967,-0.05367813
968,0.06648246
969,-0.043416757
970,-0.021462305
971,-0.03186098
972,0.024964862
973,-0.052549083
974,-0.10116892
975,0.02449324
976,0.042040724
977,-0.013713454
978,-0.026026387
979,-0.05684714
980,-0.086843744
981,-0.0038551306
982,-0.00255635
983,-0.100131966
984,0.038003948
985,0.016129563
986,-0.049848042
987,-0.009726318
988,0.01717922
989,-0.049668852
990,-0.100423075
991,-0.055279616
992,-0.06567233
993,-0.04806768
994,-0.0323026
995,-0.05352411
996,-0.06420419
997,-0.122443296
998,-0.050503973
999,-0.0670558
1000,-0.06816086
1001,-0.03885417
1002,-0.032100804
1003,-0.06187379
1004,0.019619582
1005,-0.039327767
1006,0.1046662
1007,-0.03292644
1008,0.022561567
1009,-0.030538963
1010,0.021042714
1011,-0.063565955
1012,-0.075637266
1013,-0.056845836
1014,-0.036657773
1015,-0.033654217
1016,0.082539104
1017,-0.053330887
1018,-0.05294267
1019,-0.03614879
1020,-0.05768583
1021,-0.11700665
1022,-0.0063888305
1023,-0.036663834
1024,-0.03567845
1025,-0.049858786
1026,-0.052051235
1027,-0.084939905
1028,-0.061253585
1029,0.040323578
1030,-0.0019486707
1031,-0.030455133
1032,-0.042869315
1033,-0.029850576
1034,-0.064195275
1035,0.034067824
1036,-0.036261152
1037,-0.05159984
1038,-0.046956662
1039,-0.038219966
1040,-0.012307684
1041,0.018730361
1042,-0.04883609
1043,-0.04440222
1044,0.040963065
1045,-0.030706087
1046,0.025383048
1047,-0.033380438
1048,-0.04474356
1049,0.011529747
1050,-0.041402698
1051,-0.02836505
1052,-0.06929096
1053,0.032129187
1054,-0.07363241
1055,-0.040937945
1056,-0.030089974
1057,-0.03305982
1058,-0.049812462
1059,0.014149928
1060,-0.06739495
1061,-0.018685125
1062,-0.050163157
1063,-0.061021164
1064,-0.042598095
1065,-0.023596795
1066,-0.084572524
1067,-0.027811475
1068,0.019217428
1069,-0.036226757
1070,-0.031398386
1071,0.0023762945
1072,-0.010803733
1073,-0.04230647
1074,-0.055635076
1075,0.12620132
1076,-0.023376446
1077,-0.025661811
1078,-0.055046897
1079,-0.024803452
1080,-0.0023102374
1081,0.0327474
1082,-0.074360624
1083,-0.039220005
1084,-0.023670362
1085,-0.07138895
1086,-0.041655634
1087,-0.04029455
1088,-0.047333054
1089,-0.0024180857
1090,-0.046423804
1091,-0.04219346
1092,-0.07832873
1093,-0.047827072
1094,0.025717359
1095,-0.050855756
1096,-0.1158875
1097,-0.03909912
1098,-0.028511435
1099,-0.031255007
1100,0.0067840475
1101,-0.05238546
1102,0.010435377
1103,0.025680074
1104,0.014297645
1105,0.026792938
1106,-0.026073627
1107,0.036474343
1108,-0.02309857
1109,0.08140859
1110,0.019018907
1111,0.025610507
1112,0.02188254
1113,-0.00906982
1114,-0.050074343
1115,-0.031857472
1116,0.011024817
1117,-0.061212305
1118,0.017403373
1119,-0.054783337
1120,-0.046528414
1121,-0.04789587
1122,-0.005653753
1123,-0.028855694
1124,-0.04685953
1125,0.02637878
1126,-0.050315753
1127,-0.06680666
1128,-0.068095155
1129,-0.039013386
1130,-0.03275038
1131,-0.020609079
1132,-0.024306208
1133,-0.03890971
1134,0.009912576
1135,-0.035989467
1136,0.057532363
1137,-0.083111815
1138,0.050139055
1139,-0.06361665
1140,-0.04488643
1141,-0.05673997
1142,-0.037119385
1143,-0.03307262
1144,0.015247671
1145,0.004489093
1146,-0.042335134
1147,-0.036478736
1148,-0.05759032
1149,0.060351025
1150,-0.046389356
1151,-0.03619257
1152,-0.033836547
1153,-0.022525895
1154,-0.02908554
1155,-0.05172241
1156,-0.016664162
1157,-0.008765896
1158,0.025070615
1159,-8.585848e-05
1160,-0.04290136
1161,-0.0034573136
1162,-0.06446452
1163,0.04204601
1164,-0.030144842
1165,-0.051593356
1166,-0.046913844
1167,-0.038225472
1168,-0.045710806
1169,-0.03845834
1170,-0.050942376
1171,-0.010980484
1172,0.011600559
1173,-0.029747698
1174,-0.021756763
1175,-0.029488664
1176,-0.04496673
1177,0.017069409
1178,-0.008118282
1179,-0.039396923
1180,-0.05983225
1181,-0.01594867
1182,-0.03557357
1183,-0.04076345
1184,0.026046226
1185,-0.033703186
1186,-0.046654835
1187,0.0089056045
1188,-0.041687343
1189,0.022954343
1190,-0.05005444
1191,0.009856702
1192,-0.040541735
1193,-0.026050733
1194,-0.07192924
1195,-0.02249
1196,-0.024144601
1197,-0.035910167
1198,-0.05373755
1199,-0.036252886
1200,-0.0059677525
1201,-0.037851352
1202,-0.013918512
1203,0.08739744
1204,0.004870804
1205,-0.019763058
1206,-0.030801332
1207,0.023937479
1208,-0.067853525
1209,0.049212907
1210,-0.014257245
1211,-0.035923466
1212,-0.038480848
1213,-0.041531626
1214,-0.041407626
1215,-0.010362567
1216,-0.045805626
1217,0.042055666
1218,-0.019371947
1219,0.014317468
1220,-0.059521414
1221,0.043028366
1222,-0.03001904
1223,-0.053916708
1224,-0.016162368
1225,-0.03971545
1226,-0.021838585
1227,-0.031955495
1228,-0.052429758
1229,-0.04465621
1230,-0.0077873757
1231,-0.03822401
1232,-0.023507915
1233,-0.0046019712
1234,-0.026188543
1235,-0.020480545
1236,-0.021848455
1237,0.019777043
1238,-0.033654794
1239,-0.011997457
1240,-0.029485734
1241,-0.005628141
1242,-0.009870933
1243,0.041154664
1244,-0.0060385196
1245,-0.06342621
1246,-0.10554459
1247,-0.0561132
1248,-0.049250487
1249,-0.041157927
1250,0.012220503
1251,-0.014143751
1252,-0.067612015
1253,-0.026919996
1254,-0.050553486
1255,-0.02374588
1256,-0.055048082
1257,-0.007716462
1258,-0.03275138
1259,-0.031973183
1260,-0.020994576
1261,-0.036000405
1262,-0.022185467
1263,-0.036961462
1264,-0.040476203
1265,0.041531384
1266,-0.03565317
1267,-0.041387357
1268,-0.042630468
1269,-0.04193832
1270,-0.034701653
1271,-0.014680154
1272,0.03732471
1273,-0.039808944
1274,-0.02779017
1275,-0.03614447
1276,-0.057544824
1277,-0.02531291
1278,-0.03656218
1279,-0.03633885
1280,-0.032933604
1281,-0.0061739027
1282,-0.03190515
1283,-0.034189582
1284,-0.014349396
1285,0.0031295903
1286,0.041591696
1287,-0.020296864
1288,-0.042814706
1289,-0.029652236
1290,-0.01690507
1291,-0.014157976
1292,-0.017775107
1293,-0.03585164
1294,-0.00019320821
1295,-0.038440254
1296,0.005832281
1297,-0.010693223
1298,-0.027994946
1299,-0.041163914
1300,-0.021023948
1301,-0.027002066
1302,0.0054265847
1303,-0.014856238
1304,-0.039275926
1305,-0.00269426
1306,-0.045098983
1307,-0.02296851
1308,-0.03722419
1309,0.036205914
1310,0.0074226614
1311,-0.020114187
1312,0.054439675
1313,-0.031180082
1314,-0.044297
1315,-0.0012056208
1316,-0.019800564
1317,0.039238393
1318,-0.049976304
1319,-0.00586936
1320,-0.0011675779
1321,-0.059607435
1322,-0.0743619
1323,-0.02000843
1324,-0.019311495
1325,-0.00859813
1326,-0.029409455
1327,-0.025669375
1328,0.005178638
1329,-0.037518363
1330,0.007521459
1331,0.083453834
1332,0.03297028
1333,-0.006471709
1334,0.009789606
1335,0.021269124
1336,0.0057662716
1337,-0.0041972296
1338,-0.029473783
1339,-0.035414003
1340,-0.024933219
1341,-0.018322187
1342,-0.036281154
1343,-0.040905572
1344,-0.056975372
1345,-0.022483239
1346,-0.009630436
1347,-0.0003386674
1348,-0.05627391
1349,0.034369733
1350,-0.013123116
1351,-0.053532537
1352,0.010383668
1353,0.008287632
1354,-0.050956637
1355,-0.03170529
1356,-0.025862861
1357,-0.041945517
1358,0.018524116
1359,-0.055112075
1360,-0.004925194
1361,-0.025023345
1362,-0.026078345
1363,-0.01415889
1364,0.0005601446
1365,0.0038083366
1366,-0.024813065
1367,-0.049466666
1368,-0.02842014
1369,-0.023331568
1370,-0.020249607
1371,-0.021232378
1372,0.00935796
1373,-0.014950247
1374,-0.05094041
1375,-0.04565988
1376,-0.04276277
1377,-0.04400737
1378,-0.014494101
1379,-0.049570784
1380,-0.04999221
1381,0.042218123
1382,-0.035246518
1383,-0.016338598
1384,-0.033703286
1385,-0.03886689
1386,-0.032260846
1387,-0.011968339
1388,-0.007838282
1389,-0.01957564
1390,-0.024221824
1391,-0.033441357
1392,-0.045318127
1393,-6.296232e-05
1394,0.0012602009
1395,-0.055962298
1396,-0.043265212
1397,-0.04260006
1398,-0.0046525155
1399,-0.029327136
1400,-0.0075199287
1401,-0.05128821
1402,-0.052056205
1403,-0.03540632
1404,-0.033029396
1405,0.0019912068
1406,-0.022975763
1407,-0.027012862
1408,-0.014962534
1409,0.00082656345
1410,-0.0016778925
1411,0.010105671
1412,0.006764648
1413,-0.007921523
1414,0.0071184784
1415,0.0020094987
1416,0.009430392
1417,0.005691022
1418,0.006191813
1419,-0.009335392
1420,0.0040725376
1421,0.0069079176
1422,-0.006752085
1423,0.0011057765
1424,-0.010256242
1425,-0.016194416
1426,0.0022555762
1427,-0.002650413
1428,-0.006571714
1429,-0.01299607
1430,-0.0039708638
1431,0.008570895
1432,-0.014988217
1433,-0.004555079
1434,0.00860643
1435,-0.015094947
1436,0.014846731
1437,-0.012625717
1438,0.010478887
1439,-0.0077748243
1440,0.020717563
1441,0.007935866
1442,0.003609029
1443,-0.0001654792
1444,0.0024317028
1445,-0.01402468
1446,0.011897236
1447,-0.0050383704
1448,-0.0006182896
1449,0.0045960136
1450,0.011036493
1451,0.0024022835
1452,0.0017127155
1453,0.015500965
1454,0.008153049
1455,-0.0018494402
1456,0.010599729
1457,0.00806608
1458,-0.008391135
1459,0.017915796
1460,-0.011423055
1461,0.007819818
1462,-0.0089643635
1463,0.011772623
1464,-0.01848997
1465,-0.01066243
1466,-0.007677815
1467,-0.007445203
1468,-0.013742296
1469,0.016353697
1470,-0.019249609
1471,-0.00987315
1472,0.0140520735
1473,-0.002898645
1474,-0.006607719
1475,-0.0031509623
1476,-9.099602e-05
1477,-0.0064732255
1478,-0.0033303963
1479,0.014795506
1480,-0.00038528504
1481,0.007495689
1482,0.0010897786
1483,0.005278626
1484,0.005691657
1485,0.0028164487
1486,-0.008643368
1487,0.00413031
1488,-0.011641972
1489,-0.008044831
1490,0.008636179
1491,-0.003639836
1492,-0.0053415713
1493,0.00473743
1494,-0.0052704746
1495,-0.0092708
1496,-0.01095357
1497,0.005091171
1498,0.007820542
1499,-0.0032966407
1500,-0.0020247672
1501,0.0103085395
1502,-0.017716393
1503,0.0033774846
1504,0.00021464919
1505,-0.003979617
1506,0.007918017
1507,0.0074757026
1508,-0.009994957
1509,-0.0019474927
1510,-0.004946638
1511,0.00040066993
1512,-0.0018751632
1513,0.016384667
1514,0.015959177
1515,-0.004543949
1516,-0.006928157
1517,-0.005682303
1518,-0.017779738
1519,-0.0006695974
1520,0.008550511
1521,0.0007653362
1522,-0.019921139
1523,0.007575996
1524,-0.008497553
1525,0.0014864578
1526,0.009375622
1527,0.009123502
1528,-0.0002321356
1529,0.004767479
1530,0.011982187
1531,-0.0033352263
1532,-0.00200604
1533,0.0017155764
1534,0.012210254
1535,0.010434429
1536,-0.0020053678
1537,0.009764401
1538,-0.007710892
1539,0.012159941
1540,-0.0044343504
1541,0.017586173
1542,-0.0042632218
1543,0.009565915
1544,0.017472424
1545,-0.017576879
1546,-0.010183265
1547,0.010068086
1548,0.000425808
1549,-0.005746774
1550,-0.0108626615
1551,-0.007769409
1552,0.015860923
1553,0.0012376242
1554,-0.0020464838
1555,-0.0031178766
1556,0.008442182
1557,-0.012451156
1558,-0.010807612
1559,-0.00526165
1560,0.00014775641
1561,-0.016600868
1562,-0.0058691185
1563,0.007285205
1564,0.0064201853
1565,-0.007480514
1566,-0.007258361
1567,-0.0063838004
1568,0.017873013
1569,0.008042238
1570,0.008743661
1571,0.017048959
1572,0.01374101
1573,0.0024516177
1574,-0.004535349
1575,-0.0046627712
1576,-0.009661647
1577,-0.009165706
1578,-0.015899854
1579,0.008452907
1580,-0.0144461775
1581,-0.011271979
1582,-0.0032702058
1583,0.0024731397
1584,-0.011984259
1585,0.000990824
1586,0.009046171
1587,0.013315558
1588,-0.0028802713
1589,0.009143947
1590,0.0053555267
1591,-0.0037951686
1592,-0.011699404
1593,0.0022496579
1594,-0.0052753002
1595,-0.010052664
1596,0.006828701
1597,-0.0019665146
1598,-0.00446745
1599,0.0026658585
1600,-0.014502187
1601,0.0076541505
1602,0.004994918
1603,0.0011391474
1604,-0.008044426
1605,0.0063555934
1606,-0.010124602
1607,0.005789866
1608,-0.002254646
1609,-0.0039826976
1610,-0.0037485377
1611,0.0040760185
1612,-0.014294037
1613,-0.016657677
1614,0.006593611
1615,0.0071515855
1616,-0.004032069
1617,0.0001536279
1618,-0.00065997464
1619,-0.018158436
1620,0.0038385454
1621,-0.0065184156
1622,0.0007086834
1623,-0.0131680835
1624,-0.016276728
1625,0.0022862973
1626,-0.00024188141
1627,0.004582551
1628,-0.0016132323
1629,0.015701307
1630,0.011788841
1631,0.009435899
1632,0.0057918117
1633,0.009771502
1634,0.013257035
1635,-0.0073408624
1636,0.002972423
1637,-0.004745048
1638,-0.017116645
1639,0.012727985
1640,0.0017395761
1641,-0.00683554
1642,-0.0062587196
1643,-0.0012903993
1644,0.008151742
1645,-0.00047753355
1646,-0.008384219
1647,-0.0027484943
1648,-0.007948308
1649,-0.004842047
1650,0.0022156185
1651,0.0011997375
1652,-0.003863393
1653,0.0012355625
1654,0.007565215
1655,0.0018486131
1656,-0.01765444
1657,0.01141641
1658,-0.0064242226
1659,-0.009147272
1660,0.010602908
1661,0.009367035
1662,0.012263679
1663,-0.0039437083
1664,-0.012468347
1665,-0.0073114512
1666,-0.0067858277
1667,-0.0017460409
1668,0.019855676
1669,-0.011894788
1670,0.015197022
1671,-0.004113546
1672,0.005764595
1673,-0.0028657012
1674,-0.0003659812
1675,-0.0177048
1676,0.0064896904
1677,-0.0070143193
1678,-0.013379427
1679,-0.008046314
1680,0.003744573
1681,-0.011601662
1682,0.0062462734
1683,-0.012629356
1684,0.0019038442
1685,0.0015618075
1686,-0.007067134
1687,-0.004610138
1688,-0.015033034
1689,0.007051655
1690,-0.007796188
1691,-0.0021577743
1692,-0.009160023
1693,0.006398355
1694,-0.000121584766
1695,0.007381588
1696,0.0046764296
1697,0.0027530685
1698,-0.00073721656
1699,-0.009473877
1700,0.0124986
1701,-0.016870333
1702,0.01756387
1703,-0.018683173
1704,-0.00564803
1705,-0.01741766
1706,-0.0013315014
1707,0.009479768
1708,-0.005748325
1709,0.009682966
1710,-0.0008353747
1711,0.0048952918
1712,0.0005707231
1713,0.0028492818
1714,-0.0052060517
1715,0.0012414069
1716,0.011967376
1717,0.0013853888
1718,0.012876577
1719,0.005152089
1720,-0.009466803
1721,0.005396338
1722,0.004310003
1723,0.006683806
1724,0.0005861108
1725,0.015540524
1726,0.009195259
1727,-0.0074713654
1728,-0.0012266707
1729,-0.012340526
1730,0.007196894
1731,0.011043538
1732,-0.011156338
1733,-0.0067065945
1734,0.016550753
1735,-0.0069755446
1736,0.005271899
1737,-0.0065398067
1738,0.0020525453
1739,-0.0127256
1740,0.0008856692
1741,-0.0039161057
1742,0.0018890065
1743,0.004423021
1744,0.007971166
1745,-0.008862764
1746,-0.0020339508
1747,0.0078037223
1748,-0.0019449084
1749,0.00084262196
1750,-0.0132123325
1751,0.009561054
1752,0.008697538
1753,0.012638515
1754,0.0028028435
1755,-0.008100322
1756,-0.0053336625
1757,0.0024835833
1758,0.0012965896
1759,0.01669389
1760,0.0033819722
1761,0.007256398
1762,-0.0044606603
1763,0.005369093
1764,-0.009452997
1765,0.007759617
1766,-0.004487806
1767,-0.0077458015
1768,-0.0037888098
1769,-0.0104247695
1770,-0.009747763
1771,0.017384585
1772,0.010883433
1773,-0.005676643
1774,-0.017335594
1775,-0.0055319187
1776,-0.008194417
1777,-0.0065612243
1778,-0.00059481495
1779,0.010744731
1780,-0.008843085
1781,0.0175307
1782,-0.010110593
1783,0.0037818213
1784,0.0050434885
1785,-0.011002708
1786,-0.0062447065
1787,0.0025341318
1788,0.01774364
1789,0.011896237
1790,-0.015654918
1791,-0.006522184
1792,-0.0018024707
1793,0.0056768493
1794,0.013968107
1795,-0.004358643
1796,-0.00433269
1797,-0.00022844714
1798,-0.014296449
1799,0.015944293
1800,-0.017594097
1801,0.0073341825
1802,-0.0012469235
1803,0.0031663089
1804,-0.0034050005
1805,-0.004444926
1806,0.003837214
1807,-0.006545498
1808,0.008933731
1809,0.0079959305
1810,-0.008978937
1811,0.0034636252
1812,-0.011171414
1813,-0.0084457835
1814,-0.0025386908
1815,0.0004347477
1816,-0.0073993653
1817,-0.0048884256
1818,0.00293378
1819,0.00170476
1820,-0.00058496976
1821,0.0020371857
1822,0.0013196676
1823,-0.009443053
1824,0.0056642527
1825,0.016198779
1826,0.018461691
1827,-0.012515894
1828,0.017747104
1829,0.010474652
1830,0.01888631
1831,0.0087143285
1832,-0.002672725
1833,0.0066057383
1834,0.0062585655
1835,0.011672126
1836,-0.002042608
1837,-0.0147027625
1838,-0.013219166
1839,0.0007685035
1840,0.005313761
1841,-0.007137812
1842,0.00088802964
1843,-0.002057456
1844,0.009534965
1845,-0.009828835
1846,-0.00055997766
1847,-0.0013885888
1848,0.016821114
1849,0.008195755
1850,0.0009904344
1851,0.0021602842
1852,-0.008534177
1853,0.005124089
1854,0.0051195263
1855,0.01603189
1856,-0.0026150355
1857,0.019848535
1858,0.0060311365
1859,-0.0006907082
1860,0.008240737
1861,0.010612054
1862,-0.014141495
1863,0.0006387106
1864,0.00466797
1865,0.0024040695
1866,-0.015018185
1867,0.009912332
1868,0.005782155
1869,-0.004806673
1870,0.008940025
1871,0.0012583743
1872,0.0042565675
1873,-0.0070836907
1874,0.000330743
1875,0.0085013695
1876,-0.007715223
1877,0.017909652
1878,-0.0029039823
1879,-0.0013385566
1880,0.003967302
1881,0.015113177
1882,0.009715598
1883,-0.0137586985
1884,0.0011304214
1885,0.01813663
1886,0.001221082
1887,0.015902925
1888,0.0055648247
1889,-0.001534288
1890,0.009770777
1891,0.0047363723
1892,-0.0060675507
1893,0.0058611715
1894,-0.0046751546
1895,0.005110318
1896,0.004861028
1897,-0.009821416
1898,0.0002488035
1899,0.010868759
1900,-0.003826699
1901,-0.012137807
1902,-0.002872594
1903,0.009885248
1904,0.0014658514
1905,0.008783266
1906,0.00663104
1907,0.011227531
1908,0.011179121
1909,0.0018375673
1910,-0.010060893
1911,-0.018230302
1912,-0.0005969946
1913,-0.0068195355
1914,-0.0027472612
1915,0.005298364
1916,0.015583064
1917,0.0046845446
1918,-0.013979875
1919,0.014668666
1920,-0.0009021699
1921,-0.0018582602
1922,-0.006553205
1923,-0.0029635152
1924,-0.003136528
1925,0.0020939086
1926,-0.004584513
1927,0.00036289013
1928,-0.004371775
1929,0.012356041
1930,-0.0042466656
1931,0.009180532
1932,0.007987377
1933,-0.013159715
1934,0.00538198
1935,0.013699659
1936,-0.0050634667
1937,0.0027742782
1938,0.011949552
1939,-0.0052979854
1940,-0.015108468
1941,0.005568188
1942,-0.012077898
1943,0.004279678
1944,-0.012823693
1945,0.0047027627
1946,-0.0074121025
1947,-0.0074624727
1948,-0.014328774
1949,-0.0046797963
1950,0.016138278
1951,0.0030239525
1952,-0.004278042
1953,0.00863128
1954,-0.017319636
1955,0.0043372153
1956,0.0010472216
1957,-0.0011156969
1958,0.015606234
1959,0.0085285455
1960,0.016642073
1961,0.006954028
1962,0.018536584
1963,-0.0057100183
1964,-0.001964602
1965,0.0012317231
1966,-0.009920394
1967,0.006561705
1968,-0.0032057618
1969,-0.0005454171
1970,-0.01083249
1971,0.008097906
1972,0.0030636648
1973,-0.012101505
1974,-0.0010868377
1975,-0.00057219074
1976,0.01003653
1977,0.003282985
1978,-0.0031974798
1979,0.018139446
1980,0.0031789853
1981,-1.9296873e-05
1982,-0.0063022887
1983,0.00811756
1984,-0.004254311
1985,-0.0072956155
1986,-0.0072903805
1987,0.014340567
1988,0.00032587154
1989,-0.00013746785
1990,0.003627825
1991,-0.0015022424
1992,0.008615051
1993,-0.0019315311
1994,0.0073103094
1995,-0.014165808
1996,-0.009114725
1997,-0.00018419251
1998,-0.010393621
1999,-0.008549069
2000,-0.00078046
2001,-0.0051505975
2002,-0.002484417
2003,0.007889047
2004,0.003660627
2005,-0.00064135034
2006,0.013748081
2007,0.011352387
2008,-0.0014221205
2009,-0.009702999
2010,0.0057185018
2011,-0.006441565
2012,0.011274661
2013,0.0113602625
2014,0.0019609772
2015,0.0077309296
2016,0.0011723334
2017,-0.012731412
2018,-0.0036924856
2019,-0.008748224
2020,0.00010248521
2021,-0.0030589774
2022,-0.015218237
2023,0.0029044044
2024,-0.0027118553
2025,-0.0065564397
2026,0.0060297446
2027,0.00296966
2028,0.003889227
2029,-0.008430927
2030,-0.0074067875
2031,-0.0057284627
2032,0.0047382335
2033,-0.0014235257
2034,-0.019012181
2035,-0.006648592
2036,-0.011790226
2037,0.007657384
2038,-0.014301626
2039,0.001799283
2040,0.018239303
2041,0.01367615
2042,-0.0062299757
2043,0.01694554
2044,-0.003504617
2045,0.0061775236
2046,0.019243658
2047,0.016090367
2048,0.0056676106
2049,-0.0023208484
2050,0.01071816
2051,0.0057532033
2052,0.0035324602
2053,-0.0058941753
2054,-0.004704174
2055,-0.008491776
2056,0.0059441584
2057,0.006446747
2058,-0.0040626912
2059,0.003749567
2060,0.011976635
2061,-0.008238998
2062,0.0007493195
2063,-3.3827637e-05
2064,-0.007125357
2065,0.009319479
2066,0.011102712
2067,-0.0072581205
2068,0.013346395
2069,-0.006618749
2070,0.0030485513
2071,-0.0014178433
2072,0.0019689251
2073,-0.0045242202
2074,0.010482565
2075,-0.0064826976
2076,0.0046332516
2077,0.00357182
2078,0.0013479342
2079,-0.0020757725
2080,0.008262832
2081,-0.003524689
2082,0.0025569922
2083,-0.0011417787
2084,0.0055122166
2085,0.0063415417
2086,-0.006385759
2087,-0.009460127
2088,-0.0045697154
2089,-0.0047007734
2090,-0.017816808
2091,0.006512596
2092,-0.01493375
2093,-0.0028752028
2094,0.0013172878
2095,0.008202046
2096,0.0067844526
2097,0.005741169
2098,-0.01028485
2099,-0.00576236
2100,-0.0029397854
2101,-0.00216073
2102,-0.0008061318
2103,0.010984643
2104,0.008353027
2105,0.0086745005
2106,0.011520101
2107,0.007825258
2108,0.009482245
2109,0.010100794
2110,-0.00090954703
2111,-0.009602832
2112,-0.014801483
2113,0.0071959975
2114,0.0078622475
2115,0.0011701724
2116,0.011609538
2117,-0.0009288243
2118,-0.009402385
2119,-0.0051474315
2120,0.004963814
2121,-0.002835839
2122,0.0068938415
2123,0.0072065517
2124,-0.012351936
2125,0.017639741
2126,-0.01135461
2127,-0.0058355806
2128,-0.010141011
2129,-0.0076295957
2130,-0.012091781
2131,0.0036278723
2132,0.008646137
2133,-0.012928807
2134,0.012795143
2135,-0.004936711
2136,-0.00017773535
2137,-0.005204058
2138,-0.01745608
2139,-0.0134787755
2140,0.014728395
2141,-0.011160104
2142,-0.0037134325
2143,-0.008932132
2144,0.018729176
2145,0.008496164
2146,0.0057562804
2147,0.017625334
2148,-0.011874874
2149,0.013226779
2150,-0.0029173421
2151,-0.014509535
2152,-0.005118452
2153,-0.0056709503
2154,-0.009749229
2155,-0.018522048
2156,-0.0015142551
2157,0.0050710766
2158,-0.0047251857
2159,0.007458413
2160,0.003229101
2161,-0.009451015
2162,0.014340738
2163,0.006562589
2164,0.003944333
2165,0.008429952
2166,-0.00089019246
2167,0.0008173378
2168,0.00756485
2169,-0.009250956
2170,-0.011130228
2171,-0.005837326
2172,0.00728146
2173,0.013333587
2174,-0.009123266
2175,-0.012412773
2176,0.03132402
2177,0.021881802
2178,0.02878122
2179,0.01567041
2180,-0.07491551
2181,0.053396974
2182,0.032970827
2183,-0.06480213
2184,0.023147818
2185,0.011800096
2186,-0.0023397873
2187,-0.08326958
2188,0.014744111
2189,0.024835324
2190,0.030328352
2191,0.037160814
2192,0.050641257
2193,0.018522615
2194,-0.06575753
2195,-0.019558007
2196,0.028460296
2197,0.025059748
2198,0.042166915
2199,0.059623465
2200,0.041806314
2201,0.016707294
2202,0.08598239
2203,-0.0008894244
2204,0.08005852
2205,0.043086942
2206,-0.06824556
2207,0.024061352
2208,0.021303987
2209,0.029712979
2210,0.043445475
2211,0.03739742
2212,-0.07836789
2213,0.0151790185
2214,0.04947591
2215,0.05939537
2216,0.037328225
2217,-0.03529212
2218,0.08094348
2219,-0.0012396204
2220,-0.070554025
2221,0.0025854777
2222,-0.07405266
2223,-0.072076544
2224,-0.066513956
2225,0.036809187
2226,0.024317874
2227,-0.025359321
2228,0.062412143
2229,0.05524426
2230,0.0483607
2231,0.052279543
2232,-0.009944782
2233,0.0018604259
2234,-0.06803313
2235,0.03399865
2236,-0.072156005
2237,0.070202336
2238,0.037485685
2239,-0.035518233
2240,0.06773315
2241,0.033620585
2242,0.04581985
2243,0.033765525
2244,0.027771385
2245,0.04473492
2246,-0.07238817
2247,-0.0554115
2248,0.009695304
2249,0.02740996
2250,-0.08915
2251,0.015454535
2252,-0.001261055
2253,0.038564768
2254,0.040358838
2255,0.058086723
2256,0.04120179
2257,0.046215642
2258,0.021866668
2259,0.027512116
2260,0.02971038
2261,0.020852184
2262,0.094789766
2263,0.025974203
2264,0.048314285
2265,0.043980952
2266,0.027130086
2267,0.06893128
2268,0.0363111
2269,-0.06322458
2270,0.023912558
2271,-0.048169907
2272,-0.0580083
2273,0.047237996
2274,-0.07343382
2275,0.04657642
2276,-0.01773584
2277,0.023642013
2278,0.034416754
2279,0.018891633
2280,0.011986381
2281,-0.08038735
2282,0.023653317
2283,0.060306985
2284,-0.06673485
2285,0.013510733
2286,0.0060091517
2287,0.026502807
2288,-0.03354655
2289,0.023304848
2290,-0.0035534685
2291,0.06254434
2292,-0.07606305
2293,0.05451392
2294,0.02971469
2295,0.025745092
2296,0.000824566
2297,0.035034176
2298,-0.00078686496
2299,0.03429669
2300,0.050969984
2301,0.047789928
2302,0.019084461
2303,0.012272514
2304,0.014138884
2305,0.08939953
2306,-0.006212249
2307,0.08388676
2308,-0.075341776
2309,-0.00031462676
2310,0.027856708
2311,-0.06477399
2312,0.041734014
2313,0.029118884
2314,0.01794341
2315,0.15228933
2316,-0.0006851955
2317,0.029406285
2318,0.03454701
2319,0.0348225
2320,0.021667106
2321,0.008266733
2322,0.06071966
2323,0.004905659
2324,-0.06994898
2325,0.022857707
2326,-0.033657853
2327,0.027899507
2328,0.044195794
2329,0.024185833
2330,0.038342487
2331,0.021017719
2332,-0.08339088
2333,0.048663765
2334,-0.068388686
2335,0.037930384
2336,0.034435585
2337,0.022864262
2338,0.0165851
2339,0.009989167
2340,0.06371624
2341,0.015052833
2342,0.028287744
2343,-0.06374903
2344,0.008078489
2345,-0.068247415
2346,0.06370679
2347,-0.066226825
2348,-0.070352234
2349,0.03263105
2350,0.051378082
2351,0.031637363
2352,-0.067066
2353,0.029405802
2354,0.018208178
2355,-0.033375442
2356,-0.0013190386
2357,0.0169214
2358,0.028546281
2359,-0.0008935049
2360,-0.0020674518
2361,-0.097563006
2362,0.07199786
2363,0.03197605
2364,0.06299266
2365,-0.07265512
2366,0.03713813
2367,0.019016044
2368,-0.06257081
2369,-0.0051527917
2370,0.022156036
2371,0.022344649
2372,-0.027624141
2373,0.0402064
2374,0.05690019
2375,-0.055151515
2376,0.028578162
2377,-0.013356984
2378,0.0826911
2379,0.02996698
2380,0.07351701
2381,0.047907148
2382,0.018849423
2383,0.046961736
2384,-0.009490833
2385,0.025560135
2386,-0.018602168
2387,0.008381948
2388,0.021250676
2389,-0.009931808
2390,0.061606653
2391,0.085965894
2392,0.04702811
2393,0.032425664
2394,0.02777217
2395,-0.08699751
2396,0.056555983
2397,-0.06349428
2398,-0.0036888015
2399,-0.0032257994
2400,0.063878156
2401,0.040381204
2402,-0.09075284
2403,0.02151173
2404,-0.0031890443
2405,-0.0049659396
2406,0.031564545
2407,0.008227687
2408,0.027176779
2409,-0.08034939
2410,0.029778065
2411,-0.07369231
2412,-0.067087166
2413,-0.007721585
2414,-0.021896454
2415,0.031145025
2416,0.106191196
2417,-0.0005944849
2418,-0.018396614
2419,-0.05507271
2420,-0.076168865
2421,-0.06055457
2422,0.02551391
2423,-0.0021414603
2424,0.07754675
2425,0.019143645
2426,0.035307642
2427,0.03432105
2428,-0.06627346
2429,0.021815708
2430,0.03801671
2431,0.03220214
2432,0.0012904473
2433,-0.02932097
2434,0.030411575
2435,0.062871575
2436,0.059235595
2437,0.042680465
2438,-0.057737667
2439,0.011112221
2440,0.022805523
2441,-0.03500838
2442,0.063830055
2443,0.041973177
2444,0.015752692
2445,0.027505098
2446,0.02366678
2447,-0.008632741
2448,0.038317364
2449,0.017699512
2450,0.045744207
2451,0.092547916
2452,-0.046338122
2453,-0.036420394
2454,0.02444939
2455,-0.01569
2456,-0.025762754
2457,0.0900065
2458,-0.0036806567
2459,-0.00021765371
2460,-0.08338687
2461,-0.04007892
2462,-0.06850345
2463,0.015435708
2464,0.018308826
2465,-0.039602764
2466,-0.015910434
2467,0.013435886
2468,0.038632546
2469,-0.030184602
2470,-0.038006
2471,0.022934915
2472,0.0020420898
2473,-0.04367627
2474,-0.015846232
2475,0.033893064
2476,0.064318
2477,0.0028075203
2478,0.052344266
2479,0.073585905
2480,0.0710586
2481,-0.047174014
2482,0.022547007
2483,0.04040569
2484,0.06272226
2485,-0.00020689904
2486,0.053745035
2487,0.050510783
2488,-0.03572871
2489,-0.09735468
2490,0.03688593
2491,-0.04912234
2492,0.017104879
2493,0.04031108
2494,-0.05697299
2495,0.10846283
2496,0.031760074
2497,-0.0002188145
2498,3.0509658e-05
2499,0.01211419
2500,0.059527908
2501,-0.047640543
2502,0.095449306
2503,-0.05560748
2504,0.006143243
2505,-0.048609335
2506,-0.08885302
2507,0.028429711
2508,0.019712847
2509,-0.04869717
2510,-0.012264357
2511,0.015131405
2512,-0.027596608
2513,-0.02045747
2514,-0.06376567
2515,-0.0068576336
2516,0.06453565
2517,-0.0654523
2518,0.06232743
2519,0.001627228
2520,0.0016334922
2521,-0.06836695
2522,-0.048110913
2523,-0.08699297
2524,0.030111447
2525,0.06275684
2526,0.015108944
2527,-0.06659116
2528,0.025304135
2529,-0.057784352
2530,0.02792212
2531,-0.0076680775
2532,-0.056102805
2533,-0.07572737
2534,0.049934275
2535,-0.02024058
2536,0.05950999
2537,0.037068915
2538,-0.013537053
2539,0.021138065
2540,0.080075584
2541,-0.027116286
2542,-0.024664009
2543,-0.009128506
2544,0.058348686
2545,0.033155426
2546,-0.12674302
2547,0.028511655
2548,0.0449755
2549,0.024537904
2550,-0.04206449
2551,0.028552497
2552,0.07175384
2553,-0.039951693
2554,0.05279465
2555,-0.034469374
2556,0.022938238
2557,-0.037078515
2558,0.04936659
2559,-0.057063654
2560,-0.051181246
2561,0.04632735
2562,-0.033637825
2563,-0.025484225
2564,-0.07499283
2565,0.038228873
2566,-0.0024015002
2567,-0.059954096
2568,-0.044825632
2569,-0.037201878
2570,0.053925753
2571,0.029024454
2572,0.013570434
2573,0.05095213
2574,0.0065473993
2575,-0.039649606
2576,-0.056105714
2577,0.1180169
2578,-0.04504572
2579,0.09704192
2580,0.07209392
2581,-0.009633565
2582,-0.063875936
2583,-0.018988265
2584,-0.056928646
2585,0.065897524
2586,0.0421846
2587,0.03878318
2588,-0.08340665
2589,-0.03997138
2590,0.054075126
2591,-0.00018004228
2592,0.06450801
2593,-0.039672278
2594,-0.050511222
2595,-0.058671813
2596,-0.07830124
2597,-0.05490375
2598,-0.03804876
2599,-0.05106456
2600,0.011333491
2601,-0.06822097
2602,0.084252246
2603,0.049532477
2604,-0.07056433
2605,-0.039899863
2606,-0.00353106
2607,-0.01859877
2608,-0.044543296
2609,-0.04691297
2610,-0.030516125
2611,0.050260328
2612,0.036467034
2613,-0.019597035
2614,-0.038140047
2615,-0.0126327835
2616,0.024976157
2617,-0.090251856
2618,-0.06738921
2619,0.033246044
2620,-0.07232236
2621,-0.072438635
2622,-0.056366507
2623,0.05052019
2624,0.04305337
2625,-0.061704136
2626,0.023505647
2627,0.0025612772
2628,0.07698317
2629,-0.00097257434
2630,-0.007507529
2631,-0.055569
2632,-0.04065052
2633,0.017186098
2634,0.047965772
2635,-0.03525256
2636,-0.071334355
2637,-0.04894491
2638,0.04784458
2639,0.007878024
2640,0.08346893
2641,-0.031249855
2642,-0.06403828
2643,-0.0540875
2644,-0.02674181
2645,0.045795698
2646,-0.011154477
2647,0.020719267
2648,-0.057055287
2649,-0.07766799
2650,-0.031209381
2651,-0.08694997
2652,-0.07269268
2653,-0.060563173
2654,0.042651266
2655,-0.06647909
2656,0.05751441
2657,-0.05727396
2658,-0.016673818
2659,-0.052804433
2660,0.06672335
2661,-0.075592525
2662,0.022724016
2663,-0.020172814
2664,-0.0027079908
2665,-0.07978219
2666,-0.037709575
2667,-0.072873436
2668,-0.030074669
2669,-0.04479583
2670,-0.010250213
2671,-0.038136333
2672,0.0384876
2673,0.010669347
2674,0.10350188
2675,-0.037137065
2676,0.074469626
2677,0.034345035
2678,-0.04188821
2679,-0.06967137
2680,0.024686268
2681,-0.03992737
2682,0.015210002
2683,-0.021593023
2684,0.055763133
2685,-0.07440975
2686,0.041692898
2687,0.025351675
2688,-0.05118918
2689,0.04211092
2690,-0.03611294
2691,0.019688569
2692,-0.07564635
2693,-0.09988761
2694,0.057567827
2695,-0.009605989
2696,-0.044183034
2697,-0.037582174
2698,-0.029370572
2699,0.07521795
2700,0.007952475
2701,-0.0349333
2702,-0.041614395
2703,-0.039809212
2704,0.006990637
2705,-0.008435095
2706,-0.035823166
2707,-0.07146438
2708,0.048594125
2709,-0.03654667
2710,-0.033401284
2711,-0.014493902
2712,-0.044452775
2713,0.039764658
2714,-1.7437349e-05
2715,-0.035642277
2716,0.042429004
2717,0.027809516
2718,-0.06851865
2719,-0.044701118
2720,0.08062755
2721,-0.03954031
2722,0.0037801173
2723,0.015084354
2724,-0.03730957
2725,-0.0020884522
2726,-0.03794914
2727,-0.036115192
2728,-0.0021136443
2729,0.06318252
2730,0.064047955
2731,-0.04884162
2732,0.036287986
2733,-0.039924107
2734,0.023091897
2735,-0.0004320076
2736,-0.06656905
2737,-0.04673995
2738,-0.02211353
2739,0.039923057
2740,-0.09441161
2741,-0.056406654
2742,-0.07248466
2743,-0.0021154592
2744,-0.027564898
2745,-3.630461e-05
2746,-0.02894332
2747,-0.048834898
2748,-0.028115291
2749,-0.06325793
2750,-0.056315325
2751,0.06538689
2752,-0.062478244
2753,-0.0010056336
2754,-0.010079719
2755,-0.042018928
2756,0.027493255
2757,-0.04780151
2758,0.093057156
2759,0.05241122
2760,-0.022453686
2761,-0.048978586
2762,-0.08912604
2763,-0.015985608
2764,0.12316075
2765,-0.02265672
2766,-0.019431725
2767,0.044623815
2768,0.034970056
2769,-0.027627874
2770,-0.016401969
2771,0.07095569
2772,0.013606753
2773,0.022774713
2774,0.055176478
2775,0.017750407
2776,-0.023998788
2777,-0.07767882
2778,0.04446221
2779,-0.04781291
2780,-0.005177695
2781,0.048654087
2782,0.053297818
2783,0.056806292
2784,-0.05678512
2785,-0.010437199
2786,-0.0762368
2787,-0.054908153
2788,-0.06700317
2789,-0.07268062
2790,-0.024645818
2791,0.06620022
2792,0.06773748
2793,-0.07972959
2794,-0.037684247
2795,-0.07364584
2796,-0.023828844
2797,-0.044820677
2798,0.043087933
2799,-0.03824322
2800,0.039358813
2801,-0.017330453
2802,0.024195982
2803,-0.05530645
2804,0.03410168
2805,-0.03865046
2806,-0.022423076
2807,0.026949482
2808,0.075457565
2809,-0.018663473
2810,-0.020127935
2811,-0.03465989
2812,-0.06603247
2813,0.016349537
2814,0.006446891
2815,-0.05688075
2816,-0.05115453
2817,-0.028824527
2818,-0.033421915
2819,0.05774635
2820,-0.07561595
2821,0.035024907
2822,0.07608505
2823,-0.06482603
2824,-0.041580234
2825,-0.019919213
2826,-0.02967586
2827,0.051521618
2828,-0.022855472
2829,-0.04088098
2830,-0.021263672
2831,-0.03988789
2832,0.07287154
2833,-0.05272315
2834,-0.01866595
2835,-0.012939987
2836,-0.077869505
2837,-0.036747333
2838,0.049387556
2839,-0.012644836
2840,0.0053106104
2841,-0.0018953034
2842,0.07149481
2843,-0.04047836
2844,-0.083109215
2845,-0.040062092
2846,0.07511593
2847,-0.0059594256
2848,0.01295013
2849,-0.039766673
2850,-0.026481051
2851,0.07273256
2852,-0.06810869
2853,0.059442066
2854,-0.020521283
2855,0.020387243
2856,-0.002570655
2857,-0.03428075
2858,-0.015778324
2859,-0.065966435
2860,-0.059775785
2861,-0.03988717
2862,0.026396614
2863,0.025719216
2864,-0.01994202
2865,-0.04706368
2866,0.03390064
2867,0.034698803
2868,0.04802691
2869,0.002779998
2870,-0.04217714
2871,-0.00064969534
2872,-0.02324975
2873,-0.0052357903
2874,-0.067401074
2875,-0.0490817
2876,-0.027239377
2877,-0.025328131
2878,-0.05621502
2879,0.009788953
2880,-0.042629804
2881,0.02029765
2882,0.03756964
2883,0.021800596
2884,-0.027574513
2885,-0.0016556263
2886,0.038522564
2887,-0.05432188
2888,-0.02095962
2889,-0.03566423
2890,-0.049495116
2891,-0.035273697
2892,-0.007264463
2893,-0.048970785
2894,-0.117668726
2895,0.005478885
2896,-0.06800874
2897,0.0140320305
2898,-0.012959019
2899,-0.036497474
2900,-0.036961436
2901,0.031186443
2902,-0.019693572
2903,-0.064992204
2904,0.08946571
2905,-0.0777945
2906,-0.045169726
2907,-0.03877494
2908,0.0550063
2909,0.007026463
2910,0.049405973
2911,-0.066722415
2912,-0.057299662
2913,-0.057711072
2914,-0.06485179
2915,-0.055107884
2916,-0.0681101
2917,0.03334438
2918,-0.031476654
2919,-0.030194402
2920,0.023546671
2921,-0.080085635
2922,-0.0152285015
2923,-0.07339036
2924,-0.01737645
2925,-0.04494947
2926,0.021453502
2927,-0.038384754
2928,-0.07293597
2929,-0.0064247176
2930,-0.017358325
2931,-0.05522942
2932,-0.036490094
2933,-0.031409513
2934,-0.026120698
2935,-0.07033671
2936,-0.05077783
2937,0.053176023
2938,-0.050771654
2939,-0.035023786
2940,-0.03857691
2941,-0.12194442
2942,-0.006484415
2943,-0.056917306
2944,-0.051224172
2945,0.040088084
2946,-0.040424444
2947,-0.025911078
2948,-0.07516745
2949,-0.060804076
2950,-0.06673029
2951,-0.047712673
2952,-0.046167914
2953,-0.005525642
2954,-0.02970505
2955,-0.021999877
2956,-0.024173407
2957,-0.041537203
2958,0.046101306
2959,-0.03960884
2960,0.024413928
2961,-0.019089498
2962,-0.018201381
2963,-0.039685223
2964,0.017632078
2965,-0.0373472
2966,-0.06874873
2967,-0.05752497
2968,-0.035371494
2969,-0.004681198
2970,-0.012224469
2971,-0.041628897
2972,-0.0437355
2973,-0.039968774
2974,-0.066272244
2975,-0.044450067
2976,0.017381866
2977,-0.039756257
2978,0.0045045502
2979,0.023301674
2980,-0.07847651
2981,0.101382144
2982,-0.037971057
2983,-0.026514359
2984,-0.04487844
2985,-0.026929224
2986,-0.015977483
2987,-0.027396591
2988,-0.03456712
2989,-0.020714782
2990,0.02778868
2991,0.056479342
2992,-0.06662169
2993,-0.031867012
2994,-0.092691205
2995,0.00026469037
2996,-0.057717137
2997,-0.05436581
2998,0.0176147
2999,-0.035259426
3000,-0.035615306
3001,-0.013153867
3002,-0.067466155
3003,-0.049190763
3004,-0.072466694
3005,-0.032738455
3006,-0.05631892
3007,-0.053690694
3008,-0.062026303
3009,-0.06284261
3010,-0.027334427
3011,0.034205336
3012,-0.027208911
3013,0.026770147
3014,0.017604852
3015,-0.05453749
3016,-0.06698338
3017,-0.048956428
3018,-0.05096926
3019,-0.035380002
3020,-0.027149519
3021,-0.035830233
3022,0.10068984
3023,-0.026292812
3024,-0.0404612
3025,-0.031227954
3026,0.02534808
3027,0.04127404
3028,0.086420886
3029,-0.08210628
3030,-0.019637983
3031,0.09971449
3032,-0.05732484
3033,-0.039668784
3034,0.049331695
3035,-0.04275144
3036,-0.03271384
3037,-0.06317097
3038,0.019982947
3039,-0.06672548
3040,-0.057732895
3041,-0.046318095
3042,-0.019385478
3043,-0.04945781
3044,-0.06828469
3045,0.12157674
3046,-0.044933412
3047,-0.031387478
3048,0.02966673
3049,-0.0800232
3050,-0.03773195
3051,-0.07328201
3052,0.020325419
3053,-0.044507228
3054,0.0579847
3055,-0.044674404
3056,-0.04981488
3057,0.007900516
3058,-0.02076219
3059,-0.055455167
3060,0.015689481
3061,-0.060601592
3062,-0.04452565
3063,-0.07015786
3064,-0.08297655
3065,-0.03993715
3066,-0.05096178
3067,-0.034788866
3068,-0.04226665
3069,0.11618358
3070,0.0052902466
3071,-0.056893364
3072,-0.051143788
3073,-0.025345188
3074,-0.038992975
3075,-0.025943974
3076,-0.07487802
3077,0.036341093
3078,-0.0027319842
3079,-0.06461746
3080,-0.041915417
3081,-0.037302632
3082,-0.029656822
3083,0.053946972
3084,-0.02371713
3085,-0.04154738
3086,-0.040421136
3087,-0.03955189
3088,-0.057696857
3089,0.029618649
3090,-0.022003686
3091,-0.065109186
3092,0.020173313
3093,-0.036887158
3094,0.02357904
3095,-0.05783784
3096,-0.011168716
3097,-0.0036207023
3098,-0.015116687
3099,-0.03779793
3100,-0.08327221
3101,-0.039657827
3102,-0.06851939
3103,-0.03901691
3104,0.029523743
3105,-0.03972139
3106,0.049185626
3107,0.06125315
3108,-0.036424987
3109,0.018098745
3110,-0.037684105
3111,-0.042298436
3112,-0.040543776
3113,-0.01824149
3114,-0.016665874
3115,-0.053600743
3116,-0.0703116
3117,-0.029427039
3118,0.014813102
3119,0.03969538
3120,-0.008472939
3121,-0.04673094
3122,0.053492438
3123,-0.12722887
3124,-0.03296933
3125,-0.010679385
3126,0.018347237
3127,-0.031264544
3128,-0.035831485
3129,-0.034252405
3130,-0.006864428
3131,-0.04770628
3132,-0.030086521
3133,-0.04677282
3134,-0.056277655
3135,-0.05200786
3136,-0.04761429
3137,-0.03465332
3138,-0.031397887
3139,-0.042181924
3140,-0.027223948
3141,-0.04364368
3142,0.044347458
3143,-0.054124862
3144,0.11446943
3145,-0.048607256
3146,-0.036902525
3147,-0.034856465
3148,0.0614018
3149,-0.04879212
3150,0.027373536
3151,0.038145155
3152,0.012923216
3153,-0.028213188
3154,-0.05439492
3155,0.07014981
3156,-0.049371053
3157,0.097029485
3158,-0.019097537
3159,0.087741464
3160,0.04314317
3161,-0.064129226
3162,-0.047043283
3163,-0.048094474
3164,0.08166732
3165,-0.06312718
3166,0.105492994
3167,-0.021725165
3168,-0.057983175
3169,-0.057482265
3170,0.0048150704
3171,0.027131898
3172,-0.013650001
3173,-0.027499383
3174,-0.044903204
3175,-0.029272247
3176,-0.048017908
3177,-0.07978536
3178,-0.037733994
3179,-0.0496721
3180,-0.012391792
3181,-0.044123657
3182,0.0731182
3183,-0.029632257
3184,0.038416874
3185,0.08217923
3186,0.032817245
3187,-0.05474266
3188,-0.012697426
3189,-0.017670741
3190,-0.011847883
3191,-0.070159316
3192,-0.082979344
3193,-0.038844366
3194,-0.034532126
3195,-0.035250403
3196,-0.043069683
3197,0.07703866
3198,-0.043227483
3199,-0.057053722
3200,-0.05110295
3201,0.022279102
3202,-0.02929564
3203,-0.00048683322
3204,-0.05290687
3205,0.029835999
3206,0.023761934
3207,-0.0638352
3208,-0.043053865
3209,0.00068389095
3210,-0.029677588
3211,-0.042414673
3212,-0.021562224
3213,-0.041085374
3214,-0.025008423
3215,-0.03980314
3216,0.045201655
3217,0.038160995
3218,-0.010621687
3219,0.010646939
3220,-0.012868828
3221,-0.035821036
3222,0.02199097
3223,0.00082132075
3224,-0.040232494
3225,-0.017919477
3226,0.10808538
3227,-0.03708697
3228,-0.06992909
3229,-0.0002962547
3230,-0.06848129
3231,-0.029242983
3232,-0.02683264
3233,-0.039731536
3234,0.001208752
3235,-0.009848097
3236,-0.021501463
3237,-0.023186497
3238,-0.037958883
3239,-0.030783413
3240,0.03889368
3241,-0.06799173
3242,-0.0155497985
3243,-0.023786468
3244,-0.032753576
3245,-0.039930787
3246,-0.0035325428
3247,0.009634525
3248,-0.015893254
3249,-0.04732175
3250,0.013852176
3251,-0.0870611
3252,-0.0049542165
3253,-0.04001528
3254,0.030636754
3255,-0.024258848
3256,0.06823471
3257,0.065142825
3258,-0.016209241
3259,-0.0488871
3260,-0.01838612
3261,-0.047165673
3262,-0.032947045
3263,0.0014387467
3264,-0.04571839
3265,-0.04466849
3266,-0.030174276
3267,-0.0156129515
3268,0.007833142
3269,-0.047568653
3270,0.028650673
3271,-0.045595504
3272,0.015973473
3273,0.026588084
3274,-0.0015900683
3275,-0.034935236
3276,0.053122
3277,-0.039300047
3278,0.0077917012
3279,-0.02092507
3280,0.025057994
3281,-0.028253363
3282,-0.037519198
3283,0.019960538
3284,0.021945033
3285,-0.027069218
3286,-0.0017707688
3287,-0.01795708
3288,0.028965468
3289,0.005521087
3290,0.008276328
3291,0.029342124
3292,0.005563482
3293,-0.06325233
3294,-0.039168224
3295,-0.05216616
3296,-0.057623062
3297,-0.045164287
3298,-0.0354905
3299,-0.055146683
3300,-0.04489689
3301,0.026907695
3302,-0.04456996
3303,-0.022719128
3304,-0.05645752
3305,-0.04084813
3306,-0.03787855
3307,-0.033060443
3308,-0.023599088
3309,-0.044493668
3310,0.008205192
3311,-0.041575383
3312,-0.007162887
3313,-0.04283612
3314,0.036677897
3315,-0.028264932
3316,-0.022447184
3317,-0.038511463
3318,-0.040251795
3319,-0.0324914
3320,-0.06283609
3321,-0.0060166134
3322,-0.022942739
3323,-0.033097424
3324,-0.045619354
3325,0.025117347
3326,-0.037711866
3327,-0.056979027
3328,-0.044663448
3329,-0.008819434
3330,-0.027080404
3331,-0.023973083
3332,-0.03372284
3333,0.042872854
3334,0.055728298
3335,-0.03942845
3336,-0.038685307
3337,-0.036988925
3338,-0.024271907
3339,0.035337605
3340,-0.019390175
3341,-0.04088573
3342,0.01530237
3343,-0.027488133
3344,0.00022447293
3345,-0.0036452184
3346,-0.045345183
3347,0.026033962
3348,0.01533629
3349,-0.03585186
3350,0.028357754
3351,0.014426615
3352,-0.027835669
3353,0.013727991
3354,0.010959141
3355,-0.034087263
3356,-0.043792676
3357,-0.034633514
3358,-0.03158162
3359,-0.0089953765
3360,-0.03019524
3361,-0.03302487
3362,-0.03937921
3363,0.01596846
3364,-0.0513519
3365,-0.008881583
3366,-0.037642967
3367,-0.0019590799
3368,-0.041095614
3369,-0.054256897
3370,-0.008431718
3371,-0.028726403
3372,-0.034324985
3373,-0.02348883
3374,-0.019951468
3375,-0.014520564
3376,-0.010022769
3377,-0.029418213
3378,-0.014567222
3379,0.007343716
3380,0.02034915
3381,-0.02816933
3382,0.04169425
3383,0.028606605
3384,0.03978883
3385,0.07540182
3386,-0.016470026
3387,-0.045680698
3388,-0.030317519
3389,-0.006957618
3390,-0.04132702
3391,-0.007329376
3392,-0.02606264
3393,0.015902568
3394,-0.02525736
3395,0.026316566
3396,-0.004076952
3397,0.015095437
3398,-0.028829738
3399,-0.04678385
3400,-0.024873026
3401,-0.0070894226
3402,-0.046292566
3403,-0.033053793
3404,0.01954611
3405,-0.036376916
3406,0.06921927
3407,-0.036481325
3408,0.051065937
3409,-0.027292972
3410,-0.01648827
3411,0.005238348
3412,0.033313908
3413,0.005338066
3414,-0.019434115
3415,0.0045158146
3416,0.016412407
3417,0.052953675
3418,-0.045210943
3419,-0.024297735
3420,0.008427539
3421,-0.04854234
3422,-0.064392164
3423,-0.03626459
3424,-0.046131577
3425,-0.0441681
3426,0.02146949
3427,0.031454757
3428,-0.05231606
3429,0.008942078
3430,-0.026223468
3431,-0.009261968
3432,-0.047209445
3433,-0.04550012
3434,-0.01641332
3435,-0.03195089
3436,-0.012433589
3437,-0.037832122
3438,-0.02826762
3439,-0.02737463
3440,-0.033421513
3441,-0.0061092647
3442,-0.008846627
3443,-0.016012974
3444,-0.025012568
3445,-0.029947162
3446,0.009761604
3447,-0.019055534
3448,0.015272626
3449,-0.0038364914
3450,-0.036174584
3451,-0.0315494
3452,-0.03529538
3453,0.0038123822
3454,-0.038024087
3455,-0.039805174
3456,-0.007649917
3457,0.014343887
3458,-0.005330203
3459,0.012443348
3460,-0.0064761154
3461,0.025105307
3462,0.00056733465
3463,-0.01357501
3464,-0.008285564
3465,0.005147195
3466,-0.007097845
3467,-0.004406898
3468,0.001064509
3469,0.0092894
3470,-0.016365169
3471,-0.004636207
3472,0.0028805677
3473,0.020884221
3474,-0.017763205
3475,0.015593266
3476,-0.015163162
3477,0.013091253
3478,-0.009862252
3479,0.012247793
3480,-0.0003665657
3481,0.02227581
3482,0.0103939865
3483,-0.008858232
3484,-0.0049899956
3485,0.00928458
3486,0.019000327
3487,0.01235483
3488,-0.0023265586
3489,0.0033674864
3490,0.010730938
3491,0.0037539662
3492,0.013358539
3493,-0.0034331088
3494,0.002537823
3495,0.016590646
3496,-0.013895331
3497,-0.011443607
3498,-0.0049351724
3499,0.008959456
3500,0.0031662749
3501,-0.0073182755
3502,-0.00531923
3503,-0.015651667
3504,-0.009903204
3505,-0.011600529
3506,-0.0052311756
3507,0.004440507
3508,-0.011574967
3509,0.0194504
3510,0.0048436853
3511,0.0031304257
3512,0.023583492
3513,-0.0012868213
3514,-0.006285111
3515,0.007441381
3516,0.006671221
3517,-0.002152625
3518,-0.00807328
3519,-0.017873758
3520,0.0059553003
3521,0.014882452
3522,0.004145258
3523,-0.009920872
3524,0.005452855
3525,-0.005017511
3526,0.000263519
3527,0.008415981
3528,0.0031071154
3529,-0.0069469702
3530,-0.010609181
3531,-0.00237771
3532,0.0031681547
3533,0.0011648743
3534,0.02252512
3535,-0.0030504516
3536,-0.0007420297
3537,0.016009532
3538,0.0005601224
3539,0.0010918038
3540,-0.008726642
3541,0.018589554
3542,0.011045889
3543,-0.0063074566
3544,0.004424174
3545,0.0075944094
3546,0.01618558
3547,-0.0026626326
3548,0.024821274
3549,0.014527779
3550,-0.003847075
3551,0.012853975
3552,-0.010626126
3553,-0.011038521
3554,0.008037651
3555,-0.015597943
3556,-0.015422009
3557,0.010019575
3558,-0.004241389
3559,0.0051568304
3560,0.008152154
3561,-0.013449633
3562,-0.0074063246
3563,-0.00019702347
3564,0.017105088
3565,-0.0023444162
3566,0.01129455
3567,-0.008328824
3568,-0.00073449523
3569,0.00995615
3570,0.0008929318
3571,0.016445452
3572,0.0022649078
3573,-0.0069653033
3574,-0.0032062344
3575,-0.013530563
3576,0.016949408
3577,0.018201455
3578,-0.00021504838
3579,0.0009113734
3580,0.004320841
3581,0.010127086
3582,0.001944357
3583,-0.004815902
3584,-0.0011787504
3585,-0.001861567
3586,-0.008648497
3587,0.0021789633
3588,0.004918141
3589,-0.0011993771
3590,0.000807344
3591,-0.005482476
3592,-0.006730694
3593,-0.005116901
3594,-0.012520017
3595,0.009550082
3596,0.0064202133
3597,0.0005159588
3598,-0.008078244
3599,-0.0020776605
3600,0.0049919146
3601,-0.016051246
3602,0.00757891
3603,0.0024453118
3604,0.0024685888
3605,0.019587398
3606,0.00029910888
3607,0.0037707689
3608,-0.0035066989
3609,-0.008241721
3610,0.004748617
3611,0.004442812
3612,-0.0047125975
3613,0.0033971895
3614,0.016375802
3615,-0.013839109
3616,-0.0061535626
3617,0.0019842337
3618,0.006525243
3619,-0.00225037
3620,0.0054175574
3621,-0.012942242
3622,-0.00073100335
3623,-0.0011862022
3624,-0.018145876
3625,0.0009812545
3626,0.0014104844
3627,-0.006409503
3628,-0.0045577134
3629,0.019102708
3630,0.0048693162
3631,-0.019857313
3632,0.009450596
3633,-0.0007379196
3634,0.012341274
3635,-0.00589318
3636,0.017328167
3637,-0.012755032
3638,0.00992371
3639,-0.014785599
3640,-0.0016058075
3641,0.0055412487
3642,-0.0029560276
3643,-0.00072338706
3644,0.007475108
3645,-0.0050882515
3646,0.0052917725
3647,0.010806892
3648,-0.006413348
3649,0.013598532
3650,0.007520463
3651,-0.014346291
3652,-0.00025936353
3653,0.017255396
3654,-0.014842066
3655,-0.0047710263
3656,-0.013359536
3657,-0.0010293141
3658,0.0010413933
3659,0.0013983513
3660,-0.0051407516
3661,-0.00840809
3662,-0.013086166
3663,0.0016750759
3664,-0.009376232
3665,0.007517458
3666,0.014134546
3667,-0.010934947
3668,0.0037228502
3669,-0.0008554328
3670,0.0061849346
3671,-0.005905701
3672,-0.0032411495
3673,-0.004159453
3674,-0.00090754766
3675,-0.006228625
3676,0.007837141
3677,0.009406862
3678,0.011547918
3679,-0.0066228607
3680,-0.009339267
3681,-0.00016338179
3682,-0.0017102661
3683,-0.0069887424
3684,0.009767104
3685,0.018160617
3686,-0.00020272142
3687,-0.013066365
3688,0.010106621
3689,0.0021099458
3690,0.004090729
3691,0.008882379
3692,-0.00039732928
3693,0.015967606
3694,-0.016980253
3695,-0.0059345257
3696,-0.004135133
3697,-0.0057687527
3698,-0.005391227
3699,-0.006048413
3700,0.004530801
3701,-0.0065222885
3702,0.00956837
3703,0.0071568466
3704,0.005717861
3705,0.0021473465
3706,-0.0123667
3707,0.0016401754
3708,0.005565785
3709,-0.00078348926
3710,-0.008647429
3711,-0.0023759198
3712,0.0009970047
3713,-0.0111985635
3714,0.009965649
3715,0.00091922394
3716,-0.0077381306
3717,0.007802941
3718,-0.013065242
3719,0.00093976554
3720,-0.0074514304
3721,-0.004884252
3722,-0.00061647233
3723,-0.0011729874
3724,-0.014045984
3725,0.004884478
3726,0.0005147256
3727,0.0041250265
3728,0.014053738
3729,-0.01688748
3730,-0.008047075
3731,0.0069467127
3732,-0.017102543
3733,0.006396515
3734,0.013894581
3735,-0.012873249
3736,0.006772061
3737,0.0008590241
3738,-0.0042239646
3739,-0.019900434
3740,-0.0024766389
3741,0.0034989305
3742,0.017296419
3743,0.0046557793
3744,-0.013718309
3745,-0.014870303
3746,-0.007783796
3747,-0.0025842276
3748,0.012203622
3749,0.0053002033
3750,-0.010433232
3751,0.004124712
3752,0.00012172005
3753,0.003930683
3754,0.0070464397
3755,0.007571121
3756,0.010945297
3757,0.008084606
3758,0.0012442267
3759,0.015751116
3760,0.0015509533
3761,-0.0050105075
3762,0.014137428
3763,0.019905915
3764,0.0056474293
3765,-0.00026443714
3766,0.008083681
3767,0.007250037
3768,0.0057412037
3769,-0.012059808
3770,-0.002485262
3771,0.00052749773
3772,0.0023229846
3773,-0.007202433
3774,0.006105432
3775,-0.0052646208
3776,0.002774232
3777,-0.018365677
3778,0.0069687273
3779,0.015831498
3780,0.002083884
3781,-0.0008369837
3782,-0.0035579388
3783,-0.0011657404
3784,-0.012930855
3785,-0.015475713
3786,0.0012399928
3787,-0.004519586
3788,0.00070258154
3789,-0.019999161
3790,-0.005371194
3791,0.010332844
3792,0.015345701
3793,-0.009116837
3794,0.0034481739
3795,-0.0037423766
3796,-0.012030133
3797,0.0050652167
3798,0.015549588
3799,-0.0057365303
3800,-0.012582579
3801,0.0041220863
3802,-0.0018631599
3803,-0.0012373438
3804,0.0030593511
3805,0.0019316352
3806,0.016179983
3807,-0.0026133533
3808,-0.003969749
3809,0.006900707
3810,0.010771
3811,-0.009353911
3812,-0.017672734
3813,0.017910207
3814,0.0012767499
3815,0.0106331315
3816,0.010499457
3817,-0.007281057
3818,-0.00613566
3819,-0.0074647777
3820,-0.007691273
3821,0.0127873
3822,-0.011065417
3823,0.0022507003
3824,0.0025024593
3825,-0.0029915113
3826,-0.017571831
3827,-0.0033997314
3828,0.0037122087
3829,0.009186101
3830,-0.0011080174
3831,0.0037078501
3832,0.00031996693
3833,0.0027379417
3834,-0.004618992
3835,0.001350749
3836,0.009785594
3837,-0.0071294275
3838,-0.009868298
3839,0.015888069
3840,0.0039319955
3841,0.009420192
3842,-0.01149677
3843,0.004095161
3844,-0.00038969325
3845,0.0057565956
3846,0.0151449675
3847,-0.013448256
3848,0.016903196
3849,-0.0036312612
3850,0.015595387
3851,0.01439265
3852,-0.008699434
3853,0.015784252
3854,-0.0051126843
3855,-0.008321292
3856,-0.0042598937
3857,-0.0046929712
3858,-0.0024336032
3859,0.013205458
3860,-0.010427475
3861,0.0012718928
3862,-0.0009934874
3863,0.0016108832
3864,-0.009218312
3865,0.0018653753
3866,0.015496766
3867,0.0129318405
3868,-0.0022891802
3869,0.00066724373
3870,-0.014555368
3871,-0.0016051648
3872,-8.6707805e-05
3873,0.00980419
3874,0.0064724153
3875,-0.012945304
3876,0.00087804534
3877,-0.014463252
3878,0.007612072
3879,0.016425248
3880,-0.0049654157
3881,-0.013767848
3882,0.018976567
3883,-0.011359148
3884,0.0021621657
3885,-0.005708438
3886,0.007348275
3887,-0.0068022045
3888,0.0005295442
3889,-0.011082131
3890,0.007566819
3891,0.01599135
3892,0.014852096
3893,-0.00020952053
3894,0.0061391746
3895,-0.0012634378
3896,-0.014334126
3897,0.001737018
3898,-0.00019323576
3899,0.0022737966
3900,-0.011931081
3901,0.009696558
3902,-0.0062719723
3903,-0.0057087624
3904,0.00504889
3905,0.006135026
3906,-0.0016747466
3907,-0.010720658
3908,0.0014076831
3909,-0.002634026
3910,-0.006719867
3911,-0.016564071
3912,0.0031509062
3913,-0.0090275165
3914,-0.0046368195
3915,0.010412916
3916,-0.008882599
3917,0.006331722
3918,-0.0029682443
3919,-0.0074179843
3920,-0.0077115796
3921,0.014561684
3922,0.011915018
3923,-0.01607085
3924,-0.0018779793
3925,-0.0017659507
3926,-0.004214048
3927,0.0066857436
3928,-0.009770838
3929,0.0030864738
3930,-0.0066747754
3931,0.012879888
3932,0.0048870924
3933,0.0025716827
3934,0.0054850504
3935,-0.0062456513
3936,-0.011024662
3937,0.009112026
3938,-0.00044283012
3939,-0.005516512
3940,-0.017412042
3941,-0.004781188
3942,0.0026987626
3943,-0.0002869277
3944,0.011032899
3945,0.017504485
3946,0.013555058
3947,0.0005049362
3948,0.01337641
3949,0.0005507812
3950,-0.016308287
3951,0.016076995
3952,-0.015437388
3953,-0.004682693
3954,-0.0016335467
3955,0.011528264
3956,-0.001399249
3957,0.008283848
3958,-0.003184714
3959,0.0039343303
3960,-0.014544956
3961,-0.010524879
3962,-0.0016721227
3963,0.009164588
3964,-0.0025071125
3965,-0.018097784
3966,0.003818192
3967,-0.009790271
3968,0.005252146
3969,-0.004590327
3970,-0.0006781636
3971,-0.004267507
3972,-0.006423167
3973,-9.182599e-05
3974,-0.013021714
3975,0.008500043
3976,-0.019251417
3977,-0.017271651
3978,0.0005000466
3979,0.0034473778
3980,-0.008255332
3981,-0.0016488577
3982,0.0039109495
3983,0.009060127
3984,-0.004236288
3985,0.0003823849
3986,-0.012982272
3987,0.012644288
3988,-0.014898653
3989,-0.007793071
3990,0.0114705665
3991,0.0013358699
3992,-0.013991
3993,0.0070137265
3994,-0.011202583
3995,0.0040000114
3996,-0.0031975727
3997,-0.003572641
3998,0.005590601
3999,-0.0052780244
4000,0.011440933
4001,-0.0034745377
4002,0.014872013
4003,-0.011133577
4004,0.012073382
4005,-0.017795037
4006,-0.01009156
4007,0.0008536463
4008,0.012830595
4009,-0.018480403
4010,0.007949952
4011,-0.006853845
4012,0.003511476
4013,0.0061563933
4014,0.002428272
4015,0.0066986135
4016,-0.008816973
4017,0.0073309885
4018,0.019274876
4019,-0.014753507
4020,0.008192799
4021,-0.010898299
4022,0.000670154
4023,0.004328328
4024,0.010020463
4025,-0.0018458373
4026,-0.013872231
4027,0.00057049695
4028,-0.019811232
4029,0.008431556
4030,-0.004678593
4031,0.012148825
4032,0.0038641864
4033,-0.002884339
4034,0.0011182735
4035,0.011957174
4036,-0.00048435194
4037,-0.0047258474
4038,-0.0028752675
4039,-0.0097346855
4040,-0.0038083994
4041,0.00602106
4042,-0.001609237
4043,-0.011206028
4044,0.003351408
4045,0.0023714127
4046,-0.00036208678
4047,0.0061937263
4048,0.005484875
4049,-0.0072089294
4050,0.009682385
4051,0.004835532
4052,-0.01478062
4053,0.01413135
4054,0.004720579
4055,0.002599118
4056,-0.0055096447
4057,-0.010242549
4058,-0.017918782
4059,-0.016241686
4060,-0.0026563883
4061,-0.0015482453
4062,-0.0052336603
4063,-0.0068134223
4064,0.012248998
4065,-0.0017128827
4066,0.0027039167
4067,-0.0010857517
4068,0.004852482
4069,-0.009383827
4070,0.0071429396
4071,0.0139811095
4072,-0.0048593907
4073,0.014199284
4074,-0.0070536225
4075,-0.0045038224
4076,0.0092594605
4077,-0.010243795
4078,-0.0031209232
4079,-0.0055986834
4080,-0.008065836
4081,-0.00042953278
4082,0.00018999453
4083,-0.010231609
4084,-0.006952213
4085,0.011510726
4086,-0.00079681375
4087,-0.01375962
4088,-0.00054908154
4089,0.004328438
4090,0.0017718824
4091,0.009424313
4092,0.00045026265
4093,0.011244353
4094,0.015465146
4095,0.0026945563
