Sno,Weight
0,-0.0013895668
1,0.012067221
2,0.002221627
3,0.0007992177
4,-0.008763744
5,-0.00535482
6,-0.0026525771
7,-0.0024840909
8,0.012444569
9,-0.0067720395
10,-0.0007869876
11,-0.0035212662
12,0.018979246
13,0.004300266
14,0.008591111
15,0.004921348
16,0.015303723
17,-0.0071237525
18,0.0076449355
19,-0.009450056
20,-0.0068642227
21,-0.017324967
22,-0.008652404
23,-0.011100021
24,0.010181672
25,0.003276575
26,-0.0067952797
27,0.0050607016
28,0.009565471
29,-0.013462357
30,-0.0018525546
31,8.0802194e-05
32,-0.0050629578
33,0.013826842
34,0.00016085022
35,0.007317657
36,-0.0024870515
37,0.0188515
38,-0.0025883915
39,-0.00024773012
40,-0.007471839
41,-0.016538542
42,-0.008362487
43,-0.0133656375
44,0.010136399
45,-0.0013364702
46,0.008789209
47,0.011746157
48,0.0104004145
49,7.346914e-05
50,0.0068360292
51,0.013521693
52,-0.013299516
53,-0.0065382277
54,0.0012764041
55,-0.009314407
56,-0.0018689622
57,0.0010761708
58,0.009455254
59,-0.018343592
60,-0.00046210046
61,-0.0019485472
62,0.0056892643
63,-0.005895718
64,0.0047433507
65,-0.0015065618
66,0.009204589
67,-0.006722662
68,-0.0037232758
69,0.018446708
70,0.007201988
71,0.0042470745
72,-0.018371604
73,0.008365588
74,0.0045187855
75,-0.0041987402
76,0.008733468
77,0.017787993
78,0.015289871
79,0.007368359
80,-0.00335626
81,-0.00014696954
82,0.011764217
83,0.0042723697
84,-0.004216713
85,0.0016585703
86,0.0054945527
87,0.009051254
88,0.0044429153
89,0.0005794859
90,-0.0032041853
91,0.0045374664
92,-0.012556618
93,0.006888287
94,0.0067778323
95,0.014569889
96,-0.010224631
97,0.0026245594
98,-0.0025974815
99,-0.0056656604
100,0.005504423
101,-0.0043992205
102,-0.0015473351
103,-0.010153259
104,-0.001263625
105,-0.008830457
106,-0.0053647785
107,0.008786861
108,-0.0042679594
109,0.0008993188
110,0.014475735
111,0.0049422905
112,-0.008703727
113,0.00050174445
114,-0.0009807338
115,-0.004543281
116,0.011749763
117,-0.0028665948
118,-0.0050783474
119,-0.009295129
120,-0.0030526146
121,0.008610848
122,-0.00066814374
123,0.005096102
124,-0.0012741765
125,0.0026812165
126,0.006558163
127,0.007044573
128,-0.05280616
129,0.03259207
130,-0.062475637
131,0.054541036
132,0.0016816218
133,0.03846638
134,0.020980706
135,0.042924557
136,0.02954537
137,-0.0786698
138,-0.05878826
139,0.016291829
140,-0.086622864
141,0.04815668
142,-0.001407767
143,-0.04539461
144,0.043147475
145,0.010179781
146,0.040696695
147,0.043363627
148,0.009915339
149,-0.00030359792
150,0.026601914
151,-0.032094248
152,0.029855806
153,0.030689051
154,-0.027226213
155,0.015203984
156,-0.021609494
157,-0.07745494
158,-0.002178324
159,0.0014506008
160,-0.06839294
161,-0.0020484524
162,-0.07459954
163,-0.0013924501
164,0.0015778388
165,0.055375297
166,0.030424347
167,0.026968423
168,-0.06877427
169,0.051278558
170,0.025493976
171,0.04028941
172,-0.0010725636
173,0.015380034
174,-0.090632334
175,-0.0052057207
176,-0.058092654
177,0.046012957
178,0.049237557
179,0.0484712
180,0.04215839
181,0.035344187
182,0.035984635
183,0.01257993
184,0.040606607
185,-0.10913791
186,0.083058804
187,0.051662438
188,-0.02954923
189,-0.0019866242
190,0.049305256
191,0.020974942
192,0.017953305
193,0.039446235
194,-0.030601805
195,0.038393937
196,0.051495314
197,0.0054911682
198,0.045393337
199,-0.009315207
200,0.016737435
201,0.02316698
202,-0.0006603197
203,-0.057554007
204,-0.0007385021
205,0.04051627
206,0.01094625
207,-0.038361408
208,0.0035110905
209,0.037023243
210,-0.07240829
211,-0.003395537
212,0.050637104
213,0.025368106
214,0.02485072
215,-0.07128563
216,-0.059654407
217,0.06471822
218,-0.0010378056
219,-0.046515416
220,-0.059316225
221,0.036470864
222,-0.0021753702
223,0.058176875
224,0.030439448
225,0.03806297
226,-0.07129313
227,0.05171595
228,-0.066331625
229,-0.069534324
230,0.020326598
231,-0.0006782284
232,0.0100520095
233,0.03843802
234,0.041607853
235,-0.014041071
236,-0.009779144
237,-0.047865715
238,0.023958845
239,0.0023414497
240,0.0004794644
241,0.045949563
242,-0.00013374284
243,-0.010530763
244,-0.032644548
245,0.023943258
246,-0.014712476
247,0.049403843
248,-0.025610188
249,0.037238184
250,0.051291477
251,-0.008586516
252,0.054064818
253,0.011916859
254,0.049918994
255,0.032762546
256,0.03462008
257,-0.009177693
258,-0.05620152
259,-0.03971572
260,0.07509842
261,-7.822977e-05
262,0.030204944
263,-0.03745066
264,0.047819782
265,0.07596531
266,0.03476249
267,0.01771232
268,-0.09191932
269,-0.042753305
270,0.045164466
271,0.07302781
272,0.017803404
273,0.021536242
274,0.041702665
275,-0.07045105
276,0.019234892
277,-0.0023339957
278,-0.08458542
279,0.020026436
280,0.002515438
281,0.02612401
282,-0.013738664
283,0.035908636
284,0.054856203
285,0.07483257
286,0.0856636
287,0.023211937
288,-0.0683655
289,-0.0040928693
290,0.080363415
291,-0.0010242368
292,-0.008491362
293,-0.072473854
294,0.0006396002
295,7.608666e-05
296,-0.06832942
297,-0.0077123484
298,0.00750007
299,0.06637117
300,-0.026587551
301,0.004247336
302,-0.0903259
303,-0.00090808875
304,0.050008144
305,-0.03308489
306,0.008034423
307,0.005055821
308,0.030259077
309,0.02716822
310,-0.00020879068
311,7.135922e-06
312,-0.011330605
313,-0.0017194939
314,-0.07887682
315,0.032471374
316,0.09470192
317,-0.008562605
318,-0.012720012
319,0.06214418
320,0.04650313
321,-7.127425e-05
322,0.057497665
323,-0.0031554368
324,0.04889519
325,0.046752747
326,0.02621607
327,0.08151788
328,0.011005951
329,0.03316573
330,0.052709017
331,0.033644218
332,-0.00013574379
333,0.06081482
334,-0.00020346625
335,0.09774783
336,0.012345255
337,0.051910933
338,-0.07278445
339,0.08177691
340,0.014158561
341,0.03775483
342,-0.010589453
343,-0.00074352813
344,0.045408227
345,-0.046347193
346,0.051781397
347,-0.04881329
348,0.04152921
349,-0.009280687
350,0.043690704
351,-0.025606781
352,0.031540032
353,-0.035207167
354,-0.07156725
355,-0.049577396
356,-0.06625826
357,0.052279558
358,-0.039849553
359,0.0065656225
360,0.039221752
361,0.06426361
362,0.05053279
363,-0.039345577
364,-0.07320709
365,-0.03385618
366,-0.0008211718
367,-0.03734922
368,0.014423552
369,-0.063922346
370,0.042776216
371,0.018868549
372,0.03173608
373,0.04783273
374,-0.11380313
375,-0.0006103012
376,-0.09937433
377,0.022009512
378,-0.070242845
379,0.065845415
380,-0.04210972
381,0.036927123
382,0.06589504
383,-0.020074489
384,-0.02545238
385,-0.11158878
386,-0.062107783
387,0.027507626
388,0.08385578
389,-0.025123551
390,-0.043762993
391,0.031121368
392,-0.049301382
393,-0.07851571
394,0.024981987
395,-0.050667126
396,-0.09190613
397,0.012061378
398,0.10417329
399,0.07305552
400,0.015707085
401,0.02607914
402,-0.0405299
403,-0.07034069
404,0.02912438
405,0.021829577
406,0.026814613
407,0.103635795
408,-0.00044872228
409,0.01501956
410,-0.07326455
411,-0.0031286546
412,0.030230638
413,-0.077216186
414,0.012859939
415,0.037554543
416,0.018902387
417,-0.0456622
418,-0.07461122
419,-0.039463997
420,0.07043556
421,-0.07256382
422,0.0028325496
423,0.014629374
424,0.067109846
425,-0.03427135
426,-0.00925001
427,-0.050848786
428,-0.04453573
429,0.00903574
430,0.013562624
431,0.100769594
432,0.04898681
433,0.00028276918
434,-0.04178469
435,0.004375506
436,-0.0011287486
437,-0.040049557
438,-0.05107959
439,0.030048132
440,0.04231826
441,0.010363974
442,-0.07868893
443,0.06935674
444,-0.056105033
445,0.052738763
446,-0.0038962348
447,0.0093793
448,0.05383308
449,-0.008418267
450,0.06203084
451,-0.035101913
452,-0.051464114
453,-0.039302904
454,0.0048844167
455,0.08760052
456,-0.048312567
457,-0.023336878
458,0.065374926
459,0.04289182
460,-0.04051458
461,-0.040729083
462,-0.060402967
463,0.11671169
464,0.0049613332
465,-0.050605103
466,0.05638679
467,-0.01716858
468,-0.018951027
469,0.009821385
470,-0.020673217
471,0.109247185
472,0.05573159
473,0.042841475
474,-0.008456275
475,0.076127745
476,0.06681746
477,0.08837608
478,0.0001406201
479,0.041994922
480,-0.038095023
481,0.046580687
482,0.08780331
483,0.0050435006
484,-0.06642142
485,-0.06945938
486,-0.00019897814
487,0.008947889
488,-0.006553791
489,-0.02962255
490,-0.049255148
491,-0.070020966
492,-0.07322166
493,-0.06300278
494,-0.004254056
495,0.06078016
496,0.03842397
497,-0.063919686
498,0.054560337
499,0.0448846
500,0.08376717
501,-0.039504368
502,-1.2659511e-05
503,-0.04533026
504,0.08135174
505,-0.015970053
506,-0.07009079
507,0.11051165
508,0.027671773
509,-0.07155303
510,-0.033384476
511,0.06875765
512,-0.052637447
513,-0.09456419
514,0.04455811
515,-0.03645481
516,-0.034284715
517,-0.05787627
518,-0.043560237
519,0.017122358
520,0.029786088
521,-0.07864821
522,0.013382844
523,0.007446785
524,-0.09200851
525,-0.042783752
526,-0.018426303
527,-0.045517493
528,-0.0323962
529,0.04677413
530,-0.035377763
531,-0.04724144
532,-0.0015342153
533,0.06550625
534,-0.07119091
535,-0.04864498
536,-0.04896176
537,0.025874471
538,-0.051065054
539,-0.047032025
540,-0.037952233
541,-0.077224955
542,0.034236256
543,0.010332577
544,-0.06811179
545,0.09119245
546,-0.074499816
547,-5.7181445e-05
548,0.042865615
549,-0.07244229
550,0.04627162
551,-0.0029359618
552,-0.06581709
553,-0.03322349
554,-0.046148207
555,-0.02941677
556,-0.03878409
557,-0.032483794
558,0.019484406
559,0.06678078
560,-0.05704981
561,-0.02712382
562,-0.042865008
563,-0.047922872
564,0.0012467373
565,-0.0401949
566,-0.018793175
567,-0.03193121
568,0.03679986
569,0.038771816
570,-0.078976825
571,-0.029867733
572,0.026769523
573,0.08210938
574,-0.005246048
575,0.0135207055
576,0.019293057
577,-0.024427513
578,0.016361842
579,-0.03481082
580,-0.05116071
581,-0.0024110426
582,-0.08184737
583,-0.051130116
584,-0.048109103
585,-0.023367822
586,0.0808376
587,0.06799888
588,-0.04547426
589,-0.039874684
590,0.0035113678
591,0.014612725
592,0.01600811
593,-0.050630607
594,-0.07242739
595,-0.08161584
596,-0.031593837
597,0.00042555892
598,0.0051391884
599,0.033852693
600,0.03561166
601,-0.045943037
602,-0.009249179
603,-0.04782964
604,0.01597194
605,-0.033390835
606,-0.08660751
607,0.023595298
608,-0.0378598
609,-0.035270587
610,-0.071683265
611,-0.04960713
612,0.067451544
613,-0.014394558
614,-0.052953493
615,0.066004924
616,0.000947302
617,-0.027787974
618,-0.049327124
619,-0.06994348
620,0.0769379
621,-0.05057562
622,0.000866326
623,-0.03729449
624,0.042072
625,-0.06400126
626,0.013613426
627,-0.012693797
628,0.053753246
629,0.05497861
630,0.08414437
631,-0.04542906
632,-0.045842003
633,0.001013991
634,-0.07012504
635,-0.022401156
636,0.03617313
637,-0.0365892
638,-0.03304087
639,0.088251546
640,-0.052778915
641,-0.04126592
642,-0.062282912
643,-0.04109579
644,-0.033468828
645,-0.057687867
646,-0.026482945
647,0.02072945
648,-0.048629083
649,-0.011729268
650,-0.024755677
651,-0.014829632
652,-0.08363412
653,-0.04267674
654,-0.051893324
655,-0.045315687
656,0.0003488622
657,-0.08931355
658,-0.028036937
659,-0.027048662
660,0.0798548
661,0.010197955
662,0.10355312
663,0.013048327
664,0.028810084
665,-0.01724329
666,-0.073128164
667,0.0018144287
668,-0.032243937
669,-0.077245206
670,-0.085010886
671,-0.011875222
672,-0.06810473
673,-0.018751768
674,-0.07451853
675,-0.015991533
676,0.0753095
677,-0.05942661
678,-0.035328105
679,-0.10686511
680,-0.044382922
681,-0.033095445
682,0.023899978
683,-0.050750043
684,-0.054183796
685,-0.032063194
686,0.022011627
687,-0.018984795
688,-0.05799664
689,-0.03292365
690,-0.04241365
691,-0.0054833377
692,-0.046662528
693,-0.022668898
694,0.022668082
695,0.06034982
696,0.035494465
697,0.011670181
698,-0.067316614
699,-0.0299422
700,0.065256365
701,-0.0010830298
702,-0.038007304
703,-0.0021291692
704,-0.06435392
705,-0.00066933397
706,-0.03132454
707,-0.03500095
708,-0.051368497
709,4.190579e-05
710,0.004329468
711,0.017161394
712,-0.048232093
713,-0.024369096
714,-0.05703582
715,-0.057334017
716,0.007300393
717,0.038954917
718,0.0026810132
719,-0.00021913301
720,-0.095000796
721,-0.05051524
722,-0.028974079
723,-0.023911757
724,-0.03159941
725,-0.06846148
726,-0.039039247
727,0.027771711
728,-0.059652727
729,-0.035934925
730,0.030527472
731,0.054725114
732,0.0032345424
733,-0.030103179
734,0.054585427
735,0.022838064
736,-0.038228028
737,-0.035142474
738,-0.071466014
739,-0.049020335
740,0.09778465
741,0.0074475394
742,-0.009223341
743,-0.029805506
744,0.00092837797
745,-0.028838672
746,-0.048948176
747,0.084263094
748,-0.071227156
749,-0.06264179
750,0.075639054
751,-0.036276422
752,0.011385821
753,-0.015096009
754,-0.02545275
755,0.06756536
756,-0.032345552
757,-0.03980383
758,0.00074047025
759,-0.045351926
760,-0.04982052
761,-0.066197224
762,-0.00858529
763,-0.021529315
764,-0.041712873
765,0.00045049944
766,-0.033054627
767,-0.020432584
768,-0.052485455
769,-0.010482509
770,-0.062481873
771,-0.03496738
772,-0.033361692
773,0.0015329885
774,-0.043492466
775,0.034574922
776,-0.013905078
777,-0.07866837
778,-0.04464936
779,-0.09571963
780,-0.075901404
781,-0.042837534
782,-0.025817124
783,-0.045088466
784,-0.031145971
785,-0.0017014141
786,-0.03555945
787,-0.04481463
788,-0.04011288
789,-0.006149908
790,-0.0067619663
791,-0.019637486
792,0.028773477
793,0.0020856236
794,-0.036467493
795,-0.0096499575
796,-0.037075173
797,-0.0022353309
798,-0.0349802
799,-0.11232436
800,-0.04370381
801,-0.09763774
802,-0.07455347
803,-0.0020401527
804,0.06406039
805,-0.046292286
806,0.0018554595
807,0.03302528
808,0.030886088
809,-0.033612333
810,-0.0486015
811,-0.015408602
812,0.07804826
813,-0.032616187
814,0.16715902
815,-0.08083536
816,-0.056979273
817,-0.032439552
818,-0.042009506
819,0.0090340655
820,-0.0060669975
821,-0.040026758
822,-0.019690445
823,-0.066801086
824,0.035030622
825,0.0074813287
826,-0.02684965
827,-0.029958714
828,0.058948424
829,-0.010559527
830,0.069730885
831,-0.006685145
832,0.020622844
833,0.00952475
834,-0.030890968
835,-0.03504406
836,-0.051551737
837,0.004684942
838,0.010706818
839,0.0065045967
840,-0.048250273
841,-0.024179215
842,-0.0061315238
843,-0.057367496
844,-0.015285674
845,-0.040522996
846,0.027540658
847,-0.033113148
848,-0.017487463
849,-0.004877815
850,-0.06479058
851,-0.018256446
852,-0.03189462
853,0.05206969
854,-0.03880851
855,0.029779365
856,0.0027062886
857,-0.046027835
858,-0.053272538
859,0.05203623
860,-0.036423314
861,-0.029611433
862,-0.01078875
863,-0.037300713
864,-0.03774832
865,-0.030010443
866,-0.07150323
867,-0.049046107
868,-0.036037922
869,-0.0692824
870,0.0049966592
871,-0.03260614
872,-0.0007226572
873,-0.029366827
874,-0.04943889
875,-0.06986212
876,-0.07320255
877,0.07465817
878,-0.038578548
879,-0.027017806
880,-0.087145165
881,-0.03729124
882,-0.10501826
883,0.036923263
884,-0.031741917
885,-0.038556475
886,0.006983919
887,-0.045456022
888,-0.006047103
889,0.00051968556
890,-0.009694089
891,-0.029129451
892,-0.030005215
893,0.06550581
894,-0.033488326
895,-0.020369826
896,-0.052518442
897,0.09803662
898,-0.049262006
899,-0.04062319
900,-0.033555187
901,-0.038993504
902,-0.043494217
903,-0.027625917
904,-0.048624106
905,-0.07845248
906,-0.045254927
907,-0.007816374
908,-0.091892555
909,-0.04268642
910,-0.05201177
911,-0.045282576
912,-0.032391567
913,0.01257618
914,0.041112456
915,0.00045362092
916,-0.08873457
917,0.0061295936
918,0.001160429
919,0.07332898
920,0.013250153
921,-0.0037288896
922,0.10939468
923,-0.047112968
924,-0.037867382
925,-0.060211316
926,0.009537046
927,-0.015925584
928,-0.067389585
929,0.0111786565
930,-0.07095261
931,0.014496909
932,0.06898554
933,-0.025915042
934,0.016643265
935,0.010522596
936,0.018826414
937,-0.03374467
938,-0.04903639
939,-0.018857837
940,-0.053934403
941,-0.032306828
942,0.015778739
943,0.010037594
944,-0.05760931
945,-0.030467216
946,-0.041572936
947,0.080713205
948,0.007273592
949,-0.04048206
950,-0.046191063
951,0.00993483
952,-0.015357956
953,-0.018806858
954,-0.05898033
955,-0.029570159
956,0.06434594
957,-0.010206984
958,-0.03778668
959,-0.014852328
960,0.022705669
961,-0.0005035791
962,-0.030596066
963,-0.034860127
964,-0.05136397
965,-0.0048632324
966,0.0065994714
967,0.009657679
968,-0.04442136
969,-0.023495536
970,-0.086331554
971,-0.054425593
972,-0.14791891
973,-0.038106855
974,-0.046289064
975,-0.033184562
976,0.0145155545
977,-0.035391413
978,-0.07204627
979,-8.2417755e-06
980,-0.031876195
981,0.007838778
982,-0.039780594
983,-0.002368804
984,-0.0055682315
985,-0.04578055
986,0.014782891
987,0.047144063
988,-0.032439858
989,-0.033611257
990,0.007826086
991,-0.036861654
992,-0.03422879
993,-0.034918096
994,-0.07140611
995,-0.04906366
996,-0.055934306
997,-0.034568418
998,-0.052941892
999,-0.03302131
1000,-0.0005310019
1001,-0.028708158
1002,-0.049296964
1003,-0.06967441
1004,-0.05871669
1005,-0.0628252
1006,-0.054034572
1007,0.05631345
1008,-0.028144928
1009,-0.0071248626
1010,-0.014430541
1011,0.02361605
1012,-0.03235096
1013,-0.03917842
1014,-0.10166461
1015,-0.045504883
1016,0.016888943
1017,-0.00034030393
1018,-0.048792787
1019,-0.027617265
1020,-0.041369595
1021,-0.14977887
1022,-0.03332434
1023,-0.017583514
1024,-0.052179154
1025,-0.03100561
1026,-0.06191833
1027,-0.040326368
1028,-0.03322803
1029,-0.05177767
1030,-0.04349565
1031,-0.04956805
1032,-0.048933048
1033,-0.078184806
1034,-0.032237522
1035,-0.025144938
1036,0.012694643
1037,-0.0424101
1038,0.037048716
1039,-0.041454807
1040,-0.03281774
1041,-0.045758817
1042,-0.0031955303
1043,-0.0572079
1044,-0.030917708
1045,-0.022986783
1046,0.02843233
1047,0.012626107
1048,-0.0010355194
1049,0.053671956
1050,0.06612316
1051,-0.04665769
1052,-0.037753686
1053,-0.05896183
1054,-0.0069739055
1055,-0.032073613
1056,-0.040702958
1057,0.0120502105
1058,-0.047968324
1059,0.025464509
1060,0.022466471
1061,-0.056222275
1062,-0.052485235
1063,-0.028066836
1064,-0.025229858
1065,-0.033934034
1066,-0.046016343
1067,0.08751471
1068,0.08131711
1069,-0.032320548
1070,0.03773785
1071,0.016597692
1072,-0.057923216
1073,-0.027986502
1074,-0.04233957
1075,-0.0067030657
1076,-0.04677734
1077,-0.040101208
1078,-0.05026804
1079,-0.033921264
1080,0.0038502149
1081,-0.00064094015
1082,-0.047615647
1083,-0.02897436
1084,0.0042346516
1085,-0.0059856153
1086,-0.037993625
1087,0.040652797
1088,-0.054135907
1089,-0.04621059
1090,-0.029487643
1091,-0.03503879
1092,-0.05101855
1093,-0.0002285809
1094,-0.05191809
1095,0.028451987
1096,0.0009280251
1097,-0.02412525
1098,0.0029106857
1099,-0.057523597
1100,-0.0026961702
1101,-0.011503281
1102,0.0015286334
1103,0.03299429
1104,-0.037037976
1105,-0.03239016
1106,-0.063732475
1107,-0.039825384
1108,-0.031446986
1109,-0.035626773
1110,-0.038055893
1111,-0.030880544
1112,-0.05332306
1113,-0.046032846
1114,-0.029647058
1115,-0.017205596
1116,0.015691364
1117,-0.029024579
1118,-0.05606299
1119,-0.03623168
1120,-0.037327062
1121,-0.018587591
1122,-0.07131375
1123,-0.048510533
1124,-0.060244557
1125,-0.03375781
1126,-0.053012747
1127,-0.030226242
1128,0.065815024
1129,-0.029434465
1130,-0.048883494
1131,-0.04862911
1132,-0.0667739
1133,-0.06280814
1134,0.042224865
1135,0.0036482373
1136,0.01000213
1137,-0.0072868452
1138,0.035214685
1139,-0.052246526
1140,-0.032152094
1141,-0.03976813
1142,-0.015879437
1143,-0.045397352
1144,-0.0109284995
1145,0.0295896
1146,-0.053019505
1147,-0.026774248
1148,-0.030372415
1149,0.0014251187
1150,-0.030577116
1151,-0.020109015
1152,-0.0463577
1153,-0.04613537
1154,-0.05866125
1155,-0.036339484
1156,-0.033259433
1157,-0.015023882
1158,-0.04363781
1159,-0.013277524
1160,-0.048117723
1161,-0.04601891
1162,-0.053640336
1163,0.003987392
1164,-0.04816936
1165,-0.04248564
1166,0.0015725413
1167,-0.045077045
1168,-0.030788302
1169,-0.040784806
1170,-0.035253562
1171,-0.033048168
1172,-0.01249532
1173,-0.033386096
1174,0.012201163
1175,-0.037705723
1176,-0.042921692
1177,0.02642678
1178,0.04363198
1179,-0.046470895
1180,-0.016369293
1181,-0.026194058
1182,0.008427522
1183,0.010870444
1184,-0.053039044
1185,-0.016623506
1186,-0.039808426
1187,0.014181883
1188,0.016430156
1189,-0.011781094
1190,-0.040256303
1191,-0.025253354
1192,-0.01829828
1193,-0.032395426
1194,-0.04189312
1195,0.021478884
1196,0.031810444
1197,-0.03063071
1198,-0.052792422
1199,-0.025897441
1200,-0.057025943
1201,-0.022135183
1202,-0.04157582
1203,-0.017914265
1204,-0.046200912
1205,-0.04031814
1206,-0.029238647
1207,-0.01129121
1208,-0.03397824
1209,-0.021839453
1210,-0.029763822
1211,-0.027086794
1212,0.017744705
1213,0.06392532
1214,-0.027265372
1215,-0.0036998505
1216,-0.019618804
1217,0.008444336
1218,-0.023837095
1219,-0.028994106
1220,-0.051364467
1221,0.03193036
1222,-0.051862374
1223,-0.03472039
1224,-0.02078489
1225,-0.023300415
1226,0.011402083
1227,-0.016129993
1228,0.008972446
1229,-0.039869625
1230,0.012211787
1231,0.007506304
1232,-0.02892404
1233,-0.050387885
1234,-0.028199473
1235,-0.0001310329
1236,-0.031409666
1237,-0.04655286
1238,-0.024681319
1239,-0.020110684
1240,-0.040648766
1241,-0.045918524
1242,0.0018625346
1243,-0.032579105
1244,-0.053625036
1245,-0.025620779
1246,0.003471782
1247,-0.017276078
1248,-0.037410747
1249,-0.010390193
1250,-0.023546264
1251,-0.048205253
1252,-0.02578975
1253,-0.029761251
1254,-0.04108663
1255,-0.0244525
1256,-0.076362744
1257,-0.02814519
1258,-0.04902198
1259,-0.021061191
1260,-0.062853016
1261,-0.03145937
1262,-0.047021367
1263,0.007785064
1264,0.00037242833
1265,-0.014569413
1266,-0.015527083
1267,-0.019146305
1268,-0.032164205
1269,-0.038469385
1270,-0.020100461
1271,-0.04561302
1272,-0.0065138605
1273,-0.008428814
1274,-0.041548263
1275,-0.021330528
1276,-0.04132431
1277,0.0041219215
1278,-0.03309439
1279,-0.01945442
1280,-0.018095132
1281,-0.00799122
1282,-0.011587087
1283,0.0041618333
1284,-0.01393828
1285,-0.029142046
1286,-0.043637674
1287,-0.009593831
1288,-0.047571633
1289,-0.021600261
1290,-0.006834087
1291,0.006337061
1292,-0.018621463
1293,0.024917014
1294,-0.014926538
1295,-0.015744757
1296,-0.028510306
1297,-0.025293713
1298,-0.003480573
1299,-0.04369292
1300,-0.012262457
1301,-0.0036901315
1302,-0.009458492
1303,-0.017584268
1304,-0.005080444
1305,0.002315787
1306,-0.0015129712
1307,-0.0032730156
1308,-0.010815053
1309,-0.01358279
1310,-0.0035076465
1311,-0.007397735
1312,-0.046855155
1313,-0.00976361
1314,-0.019416181
1315,-0.0021656905
1316,-0.018541196
1317,-0.04639701
1318,-0.030058667
1319,-0.025095519
1320,-0.011623818
1321,-0.020838557
1322,-0.022017546
1323,-0.0013995649
1324,0.02798789
1325,-0.025770655
1326,-0.037646193
1327,-0.0031286255
1328,-0.0081663625
1329,-0.014655573
1330,-0.0002693267
1331,-0.0041671377
1332,-0.014554818
1333,-0.03596352
1334,-0.013339435
1335,-0.004016132
1336,0.0109914765
1337,0.01437491
1338,-0.03227527
1339,-0.017075859
1340,-0.007042103
1341,-0.00012651904
1342,-0.020829959
1343,0.0008823984
1344,-0.014209568
1345,0.0064045624
1346,-0.003335315
1347,-0.016579473
1348,-0.050538015
1349,0.011605245
1350,-0.021780979
1351,0.017523846
1352,-0.005971119
1353,-0.020567406
1354,-0.0102944635
1355,0.028079055
1356,0.0036454347
1357,-0.03649817
1358,0.0072168903
1359,-0.007768406
1360,-0.026627494
1361,-0.033176668
1362,-0.016642487
1363,-0.0061926693
1364,-0.031451654
1365,-0.028578613
1366,-0.0031096393
1367,-0.026620222
1368,-0.0073355706
1369,-0.045519255
1370,-0.0020156067
1371,-0.0018015471
1372,-0.00022694393
1373,-0.010596065
1374,-0.0038291074
1375,-0.008869756
1376,0.021611959
1377,-0.002919199
1378,-0.0027021782
1379,-0.035486236
1380,-0.017331906
1381,-0.009189624
1382,-0.04088224
1383,-0.011150483
1384,-0.022112984
1385,-0.015112902
1386,-0.04871881
1387,-0.0038078036
1388,-0.0574924
1389,0.02360458
1390,-0.0071026613
1391,0.0032109628
1392,-0.005033106
1393,-0.05270771
1394,-0.0060486323
1395,-0.015117777
1396,0.02475278
1397,-0.035871703
1398,-0.017270993
1399,-0.04350626
1400,0.010844061
1401,-0.03240825
1402,-0.046701647
1403,-0.010684019
1404,-0.02263563
1405,-0.0134236235
1406,-0.007673257
1407,0.04304599
1408,0.01722591
1409,-0.006477197
1410,0.000824014
1411,-0.013005288
1412,0.01589654
1413,-0.003329668
1414,0.0007526685
1415,-0.015671926
1416,-0.000819834
1417,-0.007988906
1418,0.0014080065
1419,0.0076507777
1420,-0.0029573902
1421,-0.01930456
1422,-7.636486e-05
1423,0.0077587552
1424,0.0063230796
1425,0.01093854
1426,-0.009946185
1427,0.008531441
1428,0.010784341
1429,0.0042112353
1430,0.008880513
1431,-0.0017893639
1432,0.016379362
1433,-0.0028423176
1434,-0.015506707
1435,0.01389486
1436,0.016380152
1437,-0.0028105532
1438,-0.00019156687
1439,-0.009373716
1440,-0.00024650895
1441,0.006827386
1442,0.0041677905
1443,0.0067111803
1444,-0.015167909
1445,-0.000117713105
1446,-0.013873885
1447,0.010233091
1448,-0.01874106
1449,-0.004297435
1450,-0.0059535718
1451,-0.0014651206
1452,-0.010009456
1453,0.004053392
1454,0.0053590043
1455,-0.007802646
1456,0.010759074
1457,0.004139358
1458,-0.0008315656
1459,0.0018869764
1460,0.016249726
1461,-0.00047594158
1462,-0.007422707
1463,-0.010412452
1464,-0.007624359
1465,0.01335666
1466,0.0029090995
1467,-0.0068917433
1468,0.0030447762
1469,-0.007928989
1470,-0.0064282324
1471,0.007713833
1472,0.0047994414
1473,-0.005811039
1474,-0.0019299194
1475,-0.0023015842
1476,-0.0018308599
1477,0.010280123
1478,-0.0029356529
1479,-0.0047675716
1480,0.0007245947
1481,-0.010768528
1482,-0.013765599
1483,-0.012325229
1484,0.018941462
1485,0.007978225
1486,0.0063701207
1487,-0.0024963494
1488,0.0009232885
1489,-0.014099003
1490,-0.0025818527
1491,-0.0008059831
1492,0.004692592
1493,-0.00019668805
1494,0.0028192345
1495,-0.015380413
1496,0.012174474
1497,-0.0074086944
1498,0.0011885671
1499,0.0053462796
1500,-0.007023805
1501,-0.00026559155
1502,-0.0054878835
1503,-0.0053135036
1504,-0.006108321
1505,-0.002933573
1506,-0.0007905852
1507,0.005471016
1508,-0.0009265307
1509,-0.010887644
1510,0.011298578
1511,-0.0051303487
1512,0.0032822452
1513,-0.008205326
1514,0.014970564
1515,-0.002675944
1516,0.005695849
1517,0.0038300366
1518,-0.008932672
1519,-0.0033558866
1520,-0.016103951
1521,-0.006267003
1522,0.0050953496
1523,-0.0027559001
1524,0.004616948
1525,0.010489709
1526,-0.0068729725
1527,-0.012327344
1528,0.01486275
1529,-0.007983307
1530,0.009148836
1531,-0.003276642
1532,-0.009205541
1533,0.012153641
1534,0.008679124
1535,0.003578606
1536,0.003606441
1537,0.012747541
1538,0.0029575254
1539,0.0021030721
1540,-0.007082776
1541,-0.0012600028
1542,-0.003480357
1543,-0.016740633
1544,0.0015124994
1545,-0.004504685
1546,-0.007633748
1547,0.00016906095
1548,-0.014713521
1549,0.0042062183
1550,-0.01527778
1551,0.002566091
1552,0.009257322
1553,-0.013062683
1554,-0.0037373565
1555,0.0044906856
1556,-0.013446856
1557,0.017071228
1558,-0.0075539076
1559,-0.009178162
1560,0.002028809
1561,-0.0113337515
1562,-0.009255775
1563,0.0043573375
1564,0.0053057545
1565,-0.013064514
1566,-0.0014830744
1567,-0.008705916
1568,0.0018700209
1569,0.018151127
1570,-0.0067562438
1571,0.008038945
1572,2.9320274e-05
1573,-0.006641453
1574,0.006223105
1575,0.004032784
1576,0.017646573
1577,-0.0044767046
1578,-0.007969781
1579,-0.012114832
1580,0.004251794
1581,-0.008547793
1582,0.0011820865
1583,-0.0018178824
1584,0.007861171
1585,-0.0006614838
1586,0.0021651178
1587,-0.0042213295
1588,-0.0060531166
1589,0.005412219
1590,0.0019209887
1591,-0.0052921847
1592,0.0026039826
1593,-0.0097424
1594,-0.0071019903
1595,0.016106775
1596,-0.0012664824
1597,0.0080521405
1598,-0.0003317711
1599,-0.008880155
1600,-0.010132634
1601,-0.0025078675
1602,0.012652103
1603,0.008485415
1604,0.0016281059
1605,-0.0035304292
1606,0.00085795624
1607,0.00043478416
1608,0.009544684
1609,0.0042612874
1610,-0.003128565
1611,0.00936992
1612,-0.005440101
1613,-0.007638196
1614,0.013141309
1615,0.004415764
1616,-0.0018320049
1617,-0.0014079621
1618,-0.014538503
1619,-0.004876028
1620,0.006475396
1621,-0.0005292348
1622,0.012783196
1623,0.008625072
1624,-0.0009039195
1625,0.011404339
1626,-0.0062501454
1627,-0.005923134
1628,-0.013577078
1629,0.00791608
1630,0.005566344
1631,0.007420019
1632,0.0055926475
1633,0.006205232
1634,-0.0018466137
1635,0.01253253
1636,0.0064145126
1637,0.008527585
1638,0.01899137
1639,0.010678335
1640,0.007863264
1641,-0.0031043414
1642,0.014462821
1643,0.0101821255
1644,-0.008693394
1645,0.01169795
1646,0.014523178
1647,0.0065422803
1648,0.00753791
1649,0.0058237067
1650,0.007242774
1651,0.010143192
1652,-0.00042231282
1653,-0.0069970405
1654,0.01570048
1655,0.002150984
1656,0.0003435349
1657,-0.006584094
1658,0.006712263
1659,0.0010755002
1660,0.0029936552
1661,-0.015565385
1662,0.0060335468
1663,0.0012847928
1664,-0.010798375
1665,0.0039569275
1666,0.016700037
1667,0.0021400328
1668,0.008082896
1669,-0.01912209
1670,-0.004738058
1671,0.014555316
1672,0.003097283
1673,0.001073395
1674,-0.0020346858
1675,0.0003217456
1676,0.006342498
1677,-0.009935481
1678,-0.0032201665
1679,-0.012339963
1680,-0.0003633806
1681,0.006171659
1682,0.009731577
1683,0.00625764
1684,0.007817418
1685,-0.0047072703
1686,-0.007820068
1687,0.019275382
1688,0.0068763997
1689,0.017882058
1690,0.0030213234
1691,0.008257187
1692,-0.0057102786
1693,-0.0006678147
1694,-0.0014847296
1695,-0.010786763
1696,-0.00080250716
1697,-0.003308682
1698,0.0018326653
1699,-0.015301097
1700,0.0059811412
1701,-0.014111427
1702,0.007910182
1703,-0.008850321
1704,-0.003799873
1705,-0.013712868
1706,0.0043377737
1707,0.010993779
1708,0.010058789
1709,0.0030416842
1710,-0.005644301
1711,0.0067315153
1712,0.00026677566
1713,-0.005868491
1714,0.01206225
1715,0.0070759635
1716,0.0034359314
1717,0.0070163766
1718,-0.009081993
1719,-0.011880085
1720,-0.0051487708
1721,-0.012549755
1722,0.0038291633
1723,-0.007312566
1724,-0.007939771
1725,0.013633282
1726,0.011868987
1727,0.015638435
1728,-0.011079526
1729,-0.016208287
1730,-0.006312564
1731,0.0025862246
1732,-0.009191555
1733,-0.002774821
1734,0.0024568546
1735,0.009822577
1736,0.013175566
1737,0.0074442206
1738,-0.0123896785
1739,-0.0048166206
1740,-0.00025072714
1741,0.007787058
1742,0.007129867
1743,0.0032296786
1744,-0.0034530647
1745,-0.010066824
1746,0.016383857
1747,0.0027775692
1748,-0.005018511
1749,-0.00088032713
1750,-0.00742528
1751,0.006986612
1752,0.012131678
1753,0.002774616
1754,0.018640932
1755,0.0032459432
1756,0.005214798
1757,0.013637332
1758,-0.0077855787
1759,-0.01887433
1760,0.004324842
1761,0.00042330087
1762,0.011433313
1763,-0.0031994556
1764,0.00092364167
1765,-0.00656326
1766,0.00920088
1767,0.0059443465
1768,-0.00470363
1769,-0.0056867264
1770,-0.00036488552
1771,-0.0009258734
1772,-0.007520813
1773,-0.0097988285
1774,0.011819841
1775,0.002226542
1776,0.0041203797
1777,-0.0056034857
1778,-0.0008701018
1779,-0.008780586
1780,0.0027810591
1781,0.008096853
1782,-0.0024390025
1783,0.009697873
1784,0.004887317
1785,0.007936259
1786,-0.0006966035
1787,-0.00052534067
1788,-0.0021624616
1789,-0.0120325405
1790,0.014349578
1791,-0.008487234
1792,-0.0032248192
1793,-0.012833375
1794,0.0066820923
1795,0.0099272765
1796,0.0017213657
1797,-0.01015929
1798,0.006845067
1799,-7.7847006e-05
1800,-0.0008252145
1801,0.0028334067
1802,0.0063654124
1803,0.0038665566
1804,-0.0026321157
1805,0.011525773
1806,-0.007464339
1807,-0.016564455
1808,-0.006839329
1809,-0.013103472
1810,0.0024697615
1811,0.003803578
1812,-0.011256231
1813,-0.012584196
1814,-1.6741567e-05
1815,0.005681591
1816,0.013000584
1817,0.00897104
1818,-0.005358903
1819,-0.008811305
1820,-0.0073713674
1821,-0.003182343
1822,0.004202378
1823,0.0026158118
1824,-0.0037670226
1825,-0.0021387541
1826,0.0047416124
1827,0.0017177752
1828,0.0029816914
1829,-0.018620795
1830,0.004136953
1831,-0.0012285573
1832,-0.005540905
1833,0.008791215
1834,-0.0006779348
1835,-0.014930394
1836,0.0019379262
1837,-0.0012551205
1838,0.0066813617
1839,0.014329578
1840,-0.004537872
1841,-0.009568384
1842,-0.0012148411
1843,0.00033379617
1844,0.008605896
1845,-0.0034781306
1846,-0.0080984
1847,0.007090821
1848,-0.007840046
1849,0.006778999
1850,0.010986147
1851,0.0098472135
1852,-0.0144017255
1853,-0.006544998
1854,-0.017604973
1855,-0.006461851
1856,-0.015215531
1857,0.0041717505
1858,0.0048888167
1859,-0.0023981403
1860,0.0012025821
1861,0.012557641
1862,-0.008402112
1863,-0.009350361
1864,-0.0038927922
1865,0.0041036997
1866,-0.0035110025
1867,0.0053987973
1868,-0.015168255
1869,0.0142727215
1870,-0.0074307825
1871,-0.008264925
1872,-0.014457126
1873,-0.0016179889
1874,0.016002884
1875,-0.00653862
1876,0.0015078428
1877,0.0027957251
1878,0.00019341358
1879,-0.008156704
1880,-0.00313237
1881,-0.012951823
1882,-0.011570775
1883,-0.0027984472
1884,-0.009760524
1885,0.009562124
1886,-0.0031705846
1887,-0.00018199823
1888,0.009262373
1889,0.013540645
1890,-0.0072378227
1891,-0.00012843143
1892,0.009196871
1893,0.0045772167
1894,-0.0068377745
1895,-0.00032831082
1896,0.006128699
1897,-0.013057762
1898,-0.010621403
1899,0.010530665
1900,-0.003552263
1901,-0.010021164
1902,0.0029086736
1903,-0.016884027
1904,-0.019725148
1905,0.00014386272
1906,-0.0010309957
1907,0.010132288
1908,-0.006795901
1909,-0.0055420427
1910,-0.008188917
1911,0.016877875
1912,-0.008471056
1913,0.0017611481
1914,0.0001457393
1915,0.0030401386
1916,0.002879618
1917,-0.0062292945
1918,-0.004689804
1919,-0.008000291
1920,0.0134053165
1921,-0.014373925
1922,0.0102868015
1923,0.0059241937
1924,0.0062778317
1925,0.002421605
1926,0.0048030335
1927,-0.009516629
1928,-0.009523047
1929,0.0007123817
1930,0.0069917655
1931,-0.0097593255
1932,0.0029551769
1933,-0.0038276403
1934,-0.0015629062
1935,0.004708313
1936,0.006801701
1937,-0.018314846
1938,0.006909941
1939,-0.0020593281
1940,-0.009450865
1941,-0.003469197
1942,-0.0020194382
1943,0.0005669459
1944,-0.01855135
1945,-0.016821122
1946,-0.012563561
1947,-0.00020533988
1948,0.0075804046
1949,-0.0018260216
1950,-0.0037768355
1951,0.0008025324
1952,0.005160639
1953,0.008877615
1954,0.002072854
1955,0.003178367
1956,0.018162323
1957,-0.007856721
1958,0.013144659
1959,-0.0075700013
1960,-0.0030939877
1961,-0.008754856
1962,-0.0199381
1963,-0.0047151106
1964,-0.017741915
1965,-0.0042049703
1966,-0.0043182424
1967,-0.005566729
1968,-0.0050506843
1969,0.005622112
1970,0.011034489
1971,-0.0032240595
1972,-0.019467738
1973,0.0020092148
1974,-0.00018808998
1975,0.011677625
1976,0.016904823
1977,0.008120708
1978,-0.0070290375
1979,0.0011473169
1980,0.00073084875
1981,0.00023508284
1982,-0.0040759738
1983,0.005368795
1984,0.010133837
1985,-0.002894391
1986,-0.012626131
1987,-0.00479524
1988,-0.0020554215
1989,-0.0052680224
1990,-0.0069946633
1991,0.0020340069
1992,0.016893292
1993,0.007489114
1994,-2.3459495e-05
1995,0.009357446
1996,-0.0055927057
1997,0.0044572274
1998,0.0018908019
1999,0.010643854
2000,0.0046442403
2001,0.0046912646
2002,0.0020587258
2003,-0.0130549865
2004,0.010797097
2005,0.002243236
2006,0.01006249
2007,0.0036990142
2008,-0.011806071
2009,0.010735648
2010,-0.0032516944
2011,0.0063378112
2012,0.007475027
2013,-0.00033044355
2014,0.011371809
2015,-0.0014495137
2016,-0.0061601195
2017,-0.0010962288
2018,0.005707151
2019,0.002142724
2020,-0.0011998814
2021,-0.0040641055
2022,0.0040380303
2023,-0.007619092
2024,0.0043057115
2025,0.007597857
2026,0.0015942922
2027,-0.003052464
2028,-0.010731544
2029,-0.00025741383
2030,0.010829638
2031,0.0046074614
2032,0.009759424
2033,-0.0018739691
2034,0.0052060736
2035,0.0032419628
2036,0.01604728
2037,-0.0003057212
2038,0.0061764764
2039,0.0034459908
2040,-0.005337255
2041,0.0037150972
2042,-2.7635422e-05
2043,-0.0007730507
2044,0.01599651
2045,-0.0004917971
2046,-0.00042419054
2047,0.0038680753
2048,-0.0010639034
2049,-0.010862884
2050,-0.0026971095
2051,0.002671919
2052,0.0089746155
2053,-0.00021879429
2054,0.0042650877
2055,-0.00124607
2056,-0.0036689593
2057,0.01853814
2058,0.005318165
2059,0.01416317
2060,-0.009877077
2061,-0.008095313
2062,-0.0011716624
2063,-0.00196401
2064,-0.017768165
2065,0.002470195
2066,-0.006655203
2067,-0.008367433
2068,-0.0010336541
2069,-0.000387182
2070,0.0008906133
2071,-0.0049598035
2072,0.0007541787
2073,0.0029214409
2074,0.008491771
2075,-0.0068320576
2076,0.0053106216
2077,0.0044928314
2078,-0.008465605
2079,-0.014470751
2080,0.011744036
2081,-0.011912493
2082,-0.010165258
2083,-0.0046625566
2084,0.0053191194
2085,0.005568526
2086,-0.009382288
2087,0.0013555109
2088,-0.014612426
2089,-0.011470706
2090,0.017580207
2091,-0.016151283
2092,0.0072263437
2093,0.006909219
2094,-0.0101936795
2095,-0.011920778
2096,-0.0009737671
2097,-0.00087847165
2098,-0.01139668
2099,-0.0021511815
2100,-0.008403825
2101,0.0139359115
2102,-0.0046437895
2103,-0.005491177
2104,0.01020891
2105,0.011686913
2106,-0.009303203
2107,0.0024937075
2108,-0.0018264431
2109,0.004686627
2110,-0.01924383
2111,-0.00026794162
2112,0.006170357
2113,0.0036375476
2114,0.0120464405
2115,0.0146262795
2116,0.0137760015
2117,-0.0006928715
2118,-0.01986276
2119,-0.0018579881
2120,0.011478585
2121,-0.012643239
2122,0.0058742794
2123,0.007759135
2124,-0.0062710512
2125,0.0053421063
2126,5.7245346e-05
2127,0.009253738
2128,0.004583734
2129,0.0034872114
2130,-0.00810842
2131,-0.0067690555
2132,0.010357633
2133,0.0041308496
2134,-0.00046119443
2135,-0.0042165816
2136,0.014321451
2137,-0.0096285045
2138,0.007861441
2139,0.0005191905
2140,0.0023475948
2141,0.001264109
2142,-0.017080607
2143,0.011694512
2144,-0.004237399
2145,0.0029137873
2146,-0.0032653105
2147,0.0006688166
2148,0.009323984
2149,-0.0029656175
2150,-0.0014706736
2151,-0.0028241843
2152,-0.002287449
2153,-0.0025437668
2154,-0.012540924
2155,0.0031202438
2156,0.0010909893
2157,-0.015056854
2158,-0.0049583185
2159,0.018103398
2160,0.014456843
2161,-0.0061989254
2162,0.000727034
2163,-0.008384059
2164,0.0013482972
2165,0.00912489
2166,0.0058983904
2167,-0.009859598
2168,-0.0132548995
2169,-0.0036490422
2170,-0.00077645434
2171,0.0021319196
2172,0.0047789067
2173,0.009991439
2174,-0.005941524
2175,-0.0073072533
2176,0.010964627
2177,-0.023980534
2178,0.053520992
2179,0.034072895
2180,-0.08450685
2181,0.04015593
2182,0.04316164
2183,-0.0028389052
2184,0.047259353
2185,-0.07737207
2186,0.058308482
2187,0.01939716
2188,-0.014506924
2189,0.041992206
2190,-0.0068153916
2191,-0.07493755
2192,0.027967596
2193,0.037120044
2194,-0.044528216
2195,0.069432385
2196,0.021522738
2197,0.06494416
2198,-0.026906302
2199,0.028260615
2200,0.040731467
2201,0.060313974
2202,-0.07802075
2203,0.04620747
2204,0.008971337
2205,-0.07644008
2206,-0.0069461465
2207,0.033118445
2208,0.04629694
2209,0.0001043629
2210,-0.081690185
2211,-0.00093829056
2212,-0.00453129
2213,0.07193621
2214,0.051933806
2215,0.022697998
2216,-0.067693226
2217,0.008350693
2218,0.036485318
2219,-0.07240061
2220,-0.083783984
2221,0.020657443
2222,0.03524562
2223,0.001866328
2224,-0.051502146
2225,-0.001972461
2226,0.0149097545
2227,-0.054017425
2228,0.044586115
2229,0.0395678
2230,0.04616846
2231,-0.0017973944
2232,0.010509481
2233,0.10858568
2234,0.0779682
2235,0.011563102
2236,-0.0370083
2237,-0.083934925
2238,0.01661529
2239,0.016504588
2240,0.008184101
2241,0.035194498
2242,-0.062228423
2243,0.011484534
2244,0.050434787
2245,0.0534824
2246,0.051456384
2247,-0.0026129268
2248,0.047673877
2249,0.012476159
2250,-0.008687354
2251,-0.06928205
2252,0.040529054
2253,0.039555367
2254,0.019465605
2255,-0.00016016171
2256,0.026448613
2257,0.049836855
2258,-0.066878065
2259,0.001464522
2260,0.030461675
2261,0.0459688
2262,-0.012640093
2263,0.070365444
2264,-0.056641098
2265,0.04493213
2266,-0.00461213
2267,-0.0057773385
2268,-0.06813048
2269,-0.00034954655
2270,0.007744208
2271,0.024096316
2272,0.036619905
2273,0.0010309478
2274,-0.09039383
2275,0.044729862
2276,-0.094791666
2277,-0.05366967
2278,0.05243768
2279,-0.0016852067
2280,0.03718777
2281,0.021164663
2282,0.04867392
2283,-0.013745218
2284,0.059921548
2285,-0.025141211
2286,0.03240773
2287,-0.061281107
2288,-0.0023640664
2289,0.06314546
2290,-0.0030735699
2291,0.054570828
2292,-0.046754092
2293,0.035170816
2294,0.01398655
2295,0.041850697
2296,0.016633304
2297,0.03107883
2298,0.06902919
2299,-0.010527771
2300,0.021271236
2301,0.018343182
2302,-0.018344125
2303,-0.08866044
2304,0.048575636
2305,0.008086093
2306,-0.010037625
2307,-0.05490777
2308,-0.011586475
2309,0.010049589
2310,0.035829943
2311,0.049258493
2312,0.022908168
2313,0.07754518
2314,0.013210403
2315,0.033322606
2316,-0.006063709
2317,-0.049191628
2318,-0.022481717
2319,0.043247547
2320,0.023118556
2321,0.0216441
2322,0.031460445
2323,-0.046074275
2324,0.022861095
2325,0.007859865
2326,-0.027007192
2327,0.003469056
2328,0.0073769195
2329,0.05267146
2330,-0.075218044
2331,0.013244266
2332,-0.02877511
2333,0.076379396
2334,-0.004867946
2335,0.040957008
2336,-0.03136309
2337,-0.00592255
2338,0.07375498
2339,-0.00019276253
2340,-0.07773088
2341,-0.056428745
2342,0.024910819
2343,0.013710275
2344,-0.058017336
2345,0.0006425084
2346,0.04114998
2347,-0.0011796139
2348,-0.051678207
2349,0.022578318
2350,-0.019601207
2351,0.012207558
2352,0.050037723
2353,-0.04625767
2354,0.04129098
2355,-0.00028919097
2356,0.01692009
2357,0.021878459
2358,0.01893744
2359,0.029613605
2360,0.0016082514
2361,-0.0011080091
2362,-0.083967775
2363,0.015999416
2364,-0.0068177283
2365,-0.08361188
2366,0.0014698716
2367,0.019204248
2368,-0.012314886
2369,0.04597697
2370,-0.012131207
2371,0.034479804
2372,0.044500966
2373,0.019676697
2374,0.030029688
2375,-0.0012165519
2376,0.025056226
2377,0.003993545
2378,-0.0073685623
2379,0.05696704
2380,0.014033061
2381,-0.061025146
2382,0.011308107
2383,-0.002937999
2384,0.010854587
2385,0.03472823
2386,0.026637763
2387,-0.08242732
2388,0.03128959
2389,0.00956772
2390,0.027471252
2391,-0.0013018937
2392,0.037266336
2393,-0.065397315
2394,0.021051291
2395,-0.07623917
2396,0.040298227
2397,-0.019814378
2398,0.0242752
2399,0.00010437862
2400,0.0317108
2401,-0.040111292
2402,-0.09065546
2403,-0.05263119
2404,-0.06897479
2405,0.06777996
2406,0.04083064
2407,0.023225889
2408,0.038992625
2409,0.014152917
2410,0.045985866
2411,-0.08786179
2412,-0.0051692887
2413,-0.07598783
2414,0.004180207
2415,-0.061131682
2416,-0.006293542
2417,-0.01741201
2418,0.0036260083
2419,-0.00034378713
2420,0.029694913
2421,0.023368988
2422,0.11331355
2423,0.045061976
2424,0.09848968
2425,-0.01603339
2426,-0.021349812
2427,-0.0022312575
2428,-0.05475687
2429,0.018678349
2430,0.03274497
2431,-0.07207364
2432,0.052216515
2433,-0.026536014
2434,-0.049194444
2435,0.003966449
2436,0.027882611
2437,0.023294725
2438,-0.03173128
2439,-0.010003934
2440,-0.049041
2441,-0.07739752
2442,0.003288699
2443,0.049141947
2444,0.041371744
2445,-0.013801716
2446,-0.009471507
2447,0.04494334
2448,0.012276848
2449,-0.047999285
2450,-0.04480342
2451,-0.047081605
2452,0.048954878
2453,-0.029468115
2454,0.053705204
2455,-0.103934824
2456,0.026994545
2457,-0.00024147957
2458,-0.1056608
2459,-0.0004822614
2460,0.0022853315
2461,-0.076440796
2462,-0.07605908
2463,-0.03826995
2464,0.06539956
2465,0.0010601936
2466,-0.08149778
2467,0.03781346
2468,-0.0018778233
2469,-0.056278925
2470,0.011409005
2471,-0.0054902174
2472,0.0654346
2473,0.02934943
2474,0.031642538
2475,-0.07050625
2476,-0.062577136
2477,0.0154334465
2478,0.07718149
2479,-9.160001e-05
2480,0.056131214
2481,0.031289533
2482,0.017755734
2483,0.025404714
2484,0.03318638
2485,0.01846643
2486,0.049915016
2487,0.006693856
2488,-0.042655837
2489,-0.016036635
2490,-0.08376472
2491,0.02520243
2492,-0.09658577
2493,-0.08391693
2494,-0.02913986
2495,-0.00017252013
2496,0.0003679868
2497,0.04288351
2498,0.023242606
2499,0.03030872
2500,-0.05206676
2501,0.03911125
2502,0.013452984
2503,-0.011900728
2504,-0.005223773
2505,-0.03367593
2506,-0.0007398729
2507,-0.0021358759
2508,0.035471205
2509,-0.062127586
2510,0.057533104
2511,0.0081048645
2512,0.00060967595
2513,-0.05303914
2514,0.0702203
2515,-8.992529e-05
2516,-0.00015236736
2517,0.006012602
2518,0.020388382
2519,0.0009198322
2520,0.028606227
2521,0.033428866
2522,0.039505824
2523,-0.0009903312
2524,0.05321174
2525,0.0036547284
2526,0.046437018
2527,-0.059757046
2528,-0.034503996
2529,0.027617063
2530,0.0699923
2531,0.047326364
2532,-0.0769931
2533,-0.05387186
2534,-0.0018012907
2535,0.018053517
2536,0.011856535
2537,-0.065844715
2538,-0.050978955
2539,-0.0206048
2540,-0.080244236
2541,-0.076139204
2542,0.02305812
2543,-0.0057988716
2544,0.011465408
2545,-0.04678354
2546,0.0046995287
2547,0.0004614568
2548,0.017083231
2549,-0.051878754
2550,-8.854382e-05
2551,-0.012673982
2552,-0.08307626
2553,0.033769347
2554,-0.05179893
2555,0.0016697132
2556,0.038007066
2557,-0.03445798
2558,-0.06662881
2559,0.013637615
2560,-0.035038248
2561,0.111136876
2562,0.061478097
2563,-0.029249212
2564,-0.08450009
2565,0.057373118
2566,0.02350265
2567,-0.043283783
2568,0.028657341
2569,-0.02741361
2570,-0.036154687
2571,-0.005627576
2572,0.0733256
2573,-0.038020596
2574,0.03325428
2575,-0.075046435
2576,-0.03513315
2577,-0.049266238
2578,-0.04198284
2579,-0.031229107
2580,0.0067867585
2581,-0.065644294
2582,0.06405505
2583,0.05027768
2584,-0.018398099
2585,-0.039044145
2586,-0.05661972
2587,-0.036767796
2588,0.024298636
2589,-0.0011143275
2590,-0.03318101
2591,-0.038206764
2592,-0.0313283
2593,-0.08977284
2594,-0.08152833
2595,-0.0021024805
2596,-0.0030759908
2597,-0.036350563
2598,-0.04636167
2599,-0.013302417
2600,0.04342975
2601,0.0089853285
2602,-0.022120725
2603,0.02251567
2604,-0.013975679
2605,-0.028208245
2606,0.021613827
2607,-0.10100441
2608,-0.051645316
2609,-0.035797387
2610,-0.02276532
2611,0.044659596
2612,-0.0002692625
2613,-0.035745025
2614,0.022809854
2615,0.030971026
2616,-0.042373132
2617,-0.03910957
2618,-0.08382498
2619,-0.071239285
2620,0.027279543
2621,-0.00046450892
2622,-0.0029365974
2623,0.0046478324
2624,-0.017514708
2625,0.02642965
2626,0.017027684
2627,-0.007365291
2628,-0.051801153
2629,0.004781228
2630,0.080973014
2631,0.009025039
2632,-0.021323761
2633,-0.023153054
2634,-0.065425225
2635,0.020885047
2636,-0.023150273
2637,-0.044511
2638,-0.010287594
2639,0.011700497
2640,-0.022795746
2641,-0.052555684
2642,-0.06720128
2643,0.08133299
2644,-0.028396426
2645,-0.0009950097
2646,0.006272687
2647,-0.023970162
2648,-0.03393538
2649,-0.06569043
2650,0.01407573
2651,0.046326373
2652,0.028313443
2653,-0.08895699
2654,0.087574445
2655,-0.020880545
2656,-0.034602292
2657,-0.046977155
2658,-0.09030442
2659,-0.03467633
2660,0.05498685
2661,-0.053604938
2662,0.03864589
2663,-0.06681119
2664,-0.0012084573
2665,-0.048873108
2666,-0.051595904
2667,-0.08806909
2668,0.07291031
2669,-0.067073636
2670,-0.002495579
2671,0.029188966
2672,-0.039170608
2673,0.047218814
2674,-0.0026286722
2675,0.014605815
2676,-0.081048295
2677,-0.00069001416
2678,-0.084273614
2679,-0.025237635
2680,0.016809514
2681,0.0015850976
2682,-0.049668666
2683,-0.090846255
2684,0.025516264
2685,0.07215247
2686,-0.066567525
2687,0.019767452
2688,-0.035041895
2689,0.03809424
2690,-0.049501274
2691,-0.0036354156
2692,-0.08450824
2693,-0.0004990599
2694,-0.031784143
2695,-0.043085445
2696,-0.04968346
2697,0.015731448
2698,-0.02556054
2699,0.016723732
2700,0.069050826
2701,-0.041970495
2702,0.03750438
2703,-0.07396779
2704,-0.025333574
2705,0.08897763
2706,0.027909769
2707,0.021429049
2708,-0.081257395
2709,-0.01012367
2710,-0.103711896
2711,-0.012490404
2712,-0.028966384
2713,0.017394882
2714,-0.081462994
2715,-0.017066536
2716,-0.035308532
2717,-0.076311275
2718,0.06701109
2719,0.01179756
2720,-0.031421658
2721,0.022933763
2722,-0.08151176
2723,0.016374474
2724,0.039056912
2725,-0.05639277
2726,0.035141632
2727,0.1066959
2728,-0.028141003
2729,-0.023281401
2730,-0.004481325
2731,0.050837137
2732,-0.076068774
2733,-0.02616239
2734,0.04865184
2735,0.037403956
2736,-0.05134123
2737,-0.045855675
2738,0.015921608
2739,-0.0024658947
2740,0.04553405
2741,-0.037718184
2742,-0.02274812
2743,-0.06051139
2744,-0.040536378
2745,-0.017174555
2746,-0.083736576
2747,-0.07114608
2748,-0.049076278
2749,-0.08386421
2750,-0.012392246
2751,-0.011628359
2752,0.06380775
2753,-0.0050759125
2754,0.017939553
2755,-0.0055661467
2756,-0.051785532
2757,-0.024528164
2758,-0.02349361
2759,-0.087900355
2760,-0.027267624
2761,-0.03351253
2762,0.03165148
2763,-0.06919487
2764,-0.012227141
2765,-0.045330323
2766,-0.004193015
2767,-0.0013268384
2768,0.09501228
2769,-0.052712996
2770,-0.066638075
2771,0.015421485
2772,-0.024077453
2773,0.06808715
2774,-0.009169561
2775,-0.020232433
2776,0.05892875
2777,-0.06564691
2778,-0.026608719
2779,-0.054993525
2780,-0.0028904064
2781,-0.089143425
2782,-0.042128026
2783,-0.04396831
2784,-0.03471608
2785,0.006762615
2786,-0.090246834
2787,-0.052676022
2788,0.0656048
2789,-0.03313979
2790,-0.016772179
2791,0.0039250874
2792,-0.0014446884
2793,-0.06598383
2794,-0.051062144
2795,0.06773634
2796,-0.08015838
2797,-0.07579031
2798,-0.07657004
2799,0.036570486
2800,-0.010515947
2801,-0.025834914
2802,0.02487998
2803,-0.06803997
2804,-0.08475461
2805,-0.05601584
2806,-0.004182351
2807,-0.015764693
2808,-0.081900366
2809,0.06424813
2810,0.038850833
2811,-0.110810995
2812,-0.037170727
2813,-0.0004283411
2814,-0.06646129
2815,-0.088761464
2816,-0.034953132
2817,0.0037851601
2818,-0.049580075
2819,-0.029155305
2820,-0.08470607
2821,-0.0015292083
2822,-0.031591423
2823,-0.019478207
2824,-0.04133993
2825,-0.03519336
2826,-0.03640651
2827,0.095338166
2828,0.07507028
2829,-0.04889788
2830,0.02031483
2831,-0.074919805
2832,-0.024871243
2833,0.0024440028
2834,-0.010457167
2835,-0.046750475
2836,0.037695967
2837,-0.019809337
2838,0.005331545
2839,0.0093116425
2840,-0.030512402
2841,-0.002672567
2842,-0.07028739
2843,-0.03677625
2844,0.035310782
2845,-0.02161109
2846,0.013557914
2847,0.11197637
2848,-0.031426165
2849,0.09692888
2850,-0.081579305
2851,-0.022676967
2852,0.06895278
2853,-0.033573166
2854,-0.009020879
2855,-0.04121393
2856,-0.06800606
2857,0.006742028
2858,-0.036972765
2859,0.01169178
2860,0.05200637
2861,-0.027741168
2862,-0.1698038
2863,0.080244504
2864,-0.04142657
2865,-0.044140488
2866,0.03878301
2867,-0.011735852
2868,-0.0030883949
2869,-0.03750085
2870,0.017250137
2871,0.066082984
2872,-0.041472863
2873,-0.03919655
2874,-0.03773402
2875,-0.07078043
2876,-0.032240562
2877,-0.058643974
2878,0.0027191204
2879,-0.0028507495
2880,-0.019881733
2881,-0.004381529
2882,-0.062232096
2883,-0.018915579
2884,-0.051811468
2885,-0.002428075
2886,-0.027155275
2887,-0.055536654
2888,-0.02368239
2889,-0.011910312
2890,0.01325493
2891,-0.06414341
2892,-0.016914805
2893,-0.038854994
2894,-0.032941528
2895,0.012600646
2896,0.024819357
2897,-0.018552734
2898,-0.06728903
2899,0.011563676
2900,-0.028065095
2901,-0.055801503
2902,0.010678671
2903,0.022406712
2904,-0.057130277
2905,-0.06567901
2906,0.052623596
2907,-0.07662729
2908,0.015415724
2909,-0.08400891
2910,-0.00032465614
2911,-0.044846844
2912,-0.034663886
2913,-0.010495413
2914,-0.06546579
2915,-0.040423304
2916,-0.068666495
2917,-0.053518437
2918,-0.0063847834
2919,-0.06671986
2920,-0.007966351
2921,-0.0391113
2922,-0.05114134
2923,-0.08832117
2924,-0.08019826
2925,0.062207963
2926,0.015905246
2927,0.023790909
2928,0.0862549
2929,-0.024660727
2930,0.10447731
2931,-0.0340487
2932,-0.08223858
2933,-0.049187478
2934,-0.008941146
2935,-0.006770816
2936,-0.07126581
2937,-0.023224171
2938,-0.05198195
2939,-0.06684778
2940,-0.028362358
2941,-0.06770185
2942,-0.066814385
2943,-0.048643406
2944,-0.03502572
2945,-0.09944037
2946,-0.049224377
2947,-0.055264033
2948,-0.072081625
2949,0.032591358
2950,-0.03175437
2951,-0.043052066
2952,-0.049224142
2953,-0.07735901
2954,0.0014908969
2955,0.012123653
2956,0.071427874
2957,-0.049837727
2958,0.03915731
2959,-0.07512993
2960,-0.018076839
2961,-0.029052552
2962,-0.044664226
2963,-0.046601906
2964,0.08813917
2965,-0.05008172
2966,0.017422
2967,-0.10387488
2968,-0.036785968
2969,0.014809249
2970,0.07276533
2971,-0.036727007
2972,-0.011147076
2973,-0.07640367
2974,-0.01661419
2975,0.0130638145
2976,-0.030406076
2977,-0.011011417
2978,-0.03679693
2979,-0.025803983
2980,0.032147214
2981,-0.056162976
2982,-0.016328387
2983,-0.006033895
2984,-0.067835376
2985,-0.051771965
2986,-0.037991453
2987,0.013264376
2988,-0.08263552
2989,-0.027630892
2990,0.06341028
2991,-0.008408791
2992,-0.05141622
2993,-0.045461334
2994,0.038733564
2995,-0.085268445
2996,-0.002114608
2997,-0.037184212
2998,-0.043745115
2999,-0.06077159
3000,-0.04240498
3001,-0.03344786
3002,-0.024703734
3003,-0.071012594
3004,-0.05702447
3005,-0.07058441
3006,-1.1370314e-05
3007,0.022772064
3008,-0.05551551
3009,0.00025436102
3010,-0.024797162
3011,-0.04352925
3012,-0.052119218
3013,0.0004048127
3014,-0.0066387057
3015,-0.008479827
3016,-0.025919525
3017,-0.031022144
3018,0.08621141
3019,-0.069162965
3020,0.14835338
3021,0.0015061506
3022,0.04511565
3023,-0.0030211518
3024,-0.029999198
3025,-0.04985958
3026,-0.035088636
3027,-0.024144595
3028,-0.053289134
3029,-0.0010792749
3030,-0.0308799
3031,0.030895835
3032,0.012140333
3033,-0.06559885
3034,-0.015627053
3035,-0.058679704
3036,0.009396581
3037,-0.08892634
3038,-0.01881017
3039,-0.0016226427
3040,-0.034663636
3041,-0.04885047
3042,-0.0902811
3043,-0.027556444
3044,-0.09835638
3045,-0.026096141
3046,-0.030977665
3047,-0.06698532
3048,-0.001644645
3049,-0.06581759
3050,-0.050872646
3051,-0.08757975
3052,-0.0801184
3053,-0.075806126
3054,0.044710148
3055,-0.061256725
3056,0.026695661
3057,-0.04680416
3058,0.012202334
3059,-0.063128926
3060,-0.084783815
3061,-0.03106439
3062,0.10128149
3063,-0.00010113254
3064,-0.024383146
3065,-0.0015770763
3066,-0.05180397
3067,-0.10123487
3068,-0.03044718
3069,0.14972802
3070,-0.06683075
3071,-0.088987045
3072,-0.03531224
3073,0.04073093
3074,-0.049440708
3075,-0.055115506
3076,-0.08447242
3077,-0.012581983
3078,-0.031609483
3079,-0.029666482
3080,-0.049255185
3081,-0.042352542
3082,-0.036065035
3083,-0.03376019
3084,0.09141765
3085,-0.049426645
3086,0.051742245
3087,-0.074995585
3088,-0.047381878
3089,-0.027442956
3090,-0.04364744
3091,-0.027103959
3092,-0.035222985
3093,-0.028357169
3094,0.08406261
3095,0.0672185
3096,-0.03605706
3097,0.09645526
3098,-0.029121315
3099,-0.036766674
3100,-0.031915497
3101,-0.034122437
3102,-0.018662937
3103,-0.025003063
3104,-0.031078117
3105,0.0943313
3106,-0.033808317
3107,0.08801523
3108,-0.078803256
3109,-0.0120464275
3110,-0.04705627
3111,-0.03610819
3112,-0.06780968
3113,-0.038447466
3114,-0.03697059
3115,0.041451544
3116,-0.036783673
3117,-0.026101816
3118,0.05759239
3119,0.07641763
3120,-0.051585943
3121,-0.034681324
3122,0.007352774
3123,-0.014383788
3124,-0.031234344
3125,-0.03765582
3126,-0.025701841
3127,-0.060771093
3128,-0.037232444
3129,-0.026833856
3130,-0.031071207
3131,-0.055788103
3132,-0.0047264243
3133,-0.041122273
3134,-0.057919566
3135,0.06974016
3136,-0.055139545
3137,0.0016168769
3138,-0.062216498
3139,-0.01613234
3140,-0.052130803
3141,-0.047470737
3142,-0.026215639
3143,0.015457592
3144,-0.026795343
3145,-0.033441573
3146,-0.04736932
3147,-0.04967692
3148,-0.018103812
3149,-0.043749858
3150,0.13656676
3151,0.03277097
3152,-0.027233176
3153,-0.052698895
3154,-0.056866586
3155,-0.0022451445
3156,-0.03607596
3157,-0.018557152
3158,-0.02708903
3159,-0.0146327
3160,-0.010935396
3161,-0.06571031
3162,-0.052345574
3163,-0.062126413
3164,0.033849552
3165,-0.05335202
3166,-0.05517221
3167,-0.03853436
3168,-0.034275737
3169,-0.030258644
3170,-0.0735666
3171,-0.024774918
3172,-0.084705964
3173,-0.038322683
3174,-0.029444821
3175,-0.066774584
3176,0.08755742
3177,-0.05244344
3178,-0.051569413
3179,-0.06859046
3180,-0.07228939
3181,-0.07569693
3182,0.027401632
3183,-0.05103604
3184,0.0425418
3185,-0.02247514
3186,0.021773048
3187,-0.056612603
3188,-0.08357535
3189,-0.042981673
3190,-0.01344373
3191,-0.02060231
3192,-0.07644755
3193,0.0015201224
3194,-0.022822458
3195,-0.047553826
3196,-0.054732334
3197,0.034211647
3198,-0.06682357
3199,-0.08893225
3200,0.0034963393
3201,0.055347625
3202,-0.021652957
3203,-0.055044938
3204,-0.076360784
3205,-0.040161952
3206,-0.031623874
3207,-0.04073587
3208,-0.03411368
3209,-0.012566513
3210,-0.036005434
3211,0.03033036
3212,0.0728941
3213,-0.049223296
3214,0.03276586
3215,-0.07471895
3216,-0.04600635
3217,0.033864234
3218,-0.04453725
3219,0.052767944
3220,-0.047865473
3221,0.074400306
3222,0.06786706
3223,0.01639364
3224,-0.034117065
3225,0.08911656
3226,-0.011733804
3227,-0.036713455
3228,-0.041160256
3229,-0.019128533
3230,-0.04550019
3231,-0.03805795
3232,-0.030153438
3233,0.07294005
3234,-0.028258419
3235,0.07067346
3236,-0.07675218
3237,0.0550962
3238,-0.023438804
3239,0.044057038
3240,-0.06779551
3241,-0.00298635
3242,-0.037289184
3243,-0.0877346
3244,-0.066943936
3245,-0.025578884
3246,0.018316325
3247,0.011168996
3248,-0.051431123
3249,-0.046064567
3250,-0.050572596
3251,-0.023564585
3252,0.0049101585
3253,-0.036282416
3254,0.00972867
3255,0.008927569
3256,-0.042438295
3257,-0.02954088
3258,-0.034636207
3259,-0.07041565
3260,0.049483653
3261,-0.08291191
3262,-0.060293797
3263,0.047885675
3264,-0.055306572
3265,-0.04279312
3266,-0.062247753
3267,-0.04159192
3268,-0.051915776
3269,0.03875983
3270,-0.032982375
3271,0.07829532
3272,-0.021050327
3273,-0.028929166
3274,-0.0816524
3275,-0.0690374
3276,-0.012833111
3277,-0.018984798
3278,0.08969896
3279,0.03242015
3280,-0.02345037
3281,-0.052446898
3282,-0.038004357
3283,0.0432224
3284,-0.052330207
3285,0.024918566
3286,-0.027038397
3287,-0.0012279102
3288,-0.0047551673
3289,-0.06573618
3290,0.0036273627
3291,-0.07467599
3292,0.0073476946
3293,-0.08922267
3294,0.00999905
3295,-0.045634467
3296,-0.034096133
3297,-0.047777306
3298,-0.03901311
3299,-0.05282618
3300,-0.098123915
3301,-0.03858127
3302,-0.027195122
3303,-0.016056223
3304,-0.04326498
3305,-0.05037716
3306,-0.04422
3307,-0.041783478
3308,-0.08001138
3309,0.008141232
3310,-0.014219712
3311,-0.061242722
3312,0.023865452
3313,-0.023002263
3314,-0.055119317
3315,-0.03595875
3316,-0.061568942
3317,-0.05582458
3318,-0.0015980483
3319,-0.050310396
3320,0.054812383
3321,-0.04201564
3322,0.016652828
3323,-0.099492505
3324,-0.05476269
3325,0.017538883
3326,-0.066642694
3327,-0.06662654
3328,-0.03530259
3329,0.03232147
3330,0.0050298152
3331,-0.054913327
3332,-0.06913533
3333,-0.039795876
3334,-0.03122751
3335,0.0069969627
3336,-0.04921573
3337,-0.04198813
3338,-0.03538808
3339,0.039626613
3340,-0.0048066173
3341,-0.049369317
3342,-0.03294926
3343,-0.06343042
3344,-0.045278944
3345,-0.019705515
3346,-0.015933093
3347,0.038024213
3348,0.01635568
3349,0.062799916
3350,0.036921572
3351,0.019929241
3352,-0.033909407
3353,0.06421006
3354,-0.019808825
3355,-0.022489447
3356,-0.031079024
3357,-0.04027165
3358,-0.06684782
3359,0.0017508067
3360,-0.021136565
3361,0.044312004
3362,-0.02555177
3363,0.07524922
3364,-0.07841021
3365,0.04614747
3366,0.012421636
3367,0.021122439
3368,-0.05894528
3369,-0.031329583
3370,-0.035181105
3371,0.019971324
3372,-0.044947773
3373,-0.021600401
3374,0.013461559
3375,0.029126158
3376,-0.04616746
3377,-0.007478043
3378,-0.05061668
3379,-0.004058275
3380,0.02170118
3381,-0.03600935
3382,0.022186799
3383,-0.013616352
3384,-0.03726993
3385,0.06196222
3386,-0.02090177
3387,-0.063800484
3388,0.04661609
3389,-0.082923114
3390,-0.04984138
3391,0.041409254
3392,-0.010951782
3393,0.014223647
3394,-0.0623938
3395,-0.03910669
3396,-0.05195038
3397,-0.02933976
3398,0.019298842
3399,0.063437864
3400,-0.0023876545
3401,-0.029350068
3402,-0.06678515
3403,-0.06904552
3404,0.041505
3405,-0.0008336748
3406,0.101426944
3407,0.011249504
3408,0.020046424
3409,-0.0419819
3410,-0.042272314
3411,0.016156219
3412,-0.05158237
3413,-0.021557998
3414,-0.026110211
3415,0.013190066
3416,-0.0570097
3417,-0.051734485
3418,-0.0019281859
3419,-0.025167871
3420,-0.016468955
3421,-0.048890587
3422,0.015951978
3423,-0.043333262
3424,-0.03358199
3425,-0.027616119
3426,-0.031411275
3427,-0.05275452
3428,-0.06937187
3429,-0.043233562
3430,-0.017821062
3431,0.022127405
3432,-0.03873322
3433,-0.0065258904
3434,-0.050909664
3435,-0.03171196
3436,-0.066008866
3437,-0.022256335
3438,-0.030729644
3439,-0.060962282
3440,-0.042780265
3441,-0.046601634
3442,0.008343703
3443,-0.0010341762
3444,-0.04952084
3445,-0.055737715
3446,0.01786429
3447,-0.050246004
3448,0.088786945
3449,0.0187124
3450,-0.051682636
3451,-0.058711346
3452,-0.054927416
3453,0.012857395
3454,-0.044546064
3455,-0.07559701
3456,-0.0020549945
3457,0.0078281155
3458,0.005300463
3459,0.012007222
3460,0.015408564
3461,-0.013752905
3462,-0.010687661
3463,-0.007879805
3464,-0.0041249525
3465,-0.014320366
3466,0.0054401364
3467,0.0030547867
3468,-0.0004204107
3469,-0.020994574
3470,-0.0074966215
3471,-0.00066198054
3472,-0.0076425895
3473,0.0155204255
3474,0.0005061876
3475,-0.0058596293
3476,-0.008199845
3477,-0.003926251
3478,0.017439261
3479,-0.0036098433
3480,0.015473926
3481,0.017944448
3482,0.0026149785
3483,-0.006923202
3484,-0.00074328366
3485,-0.013908944
3486,-0.009088691
3487,-0.00018090378
3488,-0.0007966589
3489,0.012989312
3490,-0.01150514
3491,0.0314694
3492,0.00015322954
3493,0.014272979
3494,0.0131127685
3495,0.033392116
3496,0.020773701
3497,0.007783545
3498,0.0013938356
3499,-0.003021899
3500,0.0010457847
3501,-0.013132399
3502,0.02394846
3503,0.015105317
3504,-0.005540477
3505,-3.7788384e-05
3506,-0.010070439
3507,0.015032308
3508,0.016368335
3509,-0.016789457
3510,-0.010528515
3511,0.025287412
3512,0.004880006
3513,0.007774258
3514,-0.0130723715
3515,-0.0024372567
3516,0.017423892
3517,0.0057802703
3518,0.0054040714
3519,-0.013367546
3520,0.019092172
3521,-0.010034677
3522,0.0033918852
3523,0.0020591025
3524,-0.00987754
3525,0.004501346
3526,0.024011381
3527,0.005269404
3528,0.010801146
3529,-0.018547887
3530,0.017248122
3531,0.0052548815
3532,0.026742501
3533,0.0013921038
3534,-0.004636535
3535,-0.019576536
3536,0.027604546
3537,-0.0006968368
3538,-0.0048612533
3539,-0.0038215723
3540,-0.0027294056
3541,0.014505346
3542,0.0003389542
3543,0.011397539
3544,0.0006131854
3545,-0.008886125
3546,0.013945172
3547,-0.012200361
3548,0.010068405
3549,-0.011503295
3550,0.013248543
3551,-0.013005379
3552,-0.0073795216
3553,-0.0037736055
3554,-0.008889419
3555,0.001793854
3556,-0.011291703
3557,0.018162528
3558,0.010799167
3559,0.009030395
3560,0.018767819
3561,0.0045844894
3562,0.008364791
3563,0.011789256
3564,0.010616493
3565,0.0013070771
3566,-0.0111516
3567,0.01453109
3568,0.017545043
3569,-0.014135637
3570,-0.0063081076
3571,0.029600952
3572,-0.0009233141
3573,-0.011520985
3574,0.019658947
3575,-0.004357376
3576,0.009298497
3577,-0.010813904
3578,0.013305105
3579,-0.01227267
3580,-0.008620234
3581,0.01102303
3582,-0.0055584474
3583,-0.006028268
3584,-0.0012282917
3585,-0.014541673
3586,-0.011725261
3587,0.0011282857
3588,0.009097805
3589,0.013127984
3590,-0.006092272
3591,0.014480248
3592,-0.015286562
3593,-0.0075740814
3594,-0.0074077975
3595,0.016780486
3596,0.013326864
3597,0.012319201
3598,0.0034934415
3599,0.010323192
3600,0.0054101734
3601,0.0085207205
3602,0.012522389
3603,0.0029257599
3604,0.007829753
3605,0.007898718
3606,-0.0064641177
3607,-0.0004298461
3608,0.00558383
3609,0.009200591
3610,0.00870718
3611,0.00078693975
3612,-0.011047781
3613,-0.011283382
3614,-0.0071039335
3615,0.0033951777
3616,-0.0062447814
3617,0.005084634
3618,0.017543627
3619,-0.0112776
3620,-0.008953054
3621,0.014374084
3622,-0.008227224
3623,-0.006437453
3624,0.001573069
3625,-0.008167367
3626,-0.002426753
3627,-0.00040145768
3628,0.009716606
3629,-0.017624306
3630,0.0065749087
3631,0.002246293
3632,0.0025117206
3633,-0.0007581619
3634,-0.0072251437
3635,-0.004780197
3636,0.002229537
3637,-0.0048091337
3638,0.008665755
3639,-0.012980542
3640,-0.017295275
3641,0.00808611
3642,-0.0077287196
3643,-0.010478389
3644,-0.005554325
3645,0.0054974398
3646,-0.0056623016
3647,0.009335071
3648,0.0007258011
3649,-0.01673062
3650,-0.0032799717
3651,0.014673395
3652,-0.0022353104
3653,0.0029114806
3654,-0.0012963375
3655,0.01691377
3656,-0.010902501
3657,0.0031634795
3658,0.00030353785
3659,-0.0051184893
3660,0.011342827
3661,-0.0004041864
3662,-0.008457088
3663,-0.008274129
3664,-0.0015619707
3665,0.0048299846
3666,-0.001747196
3667,-0.0010792442
3668,0.0029289373
3669,-0.013330604
3670,0.014277804
3671,0.012528289
3672,0.0029179151
3673,-0.0046166624
3674,-0.004770452
3675,0.0065242616
3676,0.0028909764
3677,0.010642125
3678,-0.009228075
3679,-0.0037021025
3680,0.004719786
3681,0.010176271
3682,0.004240179
3683,0.015131743
3684,0.011078032
3685,-0.007751369
3686,0.0087235775
3687,0.0032436226
3688,0.009072692
3689,0.01705574
3690,0.0016403465
3691,0.0023863905
3692,0.006704538
3693,0.0015023986
3694,-0.007040742
3695,0.0040886975
3696,0.016314378
3697,0.019151164
3698,-0.0073446315
3699,0.0009196607
3700,0.00867511
3701,0.008534026
3702,-0.006665615
3703,0.011280782
3704,0.01775444
3705,-0.00077747693
3706,0.015306509
3707,-0.0047780606
3708,-0.0054810187
3709,0.014630073
3710,0.0010794834
3711,0.0013165422
3712,0.0012834107
3713,-0.002369366
3714,0.018691208
3715,0.0035251435
3716,0.007105935
3717,-0.0009599633
3718,-0.0031165064
3719,0.0053760065
3720,0.0014456952
3721,0.0010704123
3722,0.018241704
3723,-0.015731141
3724,0.008370402
3725,-0.0065004784
3726,0.00092624826
3727,-0.004453825
3728,0.003433346
3729,-0.0074437014
3730,-0.01694788
3731,-0.007481137
3732,0.0043157223
3733,-0.0025523785
3734,-0.00073681434
3735,0.00015594598
3736,0.0011693585
3737,-0.018680677
3738,-0.012550271
3739,-0.002247522
3740,-0.007657959
3741,-0.007889387
3742,0.0077969017
3743,-0.0061220895
3744,-0.0016122909
3745,-0.012200634
3746,-0.012243767
3747,-0.005069943
3748,-0.0046999077
3749,-0.00537244
3750,0.0016991408
3751,-0.002902061
3752,-0.017537089
3753,0.019273318
3754,0.010904557
3755,0.018223012
3756,-0.0067401705
3757,-0.012635046
3758,0.00015112662
3759,0.010258443
3760,-0.0029874549
3761,-0.008553182
3762,0.0015293008
3763,0.0068685967
3764,0.017759545
3765,0.008960868
3766,-0.0004575994
3767,-0.005034883
3768,-0.0056910384
3769,0.005788236
3770,0.005920915
3771,0.016910588
3772,0.0043154927
3773,0.004427368
3774,0.0117504345
3775,0.00064587285
3776,0.009503509
3777,0.012965634
3778,-0.004812221
3779,0.009650546
3780,0.00075149216
3781,0.008787995
3782,0.019434676
3783,-0.0045088106
3784,-0.0103117265
3785,0.005352919
3786,0.016285915
3787,0.0050968193
3788,-0.0030930042
3789,0.00048783864
3790,0.011993078
3791,0.0056689065
3792,0.007679888
3793,0.0032715898
3794,0.0031283838
3795,-0.016946584
3796,0.0099221
3797,0.017697198
3798,-0.009131655
3799,0.0137238
3800,-0.0050372183
3801,-0.009424598
3802,0.007117839
3803,-0.018650433
3804,0.00027282516
3805,0.0026835224
3806,-0.0098478915
3807,0.0056155035
3808,-0.014973228
3809,-0.009905898
3810,-0.013793993
3811,-0.0019821245
3812,0.008702734
3813,-0.0023847376
3814,0.0080112135
3815,-0.00011430608
3816,-0.012432453
3817,0.00036057472
3818,0.009099704
3819,0.01207578
3820,-0.009714861
3821,0.014387308
3822,-0.0031776694
3823,0.0070669376
3824,0.005690888
3825,-0.0004777586
3826,0.016030371
3827,-0.0020931854
3828,-0.006998252
3829,0.0061245267
3830,-0.0063834437
3831,0.008579997
3832,0.004783407
3833,-0.007099424
3834,-0.0057501756
3835,0.012418236
3836,-0.00050553546
3837,-0.007949076
3838,0.004318408
3839,-0.0061729527
3840,0.0037133624
3841,-0.012032815
3842,-0.004655977
3843,0.017400218
3844,0.008568863
3845,-0.012578637
3846,-0.01183914
3847,0.0017330752
3848,-0.007935776
3849,-0.0012750096
3850,-0.007370703
3851,0.01887042
3852,0.0029984498
3853,-0.01732825
3854,-0.0044400976
3855,0.00077679567
3856,-0.0013940491
3857,-0.011159793
3858,-0.015609129
3859,-0.0034943542
3860,-0.01640597
3861,-0.0016249908
3862,0.002145165
3863,-0.01605825
3864,0.00494799
3865,-0.005284099
3866,-0.015508607
3867,-0.0010296096
3868,-0.00068512984
3869,0.003895899
3870,0.014305939
3871,0.0014909179
3872,0.0035665527
3873,0.0031037906
3874,0.0064607523
3875,0.01053952
3876,-0.00085904135
3877,0.005550694
3878,-0.013254172
3879,0.0013183048
3880,0.0012355649
3881,0.0094317
3882,0.0006294817
3883,-0.009905538
3884,-0.000533266
3885,-0.0058172643
3886,-0.008077165
3887,-0.010316211
3888,0.0013794149
3889,-0.017976785
3890,-0.0005213561
3891,-7.804331e-05
3892,-0.014673768
3893,-0.0022980538
3894,0.0014059934
3895,0.0017143153
3896,0.00895841
3897,0.0033010577
3898,0.0039156135
3899,-0.0032397269
3900,0.008023484
3901,-0.006640712
3902,0.01472237
3903,-0.008643431
3904,-0.0030263208
3905,0.012302556
3906,0.009735433
3907,-0.0026569976
3908,0.005522858
3909,0.00035318785
3910,0.008706047
3911,0.00407002
3912,0.011113465
3913,-0.012106279
3914,-0.001095201
3915,-0.006863224
3916,-0.0049191094
3917,-8.2233106e-05
3918,-0.010178128
3919,0.000106014806
3920,-0.003657866
3921,-0.010874621
3922,-0.011323709
3923,0.0060208677
3924,0.007048824
3925,-0.004008558
3926,0.00027454595
3927,0.00055848446
3928,0.013501599
3929,-0.0012187627
3930,0.009693561
3931,0.018060632
3932,-0.0046121264
3933,-0.011463123
3934,0.00085344934
3935,0.0043968153
3936,0.008010922
3937,-0.0033308014
3938,-0.0074129435
3939,0.005032023
3940,0.01033718
3941,-0.0100103635
3942,-0.009654743
3943,0.0049924096
3944,0.0008826022
3945,0.0007466844
3946,-0.0026325884
3947,-0.014947024
3948,-0.00060857215
3949,0.0062987767
3950,0.019819995
3951,0.0049391473
3952,-0.012273391
3953,0.0014468487
3954,-0.002306557
3955,0.0146839665
3956,-0.018061237
3957,-0.011888718
3958,0.008005596
3959,-0.0048022335
3960,0.0036466678
3961,0.0073930826
3962,-0.010101119
3963,0.013268455
3964,-0.0019491116
3965,0.0057745967
3966,-0.014037465
3967,-0.001397065
3968,-0.006431507
3969,0.01579743
3970,-0.0011064596
3971,0.0038719596
3972,-0.001495238
3973,-0.007930349
3974,0.0027698362
3975,0.0010149549
3976,-0.004429886
3977,-0.008526839
3978,0.007999136
3979,-0.0031977182
3980,0.0040368456
3981,0.013636258
3982,0.010111802
3983,0.0016292565
3984,0.0016314837
3985,0.005294047
3986,0.0057357787
3987,-0.004483011
3988,0.0008717579
3989,-0.003655586
3990,-0.002398874
3991,0.00026489154
3992,0.0074269082
3993,0.00041039422
3994,0.008846936
3995,-0.0050615016
3996,0.00023584127
3997,-0.0013075114
3998,-0.0009666562
3999,0.0055473857
4000,-0.002826262
4001,-0.000616624
4002,0.006357862
4003,-0.0036332088
4004,-0.000874525
4005,-0.009703694
4006,-0.0020268047
4007,-0.00059767615
4008,-0.0027516284
4009,-0.0020227144
4010,0.006073097
4011,-0.010715025
4012,-0.0015450091
4013,-0.010181574
4014,-0.0056088595
4015,-0.0027350297
4016,0.0027178621
4017,0.0037316084
4018,0.0005388817
4019,-0.008669511
4020,0.0008054092
4021,0.00029356944
4022,0.0061951177
4023,-0.0043512057
4024,0.0020933896
4025,-0.0032674302
4026,0.009570179
4027,0.014505434
4028,-0.0044071106
4029,-0.011682183
4030,0.009055087
4031,-0.010488222
4032,-0.002219451
4033,-0.000508287
4034,0.00026109675
4035,-0.0017196839
4036,0.0060227406
4037,-0.00065918406
4038,-0.011652429
4039,0.0061546294
4040,-0.003396353
4041,0.014874843
4042,0.00211001
4043,0.00037019927
4044,-0.0018078416
4045,-0.015395511
4046,-0.002918971
4047,0.015985709
4048,0.0079002185
4049,-0.0074605327
4050,0.006115565
4051,0.00062396924
4052,-0.007166648
4053,-0.0045961435
4054,0.009185783
4055,-0.0110101225
4056,0.0010006854
4057,0.0021607997
4058,0.0036056926
4059,-0.0067639207
4060,-0.007324873
4061,-0.012107585
4062,-0.013963308
4063,-0.004325095
4064,-0.0054653743
4065,0.0070724455
4066,0.007409439
4067,-0.004277703
4068,-0.006477656
4069,0.00798139
4070,-0.015990306
4071,0.009594891
4072,-0.0048736962
4073,-0.007463629
4074,-0.00047136372
4075,0.0065298174
4076,0.007570599
4077,-0.009608805
4078,-0.008991082
4079,0.005108965
4080,0.016951922
4081,0.011362283
4082,0.0066936845
4083,-0.019702585
4084,0.0025782515
4085,0.014338331
4086,0.014759342
4087,-0.012004049
4088,0.0019071235
4089,-0.0058012796
4090,0.0056234077
4091,0.00092393626
4092,0.008584305
4093,-0.01958145
4094,0.012792162
4095,0.0032721611
